-0.004567490249883403 -0.005768808286253346 -0.0035122781662300963 -0.012805011006550267 -0.0030191572675925442 0.015229894805042388 0.008157754966210313 -0.0025873464632887055 0.001498603238353331 -0.004707016413630411 -0.0033499113793668423 -0.01853193236549132 -0.002448266361685113 0.008490031450004359 0.006851942464102778 0.006493743518328371 0.011516789851162534 0.00368395846691934 0.004866481912247587 0.007919350395096149 -0.01317832387486447 -0.007548615387940815 0.011821652406304901 0.02144697958490463 0.021475749030690928 0.00988833739628907 -0.0039291301802215515 0.015210514502947185 -0.001035283406906139 0.006045296453247633 0.015490191460324512 0.006216759911362755 0.010103738760054368 0.009122376454807846 0.006479584124850586 -0.0005710979593226923 -0.011407387673721958 -0.005018206300907916 -0.025041451557445367 -0.005838681001895783 0.007550935521343885 0.007785129512357615 0.00434699057851261 0.009669498199450222 0.0014414128163822266 0.018857195839298024 -0.004216569171170961 0.001176367702313208 0.0031541204410983677 0.0026603336522508913 0.017950737015122824 0.006877825287800977 0.0003414033903692828 0.005095548180340381 0.006432857068772773 -0.007506548052704846 0.001900172717928668 0.010565091456054422 0.0017686067177599657 0.006859109006095188 0.00632425458846721 0.004134639908674475 -0.001828359872186793 0.016809803189808563 -0.0012561080422621102 -0.009366698023897752 -0.0007103018130123699 0.009208172372763614 0.013255199226243165 0.0056169151961504024 0.010251018921774168 0.009886255984956084 0.013609715906799677 -0.002230835838178449 0.0059656705886136545 0.011335884798506477 0.012000025656769745 0.019792482466828746 0.006837886797873112 -0.0012000246732296674 0.002850864002564924 -0.025155375173433626 -0.014423357370751138 -0.010047751193360934 -0.007408349263583886 0.004095331416624935 0.017124879322994738 0.009931360093073542 0.007034703594534143 -0.01246629195995208 0.01897920804630799 0.0015460943597072029 -0.004065780527205719 0.007043439217490447 0.019897554904205163 0.016826800716146152 0.011685000263264552 0.01366278346690999 0.012514705884245286 -0.010183452751751813 -0.0052732845081527495 -0.0029712985051625015 0.011139862781040987 4.0463932826513864e-05 0.007646567245722045 0.011649081933071211 0.005268661328924961 -0.006117549886153432 -0.02019806369494282 -0.008280021690983248 -0.004872147351663379 -9.119072031379116e-05 0.0022440794742384787 0.01623148294910603 0.012446656811961384 0.010622808774267793 -0.009638274816793886 0.01732052138499219 -0.01309922975827709 -0.002714480480193901 0.009191516271129975 0.006630365271725628 0.004164627991242548 0.013195086713478507 0.014526518010490885 0.01958197645182257 -0.007884349706829582 -0.0005146799585782613 0.0009047645446518949 0.01172923985722557 0.0036218688469318574 0.00867030816307933 0.01560686527921491 0.00740098686203386 -0.0014405352278298509 0.020143951172354107 -0.002272918786121324 0.0017635459003205148 0.018388069467462152 0.020870839950298363 0.013341945954511027 0.005224030622903417 0.0031186451332482126 0.016551670878162984 0.009111520778879568 -0.020131356762774024 -0.009853909881198043 0.0011332604093334277 -0.004006772593822414 -0.0017932093977586295 0.008269663297256862 0.01080832315941245 0.015338984569870612 0.02107668520621902 -0.00184333042094035 -0.0013753570507786528 0.002949582715822005 -0.0061406146978724525 -0.0023444766957199372 0.0006078806935149852 0.010568241737946278 0.005554970873603954 0.008689414938647281 -0.0077566891585102975 -0.0045021564762671275 0.009713621916728499 0.0064398914448974024 0.003954661875307166 0.008811191321922261 0.002296365481631334 0.010829261695128031 0.04166993138000945 0.010117248449715103 -0.004524014085721172 -0.006916297116285095 -0.02477854367773325 -0.00485262904510137 -0.005260426403579788 -0.005860273339900529 0.006772180091863086 0.03272603753169759 0.002832713760520407 0.00040753504987837844 0.004950840694026282 -0.005240269427858392 -0.003624229112593232 -0.001853076567159492 0.009221702178589178 0.008537616410647342 -0.012136316491078738 -0.009714505917110329 -0.01375100467456325 -0.00488527535017969 -0.00037503296711718405 0.013808959013599395 -0.004340893078309577 -0.003317481954995828 -0.008689918677725532 0.05226822954519245 0.013195897758516657 -0.001036623107809975 -0.0022624429401748966 -0.013709652248471605 0.0017391535318481898 -0.004090256701468954 -0.006588447559777181 0.007374253082935172 -0.002276994424039667 -0.010250003634758215 -0.013204079150621148 -0.009852881894337827 -0.0029532652903181598 0.015924886021741077 0.0011333203207545596 -0.004392899595204966 -0.019362736999335228 0.0007307814830597734 -0.0019051293933999857 -0.007864731234724297 0.00402594697587952 0.010232828963138901 0.024558383044569698 0.001193421173623978 0.0019192393245046637 -0.00558442257444682 0.020590163203281373 -0.006928273753958706 0.002335688469096375 0.006620412860827719 0.008831642099859448 0.012172875226463585 0.007605763305181163 0.0036437486905933633 0.0055446045283487795 0.011177231829823456 0.0027122067003532368 -0.0005648009613273678 0.00027409442430192347 0.00514032847287998 0.020393060311380145 0.006271813907404771 0.005637554392768826 -0.009870869841192143 -0.004973152989435989 0.008185749081108858 0.003596048202542718 0.0004911850132464383 0.00663538041788465 0.010987806727305312 -0.004690857894265673 0.0015595575455471067 -0.0030811309272989707 -0.006100417947269477 0.003559862192040321 -0.020010502330826376 -0.010906737374230415 0.013381216011995399 0.02089972431119031 0.02034497360081927 0.0075625009700306025 -0.005909728914732222 0.007910713640375957 -0.0025400847427906673 0.0023338039089841976 0.016879806633288877 0.013116603527886732 0.01326571031081723 0.008729887480623352 0.004975532853701347 -0.0049253764900126125 0.01760738220814473 0.004681513126247117 0.0019841487423268847 -0.0007599715863341906 -0.010343040889536127 -0.01305863041348361 0.005215197976277853 -0.0007222586852370498 -0.005590972524665697 0.017160636480549878 -0.0032608730597171627 -0.008676710326863334 -0.01339501843920427 -0.017069941525548506 -0.012021361479416905 0.002712081931647737 0.0019398850859961747 0.003454715235206977 0.004434507438748211 -0.005645342299439929 0.0005471650236186993 0.016042561614892936 0.015583741808231813 0.016401401994692397 0.009110903672693875 0.004807530840454088 -0.00502645021689535 0.01665913122611836 -0.0014306266171746653 -0.010943023646447989 -0.00042065301091900767 0.01886371522649089 0.017599378863415716 0.00853371996346265 0.009959548433744496 0.007213821865698402 0.011217729647630563 -0.008507168555288241 -0.01262102987426928 -0.011108807498630725 -0.014493256320919122 -0.009438792366888741 0.003887462533706821 0.002983149965436015 0.0032799954015442826 -0.004652173783108499 -0.0026623473425392225 -0.003469064437617474 -0.005163893506135332 -0.011761691096254839 0.0016671267399832241 -0.010825427063944421 -0.008851911530338525 -0.004505516449513433 0.00813994633701506 -0.0023621354635629858 -0.00810963107119669 0.0022611230120217073 0.014676093939542697 0.009061774769900164 0.0038514358884710496 0.008033131784287547 0.005711304996303139 -0.01379691218880816 -0.005684860758222275 -0.006893201600164753 -0.002689647157369791 -0.013936658640498489 -0.0015518326211575737 0.007572717415446187 0.002166578936845372 -0.00954608730046334 -0.01084262013824 -0.005856484336799131 -0.005432977785654435 -0.007048446670972633 -0.010655901715375648 0.0015577437004041144 -0.009282289196749595 -0.011994885450305776 -0.007853873210778845 0.02756635565400603 0.03315685296625224 0.035689234850471374 0.037766724334710865 0.030119218228977965 0.006184862223224144 -0.009484809052238287 -0.005340940825883292 0.0063215199620298345 -0.022657010363589854 -0.009641218054338518 -0.008417516972755376 -0.003396622016237008 -0.01709707123545024 -0.006651458606003137 0.005460838104905785 -0.001039164361642948 -0.014268477284262115 0.0049750458041211395 -0.011279808339344794 -0.00585685213705056 0.005458542903556502 0.002118881234317355 -0.00290533409501281 -0.005694954847092629 -0.004965149486910813 -0.0005943558790175432 0.00901456045123449 0.025981119216636154 0.03713461790587304 0.03822446453752692 0.0245625702254322 -0.0008487556941185375 -0.013992116769909016 -0.009985514141591418 -0.01035643744898213 -0.010202006421135834 0.003718172790241761 0.013158706728145307 0.017663410169506597 0.02112011965757625 0.03821326723706384 0.04416634845038361 0.01617873693637097 0.004609100991207212 -0.004401493783986645 -0.0164298470480229 -0.00927514694299552 0.00020669273629994502 -0.0027672843234737314 -0.006205290779245075 -0.005491397878136209 -0.004592270502450327 -0.003226216062827519 0.02894745822485926 0.002424992249739413 -0.00897604585735264 -0.009367615079271172 -0.02225539603851629 -0.014558838650899785 -0.014352194211014286 -0.013801030545046087 -0.001915703256617531 -0.00785038441960451 0.0015408945060755035 0.009295379817338786 0.010561808450514772 0.011494147023526916 0.034716679261617395 0.04955248595556038 0.01893891646099089 0.00870392647636471 0.013787849911912328 -0.008551915983972834 -0.010668280193936803 -0.012851492036671183 -0.01044948885560141 -0.0003340012918758204 -0.016506928727458563 -0.021572686242001184 -0.01116566763601001 0.053329426983520826 0.013960784849391875 -6.314766163544234e-05 -0.0006442644455496842 -0.012635599567607275 -0.0017000534814277843 -0.00750879849708996 -0.010029293392934152 0.006721574067353038 -0.009500806387762286 -0.014201894701256955 -0.010667107718217054 -0.007268630000069529 0.0006174368930794236 0.016859059234913532 0.0036156503585368133 -0.0026196461161106304 -0.017127399403986016 0.03643216614366236 0.004608298558549084 -0.0012134063475581123 -0.005834800188874142 -0.00038866765616670136 0.012955322685240994 -0.0028764419168590327 -0.008946286353391501 0.002591207747084292 -0.005352786271545887 -0.020902577590335206 -0.01199744688992677 -0.009692676495501299 -0.015682343206002636 -0.0032329294335020466 -0.011444920391963563 -0.00911976661718561 -0.004704964494386273 0.011836620923571246 0.0005026256853369695 -0.0023707091963768023 0.0017942164320372937 0.00851364007437529 0.022027028355796167 0.010183340994500835 0.007080745843977628 -0.007781125548755575 -0.005368846353347644 0.011960983747154555 0.005629415775596617 0.001370934148098707 0.011906169500797044 0.0168234748278213 -0.0009578635645013486 0.004268541243105722 -0.0015943335005873533 0.009541781441220828 -0.009270159208239254 -0.005573817608619372 -0.004372688274705728 -0.006173071130097643 0.00914709182079072 -0.0032504705198905916 -5.4103982841753736e-05 0.014339871988430508 -0.024245874727382103 -0.00625299343974574 -0.0014366416446073746 0.017107732548456586 0.013835984294634784 0.01573754532088239 0.009814754223418787 -0.0004204469561397894 0.002285427393053122 0.0184569135635694 0.004832617253185024 -0.0006400759108327395 -0.0012045276071787603 -0.0055732752813241904 -0.009793518731324755 0.0050618021639085185 0.0018659321768218972 -0.004277925661156049 0.015334625690271771 -0.0012451035091451752 -0.008213852873507954 -0.004298536616025685 -0.009145723636750891 -0.003355319949692082 0.003946679650250188 -0.0002467706919087951 -0.0007680146217041203 -0.0026588234459129115 -0.006035329240053946 -0.005774467114053769 -0.007590564576322044 0.014982790000599764 0.011560538146826112 -0.007480018680411444 -0.0026137865899089974 -0.008795100639952657 -0.007977384186898273 -0.0073929597276786605 -0.025495679786950214 -0.007761340125894973 0.0031796949063441255 -0.002778515386004326 0.006778236866622512 0.00231886933421728 -0.002293173706486134 0.020393246260429668 -0.00034894079898163406 -0.006302404092493614 7.359876476310592e-05 -0.0003812433029149059 0.006239603963933525 0.006874932497278396 0.0025672106184539637 0.004435476522702916 -0.0006789836396544919 0.004147818660719746 0.002718747258619965 0.004612917256896326 0.0029834293350551842 0.012817751921864353 -0.0029220165787789075 -0.005975737556805554 -0.0035658413010227832 0.005177128188324399 -0.0034412003953375953 -0.016682937028515227 -0.0027743132543682964 0.009469062918373048 0.008653709639748392 0.013219369152157299 0.005932519554695667 0.0019039527263432 -0.03294178984033834 -0.016435591655440826 0.002133733735997404 0.005245305545696966 0.012648448482771683 0.0062661387793985935 0.002072361254603333 -0.0037820214688905956 -0.009014670684427207 -0.005593375435649827 0.001392216270617966 -0.00029705177623378596 -0.004675827163674217 -0.005765761482779931 0.005287645738412957 -0.003888321941781497 -0.00806341141365896 -0.002977110010680781 0.021105925807389358 0.0327674449437559 0.03586673418922426 0.035702812504344754 0.03131651773715439 0.011807566846631166 -0.005950296710880659 -0.005953012292887364 0.0014915873783575301 -0.04757366068247024 -0.020578235327056417 -0.006544864100425198 0.0007521884114723488 0.010794114164821749 0.00020586810299784192 0.00046711267874077696 -0.006960624625978843 -0.011710202816938518 0.01916582269188248 0.007888605200684694 0.001472705130753761 0.0306251073871691 0.012704982352156438 -0.009000733440966396 0.0069008121908814895 0.015151530655030214 0.025051243910750854 0.010781229396618314 0.022640610984131115 0.030180241605882153 0.03185760971754728 0.020204788727596804 0.0007704513052741412 -0.00780551180706895 -0.007793289684609411 -0.00714529264434164 -0.002418517987584904 0.006006313146104243 0.015489708412429295 0.020938555846420355 0.022854445503971577 0.02833924825237004 0.034429941563922 0.011535867833758904 0.006237062919716156 0.00941653450496597 0.0018275070252156858 -0.0009749024453267619 0.022726219707973224 0.004328158834655615 -0.020937941224126715 0.00015007823090701456 0.005317004496766482 0.011921715451048764 -0.018015153357916626 0.0018876534380389927 0.0034124396307957635 0.0025842430663119715 0.0018345160240570216 0.00965712575981792 0.01390599030725662 -0.0009622320801054149 -0.011402524412341594 0.0031495282237811225 0.0073864511648573765 0.015896264910103042 0.01959527739130427 0.020994806140003677 0.0351078173293066 0.0469424886936619 0.02115705492615672 0.013492665836940454 0.016982385847910415 -0.001543790021640215 -0.0035005931152244122 -0.004757637963092356 0.0008170209071788658 0.00858314920592725 -0.012773424265119005 -0.02183825855551331 -0.005771965470075321 -0.011720619825718526 0.006033955191004546 0.011571881489934197 0.006987517145052028 0.009739780465175898 0.016815608637297953 0.0190901079748105 -0.0032110056791001644 -0.009100606563946491 -0.01877777848581227 -0.011938014367548525 -0.007409721129038871 -0.008327667601464977 -0.005698016061490383 -0.010372961640612348 -0.010203522082981687 -0.0019570496098440834 -0.001854892753456712 0.046231996029570635 0.0042487935608698365 -0.0009203597166769291 -0.0020204578166099297 0.006688025677683023 0.019622066259989072 -0.002398323771154775 -0.01362276531343356 0.005183625108798424 -0.007264046461658638 -0.01773264781140235 -0.008395520697226752 -0.0020548905871313507 -0.0013856252845999891 0.00506388803941431 -0.007757058627604246 -0.008759870420575588 -0.007935413064539312 0.0024448161617719897 -0.0017080224526758669 -0.0029106600318722538 -0.005404938417858567 -0.0011494974049477474 -0.003694750428954879 -0.001414701029836782 -0.00046162509097651735 0.008099581506671632 -0.009923386424862431 -0.004434417099108624 -0.007778506966721374 -0.010935009175698934 0.009411971861986172 0.012683972480268325 -0.013353484926252842 -0.025641033855911682 -0.023043128943323242 0.008087552997833205 -0.008203437533835293 -0.003622334686343304 0.0011364198062285488 0.005002277233181109 0.016913073360703742 -0.0025500381374295527 0.0007507961266677993 0.01312958371404047 -0.01632309535316092 -0.0008085863611969138 -0.0014958539748400291 0.01630472594600236 0.017085612801114265 0.019207858212571167 0.01147002788518083 0.001388484602384756 0.0053080246492250155 0.005405440572779484 3.606347524758664e-05 -0.0012719897924534018 -0.003007630760777453 0.017653054485262297 0.02124699874931365 -0.010591847992764079 -0.023145682545933795 -0.015204402798037166 -0.016404094638450686 -0.007098570198217334 -0.00020295284995416408 -0.001005330946071367 0.0026021456053455716 0.006203636979250913 0.012483374186718002 0.004830622150803668 0.00510615342977108 -0.001299694862422814 -0.00534031005651209 -0.0035685206527064257 -0.00842826650414549 0.01744452620552527 0.014389449666328926 -0.00646930948595218 -0.0014530539642768079 -0.006680937898557896 -0.0012885491294767548 -0.004892492210636656 -0.022319619715569162 -0.00625602898906096 0.01081272969964603 0.004365847991236343 0.007363111566596136 0.0034613813228024136 0.002706449390915719 -0.014983637682626633 -0.01992014103691816 -0.012560255493140486 -0.0017894795051592778 -0.00815219694989016 -0.003670089745377991 -0.007358220216899482 -0.014592893822179322 -0.013365802964054412 -0.019450651799694706 -0.0020593652677779527 0.00015814060945705684 0.006899613340723551 0.010687240544755696 -0.0006515888718548156 -0.011686980093409518 -0.011181377784770578 -0.001561957393433653 0.003372878313140877 -0.0014204330254178204 -0.013487990545542812 -0.002307646449570732 0.014194938610547908 0.009661268401537916 0.010514461813838062 0.005518606014749171 0.0032058571907606533 -0.02570307393933513 -0.014209131470301645 -0.003659188525872681 0.0029004422601582296 0.01452730985881928 0.005814252841462061 -9.56892123957175e-06 -0.003659518200357113 -0.007743111430698532 -0.007506885411761846 0.0005201332218442943 0.0012280970785446363 0.006696702618713881 0.01332699560894555 0.0033861871716264155 -0.009373771888443686 -0.007884607922807133 0.0011750434263646421 -0.029724322308224596 0.026304904426681805 0.0390084638538965 0.05402629339795822 0.005789001760712297 -0.006853874692544931 -0.014586944608126014 -0.019278454379583282 -0.020877277457005097 -0.02885422553745849 -0.014907120784621107 -0.004472136708533465 0.0036218149992399457 0.0132074964465842 0.0031430731881690417 0.003207893783251247 -0.002565525828605277 -0.004235772114014389 0.024242373930147637 0.012556989521380643 0.005974955068534 0.03355841519361942 0.015999946497855622 -0.005571288662630133 0.008444772650357035 0.017843306196395632 0.028093232129581914 -0.03570905387447772 0.01798318993431034 0.029747463767922325 0.04630458553664811 0.009457855385199755 -0.004677699976730909 -0.011066450671815402 -0.01385208602315634 -0.017082107918195717 0.0008541731375577729 -0.005472569883273277 -0.00018779658243659359 0.017251562992239778 0.015463848158805985 -0.008147261865372233 -0.00021683430275682764 0.001544740382596812 -0.006998273096166188 0.016880127864249823 0.006545446737412822 0.0036596016576079513 0.03139255474607067 0.010471646665837804 -0.012447337672802017 0.005298999285250207 0.01405610362551003 0.022846787359954324 -0.009213430557231825 0.009964130016693808 0.010840269211707106 0.00846907637481221 0.010895370132105828 0.01738839582032882 0.020767841863199802 0.004735745691521171 -0.0041466599876070044 -0.012139301502609329 -0.016225058759720013 -0.009017778854122634 0.01402739309582571 0.01214727787009425 -0.01059717725331826 -0.0010144752420992251 -0.0004784608629374086 -0.013306182796893433 -0.007907935543958664 -0.005662454370588823 0.0039221190065729826 0.012790935065601385 0.0020036708735292562 0.005773417142043923 0.019406952566730445 -0.0038257643314845565 -0.01062115958947766 -0.010858756009320063 0.009319986143448877 0.013564565693311399 0.010095276091448543 0.011914873371046313 0.01995791118482835 0.02039592513957816 0.0009393035259695434 -0.005740149639677262 -0.01428444293593376 -0.012347568462695907 -0.009332168016378716 -0.009147401220231326 -0.0060344909947469 -0.008149617569363788 -0.00865731973026027 0.00013081537819929767 -0.00026872813581709973 -0.009628896341547871 -0.008520423788282008 0.0029136993964039514 0.01396366037543636 0.001372474505458689 0.003498500716627176 0.019005804046488883 -0.007391320522856225 -0.012909999922670792 -0.012868067945793838 -0.010909323413321523 -0.0030349048166449445 -0.005553935029337809 -0.014032466928800651 0.004447286116174207 0.04676231875600297 0.05564779283992839 0.022121576341556662 -0.0005770836393443507 -0.006508402411992475 -0.007493938447382815 -0.007441649232691362 -0.0021655078519567314 -0.004820311917406595 -0.007849505174438009 -0.0006496124298333576 0.003995728331213434 -0.015917375087971877 -0.01394550348286714 -0.009374649862126815 -0.011416451271328149 0.009345428891368142 0.014089201971937703 -0.013639559698043402 -0.02698451587726709 -0.024812308898732465 -0.011869005788531617 -0.009577507099512482 0.00010056291197851116 -0.0026713483524566034 -0.010728190296733173 0.012102905785625381 0.06290090736592137 0.07337254148203855 0.02839437061620185 -0.03401442592178957 -0.011441505330728161 -0.0072028887884196474 -0.0020994087991501047 -0.0006750450246819275 -0.00804716512967894 -0.009403409508007483 -0.007015921445504112 -0.009619910108008271 -0.004010075501314685 -0.010165152531027016 -0.004593627521927587 -0.0045180085862544525 0.02197514374764361 0.031013947847395248 -0.003605226189114463 -0.01741069042411371 -0.016447075053551204 -0.024834725076494847 -0.010039828360581074 0.0006705875135015046 -6.688415984123976e-05 0.00611070026213783 0.01109222824339549 0.013809257584294785 0.0031844945780925404 0.00035292454284383337 -0.015253849251421335 0.0024243209870284084 0.0012385871735841863 0.003032059792121687 0.007269333645468606 -0.0015407612048822768 -0.0043227827739842585 0.0015386424696564773 0.007354494039721619 -0.009164696525734456 0.0011631025132816573 -0.002740268841604625 -0.0009013655848569761 0.018242176082084914 0.020048209046241047 -0.010704171558210832 -0.0077240157470769705 0.0009805427412823994 -0.010273118517904405 -0.012981171658900146 -0.00700845283229414 0.005409286246967324 0.009319426636812358 0.016869057372496287 0.0013080690333740516 -0.00798934933447578 -0.0068259464416370146 -0.011865897211611949 -0.0011939757231442484 0.009058471361990306 0.01708576336037698 0.029602669493218586 0.0170183767897747 -0.001968673682196199 -0.0023812577856228787 0.005462809759347657 -0.015942209956180578 -0.01194582147687673 -0.00898867323606176 -0.019216417689546267 -0.010836566300265601 0.007387804025144559 0.008081095424959082 0.0027202142648902307 -0.0037078989653179626 -0.001211996208583718 0.02074679602670138 -0.0023641096658196994 -0.00017258237171963696 0.0014845335625595776 -0.0015980694601438637 0.0014785292673616306 -0.003907073365163294 -0.012946100592019987 -0.00806126089262163 0.0009015441723586868 0.002988781950797336 0.008474168929132707 0.017781231545336423 0.010420509201357371 -0.0038667464032671158 -0.002357199097573345 0.004215284216791306 -0.02802808826683148 0.02288372115524794 0.039193163197529635 0.05394471980935778 0.016421147058943087 0.000206085766207413 -0.010383456379863116 -0.01396849863619921 -0.014064932301121547 -0.00018176106297295358 0.008805164864513961 -0.007329811571014158 -0.0043646907556247555 -0.005776093950782226 -0.008128772852052426 -0.0019671879516595494 -0.0038906808547835457 -0.005222562372015387 0.009910454851487276 0.03561178522773623 -0.006988102507466513 -0.0093818998162041 -0.013890862521564134 -0.020527410296440025 -0.005070174386620136 0.005475590157496343 0.0033021755381413644 -0.032427238230131196 0.019498850224512983 0.035153486810310955 0.05534318048633647 0.022612151784494553 0.0016941502943384492 -0.006753578646126734 -0.008883804338072308 -0.012122823097125354 -0.0011918065878054362 -0.004891912675985557 0.001547453499363381 0.024720665042811143 0.030513148736955386 0.0036377510937959643 0.005706836522329514 0.008426400818430279 -0.005304534788174567 0.001197719247136326 0.02848862459948205 -0.010122372194671651 -0.009671067449842126 -0.016520747180393147 -0.021230475229621112 -0.006611168268145279 0.0017454886778919176 -0.0022357247626624377 -0.005903353157186996 -0.01746350140511549 -0.011625500824347476 -0.021143397135026106 -0.01640156947034234 -0.00941313421120285 0.002482519483032061 0.0014148581187090844 0.005044323764226511 -0.007552579633249396 -0.00847140119357296 0.001536066005958795 0.034188995236469996 0.04001665836804164 0.007242916519279725 0.009637453580734631 0.010402275604001613 -0.006079716920892337 0.0014527246171947387 0.0013880782484190367 0.011253649838512653 0.02090809837148745 0.01724419476931948 0.028721151295480397 0.03957093260447536 0.0055581977981651156 -0.0009255339767543585 -0.013122586129649567 -0.018238986552215074 -0.014930037645836645 -0.02723272388150391 -0.01696074112214501 -0.009683251998708023 0.002813782676741559 0.002249162066965509 0.005279426153325334 -0.027062409441480015 -0.0024383286713336337 0.0007275740858003234 -0.00657903964877244 -0.01597058576653536 -0.011755733339015122 -0.004213681449531089 -0.011405935240349562 -0.01504670754070925 -0.006976649569858961 -0.0057905190652144 0.0026008241346564256 0.014154407678832819 0.008422351051434409 0.01637075665461754 0.028068241677096716 -0.0024596693886242103 -0.010437907165336161 -0.00772771441585665 -0.006962825552930008 -0.0026679892771528835 -0.0036457553833073426 -0.006479540377936768 0.01376709118885178 0.052220310110826555 0.0610235857638457 0.029201099863042035 -0.029227713617778265 -0.003839624845314108 -0.00753151327506426 -0.009419534127613715 -0.018130877006258792 -0.014475373606084262 -0.006423909256840682 -0.013174802243889219 -0.021877616490097496 0.013038297953202568 0.002802837713203409 0.012645000517418955 -0.006025728501175486 -0.024006708643415992 -0.014560450522472275 -0.00856194703744593 0.00795671193912764 0.036583519055132 -0.013217567843392472 -0.008187313264813121 -0.0009387387040967848 -0.002680602169788503 -0.0063921574193362965 0.014431321798227885 0.056336421375409444 0.06288781368813463 0.026554450324352285 -0.03335699306650661 -0.01050413068675365 -0.005480723839745133 -0.00032099059875878973 0.00633718479280798 -0.0012091730199350341 -0.009304520966414877 -0.006321800051438863 -0.013278547767588803 0.010816533446659884 0.002491934128502017 0.014435867469812002 -0.005118118123549822 -0.022151205708990297 -0.013515658075935987 -0.0077194968664118175 0.00738902475682357 0.03699507306685735 -0.03489513181306836 -0.009720002147463021 0.0017429954828049148 -0.0015974903534454038 -0.0030587878636635915 -0.011708084935688031 0.00039116055157928115 0.00791956304220648 0.009111038885372465 -0.012074307406341914 0.005969900392077769 0.0024129194233251305 0.0012418447584355203 0.009890429052817909 0.0016900795687968234 -0.004183638713049969 0.001627038228043746 1.255618014063336e-05 -0.013765085691991358 -0.002441915381881912 -0.003072802897583487 -0.0012185519797202878 0.015523085617174956 0.015156818858468148 -0.01064922655878694 -0.009810880997969082 -0.0020770660444386618 -0.017688411095425953 0.004105417217330126 0.008800664553976595 0.0019336256126424322 0.010563466490673643 -0.005144537298414083 0.003278159345781871 0.019309073856798194 0.026207063540303735 -0.022667878729398253 0.0026324475550990236 0.007978741655703775 0.004437557170673102 0.022554499434329387 0.02783058955430344 -8.564929228281701e-05 -0.009665875528466775 -0.004942333896645638 -0.013328798462201374 -0.011522164703642973 -0.01171873562965263 -0.023623013602141862 -0.02146500537101097 -0.0007088287405503952 0.005565864182790779 0.002931510161256074 -0.0031629971297448293 -0.008746980713985393 0.0032808415734928405 -0.007741541359512482 -0.006800710347530216 -0.008746745720314959 -0.009495259452323225 -0.0020384272501999252 -0.0035295176444370196 -0.00986758373486138 -0.009158267357727656 0.004518210446136387 -0.006540340855427883 0.0008670335920114898 0.018594917289871893 0.017250734610020378 -0.002186868936000262 -0.005920231606442009 -0.007601834640784939 0.0045708316221706215 0.018356397219624173 -0.008058877232179884 -0.007090769008039051 0.013146440798978538 0.011247686713317936 0.008355016691541478 0.014113324945036835 -0.0009939125900313523 -0.0075465081344159995 0.00927494722929049 -0.005747193879979542 -0.006118527144266497 -0.00897620042629409 -0.009057980053390669 -0.0017804212938137011 -0.002052684878348751 -0.004950787933970773 -0.0005755321494563407 0.028744379288446337 -0.009038355267666739 -0.012983936059191166 -0.019227419736254185 -0.024115838545917374 -0.007488163567431718 0.0015151310231643171 -0.0014517033147840876 0.016759805313681465 0.01413237083513195 -0.00565495828406116 -0.005319462747578276 0.0080807398973421 0.005895754381747278 0.008740998820830263 0.015079458626164319 0.0016730829694941683 0.0015924765178759433 0.018839871387360853 -0.0031715201457144593 -0.004164437858839019 0.006993173044749075 -0.004448513355583414 0.0022596772635098007 0.0014335509539809867 -0.0007789152519797555 0.009779751847509241 0.04799821471613726 0.0017363344609972657 -0.0014125794888713245 -0.00880132549667818 -0.014338740355007361 -0.0026069835360169632 0.005517004793852767 0.001276475486955865 -0.0023782581994683046 -0.009323728976143789 -0.007483874853441005 -0.017230781479292433 -0.01373271554627319 -0.005989161672880607 0.009012321656024188 0.004610886341448957 0.01098049482138941 0.010362218983207801 0.029433520018979902 0.0049805666996109044 0.001545752432060812 0.006311690266085544 -0.0008291368643570449 0.0054043895533564595 0.004172219014447847 0.0072929799781391545 -0.014257067374133646 -0.007338464242855511 -0.0063555268469596814 -0.011597132932915716 -0.003597177902980062 -0.005071801371433903 0.00046264502229865736 0.008429067743383142 -0.003981927040194154 0.00748712667392799 -0.003227908942388153 -0.005689020632161984 -0.017216738086698786 -0.008510424000165164 1.256665145272953e-05 0.017152999980455705 0.018903931766336386 0.024519624418769627 -0.012032168690803676 0.01773605328756864 0.017221343513732154 0.0036129321771126563 -0.005645489224707902 0.004972389925602817 0.011902181824796534 0.002152226009393316 0.006810009436686212 -0.003068750378014604 0.0021340221311851202 0.0022528281052935336 -0.005924595359969217 0.007749850521864546 0.005512477816166047 0.007861907362971177 0.012016344561416535 0.003621197578843913 -0.030612148622181826 0.000792436098922481 0.010573052631924821 0.006052027392032354 0.003745249503591303 0.00027745988640967556 0.013310689237314622 0.007130027372715847 -0.00843905101917811 -0.020897088992689224 0.004499131998637689 -0.0021987820035280605 -0.004060671048070778 -0.01387715058987796 -0.006368803421603871 -0.002876840955601852 -0.011723820441197767 -0.014685108843480923 0.03331205357359396 0.01255873638667882 0.021093949491324003 0.0026986633511302018 -0.016808173698605718 -0.010854365117257037 -0.007169552839690904 0.013202338109928158 0.05501961247671226 -0.0422207238956543 -0.0165126478086397 -0.007069318453359959 -0.00047818033856437264 -0.0035805836276146174 -0.005882727679347595 0.003285574922589048 -0.00643706942521434 -0.025791934075541655 -0.0006038127282167838 0.02458923487484897 0.019885304710390746 0.020249828351368505 0.021335560092900076 0.01097849980594368 0.004014311232987135 0.00597221467179306 0.022705752536062333 0.01951947898966553 0.005144050686528962 0.015707450347198126 -0.002780740684382656 -0.018531905091935336 -0.011884948553566881 -0.006413201680063373 0.008328923585325262 0.04350959651810088 -0.024860184235801247 -0.006856232940003599 0.0028854443499913354 -0.0002994575839882843 -5.524553736391421e-05 -0.006598318090771997 0.0029252799664663213 0.008097303608215964 0.013335596036346774 -0.008778410297734443 0.02013709262631636 0.014729471438611589 0.013772023525563722 0.015283437729996694 0.006709381311428165 -0.0011771768720814813 -0.00037379085109813347 0.009425205741830945 -0.03378130356226319 -0.008413426719022782 0.0024845903538870465 6.04305843403259e-05 0.010803091134594996 0.0009099379202929642 -0.007815077719414903 0.0051856061906525655 0.011365636396742543 -0.01672992760413735 -0.0008358346770025846 0.005853999419153775 -0.003027123002530031 0.005427157157930477 -0.004314633239933332 0.0012800349934005 0.012527131222507149 0.0231861133506232 -0.02889178784556383 -0.0012739396884596484 0.004097481123355749 0.0014904489789022077 0.018408878324247282 0.021750256739711572 -0.0010685893432388059 -0.011246881876156386 -0.009018009294536633 -0.015158396363139951 0.0004595893451228728 0.010851780056784492 0.0042283741830118635 0.017059134982025735 0.010978358636491938 -0.00011810468419155983 0.015386105461673964 0.03292453948309924 -0.04724189860778853 -0.008414713095635637 0.00030394208504255576 0.005069085953844713 0.017531619300193882 0.018343952235795054 -0.00895152738065868 -0.0029394348882643318 -0.01472989728344339 -0.005136365290473864 0.007881862978852029 -0.006777510655005802 -0.0016705307711951595 0.010774032251634376 0.010445106896064428 -0.00413650910247641 -0.007116597828044812 -0.00840223449125136 0.005254335488605776 0.003214429292442237 -0.012582708577996841 -0.01035667826173149 0.00969544455561419 0.008046048417886417 0.005041000271446296 0.010207413020201506 -0.0018898525348134605 -0.00020345300924538975 -0.0109130336492025 -0.003349585730918613 -0.006205321648723369 -0.005283734939193749 0.0039792187958678305 0.004240773792990763 0.005553224566172996 0.016200300305912022 0.015221219232937693 0.010877992523891863 -0.005034722349577217 -0.006706509932439498 -0.015311657050855739 -0.010697072478617892 0.0028971234657823937 0.008331911709030606 -0.0067339430903473685 0.016445335703879887 0.008911645805022437 -0.0076130974298019285 -0.0067845769842446 0.0036926232932232017 0.0005226801166323854 0.004346582906500505 0.009679643673799185 -0.0006878633632988631 0.009645914174286209 0.016389377275252495 -0.0065360076542799244 -0.0078114076536433446 0.0033723188476416917 -0.008306657652779008 -0.0009720495270723959 -0.0025106094594454236 -0.002774439145300884 0.02995952179549303 0.013756030191512175 -0.00480968715979717 -0.008982086755623576 -0.01902895788080012 -0.01267343994758465 0.0035576605349011354 0.011130022452886001 -0.00011887049407538659 -0.005742803747027039 0.03588359752775546 0.007649332022077678 -0.0006337365339929367 -0.008537649931849592 -0.00831753812864639 -0.005493658720913283 -0.003024826774116038 -0.014510574766816872 0.017549827980938085 0.032558738790392575 0.004289077898140484 -0.0015471605192017993 0.006834254595807048 -0.0026446877286155687 0.002843190467721391 0.0025927015968429936 0.006501562144089366 -0.00854999260884586 -0.00474543349797713 -0.004907626296772309 -0.013070366323199186 -0.004248636419447603 -0.0029162928149200165 0.00075910651764283 0.007637725915956915 0.00044686640660076453 0.009370176046945091 0.04835506554457944 0.015737109349290304 0.003284511980305131 -0.006999161956918943 -0.00555767482697044 0.0035805094326781394 0.01516930102417891 0.011564970490339846 -0.021457534775209716 -0.017830469137733687 -0.007873867476491953 -0.007135170260486134 -0.00019808311347053683 0.0067025630714001696 0.007024902469935025 -0.0038336066936915684 -0.01844003252082041 -0.00011026255334927338 0.007495026472971323 0.003790324830643769 -0.004714581863138704 0.004091975282064024 0.0031462781489606196 0.007219375429006279 0.013356076895108749 0.007663847616028628 -0.033761380275886564 0.0029149706828372314 0.013635910764781487 0.007229660404807826 0.0037079481088237443 8.126668730133561e-05 0.012755497075613388 0.008688654410470079 -0.00589714390043477 -0.018553555267185457 -0.010054634313259314 0.0034353623278333655 0.0041720120375838875 0.009803485748200173 0.012870928994706921 0.01629063008508003 0.0032682576666836763 -0.01817443121992407 -0.020880182654857957 0.010972801223594538 0.01618761601321496 0.008540529387001578 0.013444628242744417 0.01198855657203476 0.01486841668288379 0.025414486501526497 0.027377735669937765 -0.037605467143433394 -0.014338182257013835 -0.008183272992136862 -0.0022302831180869764 -0.005535573776291512 -0.008877822220421624 0.0016733814013117027 -0.006179814526700332 -0.022430321884041267 -0.0005664151611274376 0.022817143266579534 0.01540438131256458 0.013953482494310387 0.016290939858512946 0.00899428870748098 0.0033990133264550897 0.008368009483906267 0.025824055320191715 -0.037227681780727606 -0.008928721009902147 0.0034218874907954028 0.0011029167564589777 0.006884095030562609 0.004619382238208367 0.0030406874591462673 0.01150918075503611 0.0023110639420199815 -0.012174698388759116 0.0020655512922603723 0.01630686954195928 0.008534314675767107 -0.000911912333288389 -0.007483491938238303 0.005195587181939245 0.025158355912441758 0.023443992227778016 -0.001134268826436075 0.0208577141886148 0.014919115042242973 0.01447442559629936 0.01388464276329367 0.007091788108437222 0.0016172335543877987 0.002428693647000861 0.017265645455484233 -0.03187479210448349 -0.007139294177236811 0.00532989614633949 0.0017244031619931097 0.011258450727193588 0.0013693935517457485 -0.006072479720032524 0.008138713278506168 0.015801197105093163 -0.007622282764803815 0.004086620322551209 0.011033502405881034 0.0044929331543452165 -0.005550320384140316 -0.014699701182321358 -0.0008439923740932339 0.018888328164880234 0.013779533865280923 -0.013680063826604609 -0.00016400684531401373 0.020950363154427065 0.005546135093766424 0.005111513949344407 -0.0015026699008410355 -0.005648316206527439 -0.00118534888954308 -0.00953227037224387 -0.02588994620958215 0.0020250034574003806 0.014375560023520088 0.005464615257369937 0.01543308810101515 0.012057319487626578 4.437628707632869e-08 0.01529280029195513 0.029703265700908827 -0.053824445789290014 -0.014285298824089465 -0.0027659409688764788 0.00340225844822991 0.017632831295042575 0.02179986972447229 -0.009305061979140772 -0.004339585691697757 -0.018696135274282828 0.005789250634101469 0.013356221432948021 0.03306437710150218 0.01004288549051074 0.015482147781669377 0.002534935970682515 -0.007038710139098406 -0.001945875421465537 -0.0031648869443470957 -0.03237489791136748 -0.0004208447132887112 -0.0005588635038256173 -0.0016376490733550201 0.009326211344905222 0.011333545691491236 0.005740878921370943 0.00124941134927898 0.0018963429592911462 0.0021691444851416916 -0.008716603118878757 -0.0020162914549394866 -0.006081356857921408 -0.005428598989418083 0.006173675639464455 0.0070687818378506444 0.006836498500598955 0.017350901862446456 0.040084429343035605 0.021187771404426875 -0.0019652923129641095 -0.003995615046298764 -0.013986207835194334 -0.010079883282352643 0.004198907595198828 0.015623537526686233 0.007267374572670515 -0.003681737042255445 -0.00477914078568632 -0.006490822092830174 -0.012063936968250597 0.01191232911586944 0.01413240111868937 0.001533703780376826 -0.0029157778392038636 -0.017655933602994917 -0.0051925394880286135 -0.0020190381728933215 -0.0016917880807088184 -0.0017952855944089012 -0.005053147474925968 0.014461138724260237 0.016460205535709756 0.014365581363324845 0.02334009620595242 0.03917909972816083 0.014605367400895308 -0.003977634555516459 -0.00909748398459526 -0.017842753266296602 -0.008375762052846998 0.006581113400959036 0.016650147448374928 0.008296878901882656 -0.0023095821587502765 0.03843996930812928 0.01167045002045123 0.00199609551594887 -0.0040706412814841015 -0.005899336725980463 -0.000833256035502641 -0.00040260063651380653 -0.010876746791536373 0.00755170542965183 0.003064782598352041 -0.002034115688740556 -0.004461486170055941 -0.01276242912080035 0.0007287196846107792 0.0069953608910886325 0.007641723561752259 0.019045242815085014 0.006930349185360918 0.02799660549337613 0.007961726621706798 0.00023646741358751772 -0.008401021013102649 0.0057874313947117555 0.004371204279206857 -0.0029695740337595355 0.0012936726179163002 0.007591117205487925 0.04593489870730812 0.015630088504383296 0.001984359464362205 -0.008599519305573886 -0.008217693412546738 0.0010324828176613977 0.0075560054824315 0.003076730471258367 -0.016557566057866683 -0.015038575245766263 -0.005374270946110883 -0.005319985807929244 -0.002218373408810411 0.005395818298272667 0.004737340875972064 -0.0028741495893869263 -0.013382119535530472 0.024578829970420057 0.03763921552802749 0.01515261994436165 0.00023300946336369502 -0.0065381764549139795 0.008225828551460186 0.007617990860291438 0.006462585662451678 0.017894837335401863 -0.02813181026105332 -0.020272802341753212 -0.011297551827653692 -0.00743465259055487 -0.007810615807003021 -0.004697557930743356 0.0015587056337409274 0.008335317060718241 -0.0014714276497269033 -0.010604657866335876 -0.006910219672440694 0.0022646784997496254 0.0016417355999547105 0.00891804535680066 0.012776279004073323 0.013698912541633405 0.0034835696243523907 -0.01144346234888013 -0.016448579367845145 0.015668444617123908 0.02025925546964345 0.01238519572705173 0.016735415848587256 0.011358562281411157 0.01182122871141421 0.02215258041508931 0.023709708579045495 -0.02348195289339828 -0.01348486501230809 -0.006853907803159367 -0.0028620809809554873 0.0024865849959862423 0.009065314658600233 0.01177022140719329 0.01660884830402007 0.006623102046982425 -0.016036252126982783 -0.02927472944419063 -0.006594634258086305 0.013985260210134118 0.005334843577420791 0.010555941714284053 0.006424147859500584 0.01400740869644371 -0.00017308202076369347 -0.029259092498985367 -0.0013924649054453042 0.009395899110490559 0.004887198160027714 0.00966453237308378 0.0009536715547863671 -0.0001740983269567164 0.011280624200379976 0.004351423661120529 -0.010983938810652205 0.002132606355318053 0.01513587860245935 0.006313137587798136 -0.004164691597906334 -0.010735705613009905 0.004242539761795305 0.023285083429481955 0.021152694541925355 -0.03748503681000735 -0.04047069248110514 -0.012415143853642079 0.009607106390413272 0.00019563352058394375 0.0029654500036429003 -0.0037178693745639818 4.059344940295778e-05 -0.015001768961926886 0.019275183916983917 0.00979647650352981 0.009665747412561654 -0.0013187060631700768 -0.0023760656044399028 -0.002294862526636531 0.0009459705132252622 0.018951878167503683 0.028878059146639604 -0.011066656302186917 0.0025539445808044152 0.011616042224029802 0.0036028410289747005 -0.008573842450937907 -0.01634217828178586 0.0007953617586951055 0.019401001600242034 0.016000592660669836 -0.015225840182999911 -0.0010103479059130683 0.022291088355066956 0.005427407917936921 0.00434034804624896 -0.000695567616085916 -0.0033159825016983537 0.0012205019187655302 -0.008426637442689488 0.02054174996564323 0.007851795244372087 0.005315820409717427 -0.0036356329089223304 -0.007198073263992331 -0.00933814195494831 -0.005359240439572243 0.017133924096387854 0.026973015877798094 -0.014295278411717125 0.007390838443151374 0.010239756951947562 0.003524423460260587 -0.0015810919204713122 -0.006011269710702452 -0.00891955582977007 -0.01200717398738959 -0.02123944218422303 -0.009634101534873079 0.010529952968114821 0.033253315178784576 0.01028551530566239 0.018501036948549602 0.010612372826012382 -0.00373548970772994 0.0005780465252840572 -0.0060032760312984 -0.027026094473472408 5.372086076205413e-05 -0.0021771672782601396 -0.004473533069615853 0.006696177535932207 0.007513040363014724 0.0011839285365529825 0.0010878000519470793 0.0027530424119917036 -0.014755439605842444 0.01450072951956804 0.017001252104667252 0.006724961877523212 0.0060764996282611835 0.0012241228045074297 -0.008476135555664711 -0.012134018893677066 -0.020782248845662595 -0.036069280875002406 -0.007010315004535061 0.0018934118030478062 0.009242846642386886 0.036424696676454225 0.022812514179206406 -0.003977571989933054 -0.010597500608494887 -0.0100031555100455 -0.007299671268508072 -0.0061746393694429615 -0.008463022909996655 -0.011932174610389742 0.002251781742535571 0.005377030282434951 -5.3905602562619084e-05 -0.0023934181751772954 -0.01783080956334332 0.010551738363061443 0.002898655199004013 0.0019032387723323275 -8.898790516808877e-06 -0.004333373003332598 0.017729914017497298 0.025324015860506494 0.020272353413967777 0.027887510956194236 -0.007729525738203775 -0.008313869697796747 -0.008917614069219851 -0.0045173264601974196 0.0188724885960302 0.02066930983492817 -0.006963428184035203 -0.011207110855331744 -0.016047788482382974 -0.00235194773079385 -0.009006828470129881 -0.029696722341585546 -0.018335765021575183 0.019756610009124653 0.00845407027803342 -0.01021471586028353 -0.01566716275878787 -0.015090538055064676 0.00852270031856592 0.004919768750450465 0.002001841982246395 -0.0015526764945964036 -0.00796020631703687 0.00883663574961865 0.014104881131340258 0.012761168029786817 0.02329072894289286 0.012283725776171149 0.0369492624953892 0.01553584551355901 0.0077728164252498936 0.006748999227087731 0.017941805481189645 0.009511120216870741 0.0027442399940303505 0.0056968882949829215 0.0037374289868942544 -0.005702756133541538 -0.021489367915056536 -0.012811565465356172 0.017614148641984458 0.005056108303517978 -0.007181798474614118 -0.012013667811204628 -0.005635741969070168 -0.0003900482714787965 -0.02116576485117372 -0.006552715494953595 -0.003541005320850663 -0.0025221527198786013 -0.00819244195552268 -0.0010980125351838124 -0.005012677037311176 0.004671124412620083 0.01687316165713665 0.04116527749160579 0.02066050028060785 0.006413856271311467 0.0013996925559443363 0.01422173170652269 0.008264826926633023 0.006165050046599516 0.016134276404502695 -0.022595360740679728 -0.016803673043792256 -0.00882367151431911 -0.002497503188033294 -0.0005529048841659539 0.0009080608652975332 0.0054129320132801145 0.013525415125142506 0.003800366956695476 0.011476165293563616 -0.010929658247577172 -0.0013838558380127746 -0.0003822664845278798 -0.0026826532152570033 -0.006057283252146973 0.0027955006192193804 0.0015458705538589149 0.014335793804164672 -0.015160646295205606 -0.02514695770271918 -0.01614366974235509 -0.018146838412603044 -0.006844569372216128 0.0005016541526591848 0.0033655473724888696 -0.014820391350410224 -0.028557950292375855 -0.013457373528407028 -0.006496775248980103 -0.004394702448378737 0.003586965704720644 0.008536390242077793 0.014072557580274411 0.01845113597834145 0.023410190917914457 0.014959318270767725 -0.009331172991205136 -0.01603894852736497 0.004532512741036971 0.02143890156271845 0.013961791613054888 0.016556745921752127 0.00529162884847593 0.015960861406601988 0.004071191325160366 0.005006830433320116 -0.010050612932042227 -0.011014827721820077 -0.013941169626160533 -0.0007883062433713508 0.005294053349659388 0.010850008863570085 -0.008648664546187417 -0.01780120248089087 0.005699749366370087 -0.012178985612434513 0.00031486169810011314 -0.004156457537295754 -0.013137364282923763 0.007695539582966907 0.015250959597143407 -0.0009524963887328197 0.005185880731294167 -0.03567045244022176 -0.033946879038806235 -0.004581027939429511 0.015743564609460078 0.006671252104825245 0.006582800545749447 -0.0038778944507470593 0.003469824249585335 -0.011377003822635233 0.025246186588386607 0.014712286834166142 0.011125869211298446 0.0016729066348733243 -0.0002767516257653473 0.00012428660692579167 0.0037577694929116943 0.02202434797911963 0.034987472111212635 -0.018358822440073013 -0.01872148853147771 -0.006941331809359807 -0.009586201548112266 -0.01922451546984249 -0.006196887473221168 0.003997449877152498 -0.01257118982342791 -0.01229161997142501 0.029425625314968375 0.038827935347674813 0.014684950952975747 0.0008836944146385062 -0.015308294639747509 -0.014132500126271534 0.0012379292869176312 0.007563449371886056 0.005883372606521554 0.023630158267073834 0.011760705919097987 0.0071284368719302035 -0.0018519456202891723 -0.003802937052272388 -0.0058807067209312724 -0.002280616151971099 0.018694380333591647 0.030206952007979203 -0.010431192241678777 0.007309094720314206 0.010167421376735791 0.002737656238928351 0.0023209490348802897 0.000813563774908278 -0.005209805521657135 -0.009394681756016435 -0.015604003852661263 0.016656412606795925 0.036056639903045466 0.0155046719104022 -0.0006566795082894547 -0.019794010191061022 -0.016131781233451253 -0.0005800143311943898 0.004984417649537612 0.0026193166820843586 -0.03217262483450249 -0.01389042757117443 -0.005699662772115692 -0.0011618297575786355 0.00016870989551523267 -0.017622583747191244 -0.018548520859716283 -0.015495110035457556 -0.023552053520384274 0.0002677273706639065 0.023443981368533193 0.026259182707352502 0.014150803859536102 0.015030333331336052 0.016101700922949574 -1.0384135371833535e-05 -0.007444419087039906 -0.015136885407586956 -0.02433768917184327 -0.001409435256134722 0.0055214197169733276 0.01281452286877941 0.0397384815406116 0.03201574188230036 0.0007706142111556806 -0.004859902611275164 -0.003524757267658912 -0.02567222127708546 -0.0074646398986434066 -0.0010767339770330442 0.00456934325614781 0.008627705244103657 -0.012287500734612726 -0.014099786861025712 -0.013885606934044321 -0.018551565268808374 -0.010765121210023373 -0.005222978379702967 0.002416747698228402 0.0072391341137073295 0.011927015718373726 0.0015644083875599522 -0.003632072390985834 -0.008722972458580166 -0.0010971624525388597 -0.004450011877648759 -0.007884205235127915 -0.007643890343714006 -0.0005553960891286794 0.02752440695413024 0.02966852519616137 -0.0009748064281632277 -0.009673463730017515 -0.0135223944417695 0.01896317308314593 -0.0003934056716507604 -0.02222970789851299 -0.014439509701883546 0.02995406700851607 0.014841575934941703 -0.007333718113197932 -0.009935186040539105 -9.257535558877155e-05 -0.023615984222359356 -0.013201435308797933 0.00029656429462967225 -0.0018445244827183724 0.0009187962160890986 0.0033450127726136624 -0.000978301285742384 -0.0021938352353728166 -0.017498653857252966 -0.047428112099360084 -0.02611318354492494 -0.008820093395740415 -0.0012866564312631107 0.011683809919031295 0.018417270082510914 -0.003808726321340277 -0.0027127962095061806 -0.02668615299931832 0.009757548979373431 0.000192350392308812 -0.021914861190967947 -0.01225719906809965 0.020802802564897215 0.012037618090762718 0.0004314491602376933 -0.003020042085464497 0.004056698367013389 0.012842765489722782 -0.011693662885146734 0.0005288913813997435 0.003858746272884452 0.003192099781685456 -0.004604708211140069 0.0041680790079296785 0.002276797279866528 0.012434573432310862 -0.03813447187291847 -0.019536953748224353 -0.007071871050671813 0.00041104876645498543 0.01113778508960223 0.01669151943310251 0.003698085223298908 0.004396087973106247 -0.012518873318402525 0.011618864350104927 -0.002423283540409744 -0.007394245010397074 -0.004311907644397343 0.009078506678441711 0.0010151360113553214 0.0013245023440133078 0.007295083881381965 0.024954948734624713 0.012749087792351866 -0.00647512270017388 0.002433670056145111 0.006560629322030537 0.003213611800116903 -0.00202805267369323 0.006518580251215654 0.005693708879479985 0.01273326895601683 -0.0033776468431209175 -0.018344131141375803 -0.01308368439728294 -0.01689745329311589 -0.0050058393773771605 0.0035116751562281876 0.009137451535183616 -0.00987591672470783 -0.021208232479107567 0.016405571431226878 0.0013277036921185079 -0.005288319039692428 -0.005265356744926941 0.009580776681465609 0.003753842484328627 0.004311666096501887 0.009763047864870466 0.020491074729146165 0.012105821897227132 -0.008699163616368622 -0.009981122367163177 -0.010861528118919215 -0.016574028935881693 -0.016216148543038333 -0.004010451576620326 -0.0045460642271730085 0.008891154242665837 0.0037129297436674456 -0.00996185578819122 -0.011448687660685847 -0.014060614241293826 -0.0001811950745214696 0.007319384307070378 0.012306555408595723 -0.007867869341764429 -0.0170135146582711 0.006635160037300653 -0.006049735334018612 0.0038383035275675915 -0.003890994865351793 -0.014662490002325067 0.015405274468293794 0.022649905819902328 0.005122691074012514 0.011971492425911235 0.01710411739286803 -0.00347543008933746 -0.005049167580799653 -0.008675798364849344 -0.013757168743408852 -0.015720314967923955 -0.00269192328772356 -0.0016120365116962568 0.013816027273447006 0.04824314275850109 0.015417180119612565 -0.011119501101797071 -0.012991572047956274 -0.024283129732677353 -0.028025113277742514 -0.003982548657972978 0.004240237998301878 0.030421500168402765 -0.009957061182149306 -0.014071859240439374 -0.005464752551261613 -0.009779813386234328 -0.018981939016312385 -0.003852179657346885 0.007693820423507906 -0.007298836761461932 -0.0015758037453926063 0.03929631760524809 0.043040456283093144 0.01907076889388682 0.005719525917295174 -0.010575588492665737 -0.013868604070180736 -0.0031188318034154547 0.010447158455956793 0.01364437045119528 0.02383504040486995 0.0038093876454588045 -0.01253948670985294 -0.01295649744514883 -0.025675956124644066 -0.033720063067621216 -0.010839148274982545 -0.005133282149673487 0.014179639924154316 0.025333612089640207 0.02812822696845914 -0.007285809611671194 -0.009336635751711748 -0.02363309261731473 -0.015011086402770957 0.0067448598506623155 0.004800419691116975 0.003627851479743315 0.03696597306455546 0.049142351843016276 0.025020883637357622 0.010244539468885257 -0.008259082909614971 -0.008160815574898696 0.002616897250851182 0.012934131043405721 0.01650524215177631 -0.018155713542773393 -0.005718739765230461 -0.0010964303184180665 0.006436879158767271 0.011712917863869503 -0.007433358488641625 -0.01431130009297665 -0.011501806552242842 -0.013303562208649712 0.02614998565687155 0.035476858402528205 -0.0035545124809914326 -0.007708239535594567 -0.019034432492140003 -0.012324877255293208 0.0031037477056346284 -0.0014768669940102832 -4.135303054407188e-05 -0.011822484862740483 -0.012711078488344272 -0.010489687259713575 -0.009083983685298173 -0.008586488986234053 -0.016254258058367548 -0.0013478912607079864 0.005201813880415274 -0.0038778554401635613 -0.01932153753189786 -0.0007873563736946676 0.0009116364820825922 0.010023858891490321 0.020968446752714306 0.0011472536860135788 -0.01161807762816123 -0.011866747147003757 -0.014589859004651307 -1.4134339964342712e-05 0.003944147020163173 0.006089565363316232 0.00805981129054189 0.01955416525258335 0.011941957218665769 0.0021374967028495264 -0.005719828060984442 0.005268488915970591 -0.005855080317591945 -0.014290809009254755 -0.008147114527657214 -0.007988621722140888 0.0013726653624709225 -0.010461698815804762 0.00023163780406472954 0.007187429385652017 0.008048085079076029 0.008357238768798687 -0.002768549917927496 -5.6783154606398784e-05 -0.007508875215508902 -0.01430335495239252 -0.014998769798991313 -0.006597142693186495 0.003400591113125694 0.019342186318173783 -0.02224541893617613 -0.012046007652597819 0.0012785414544880687 0.0010146934676471353 0.011011879555360267 0.01841873049776647 0.003259670962507257 0.0007482665463584931 -0.012605272994876196 -0.03352016197863319 -0.021347266560180257 -0.00901114184909081 0.00145734057074804 0.02418142234630925 0.029115204817583333 -0.0010340479360914027 0.00019666437680864807 -0.01526407074993324 0.004945859394365981 -0.007236305728715131 -0.007636691133381026 -0.017667518907918896 -0.0023369603200291186 0.005572666972661861 -0.00269705654929451 -0.006144874907795914 -0.008679748581436771 -0.005083366757862082 0.009198468911091398 0.0018997230228319424 -0.004892960462108588 0.007737444184210647 -0.005316663069631375 -0.013099023259014863 -0.0047404103629240385 0.007913670133130098 -0.03989015497650876 -0.022222097578480017 -0.01571496147561023 -0.005680777432523711 0.010547176256131436 0.01583040148793293 -0.001168648796010965 0.0015876768141557956 -0.014776225492014874 0.012384263359243825 0.0017769559418101596 -0.006991758195334841 -0.004971353400546536 0.010220908359419306 -0.002432729368810645 -0.0024496590017847827 0.005764292470661314 0.02818054415895077 -0.010324612159339826 0.003011519688418958 -0.00037309674397976794 -0.009195754005586948 -0.0033380736396810195 -0.006890615924841315 -0.012411322938478606 -0.0038714286891343105 0.005904045902275258 0.038672927906829 0.0015915022365206397 -0.009378825163955771 0.006213237828668108 0.007213387024147564 -0.0017536353488399967 -0.010013632004633436 0.0024754161780849923 0.012308379401801996 0.005964313703973983 -0.0006020457032558709 -0.00889660852913274 -0.009036357860411395 0.003295489080466106 -0.0028170428153889877 -0.0013871128909937168 0.0048492707930006 0.017875012279161537 -0.0011065274584268017 -0.014735981714203827 -0.012586253441654774 -0.010619934323676826 -0.01750641286236416 -0.024270803564461013 -0.00593374236389352 -0.00564087052002085 0.004442501069334907 0.0316901195034271 -0.0017935422827369972 -0.009819778263299519 0.003002106356094141 0.008080574737825821 0.001644875580401148 -0.010474865226201257 -0.00022659839458424419 0.007108163178538829 0.03631782557579348 -0.0004771177803154182 -0.0001707427603963906 -0.004585900217774438 -0.0027131615541881164 -0.004566106057146229 -0.006359431250088362 -0.004956046928505056 0.02216185004115314 -0.0041731737124654465 -0.015401724776361314 -0.015304891820938896 -0.01425934120311692 -0.018019225336616148 -0.021131644041118648 -0.006406833190163598 -0.0059926650697384645 0.0017739814685769559 0.03610485880824894 0.010137416862090725 -0.014698213096051594 -0.01490881184976576 -0.029717119469676746 -0.03799692773956211 -0.008948466542588053 -0.0022716651389913323 0.01645990940607569 0.027720640254620222 -0.007556858581736527 -0.0017692151539066454 -0.0026520885601059845 0.004308200910329617 -0.0004534579086796016 -0.004922703650241143 -0.0007368866452423385 0.02545089803891283 0.0327842837911427 0.019305883219814968 0.003897179452168343 -0.00690832798312255 0.0054682106959992195 0.004225771055789691 0.004904348054056309 0.0028753878169670115 0.026219517402294577 0.02524613757811843 0.005154583685949411 -0.014816366152685669 -0.014327869681004343 -0.026718330943393365 -0.0376248027623278 -0.01328064995680386 -0.00850528657641084 0.01276590809793015 0.01269920033071195 0.029126500376903647 -0.007208665571441718 -0.010086926195112726 -0.02389031935509984 -0.01606878739079681 0.006602394782585904 0.004724649783433041 -0.006193479089713224 0.019534101655790507 0.016855885651367024 0.002681557578791594 -0.00583631005671373 0.002463026212818741 -0.004617214285761192 -0.0010620089126598918 -0.004432371515089053 0.014046590323191567 0.0029660318046226043 0.022432543886225363 -0.0010913610449112007 0.004098629060279728 0.01559035281854788 0.011591399032963455 -0.013723712673350302 -0.009592512986117383 0.007173799144067498 0.03221817209114381 0.049552009851450265 0.00030058957673963747 -0.004174550586749679 -0.015253350937666017 -0.009520615164235831 0.003630758719455968 0.002875118341039172 0.004550667515146852 -0.02111313550420345 -0.01304213898688265 -0.0083564072700231 -0.007265424876615205 -0.0006983089243959404 -0.012466131650206899 0.0010277694431383355 0.0065334405341531876 -0.00497743033020765 0.019537615234235785 0.03846906884908432 0.004456007702398805 0.008115934574498974 0.022363106400181004 0.016448599345504175 -0.0127388125132745 -0.005124672496133664 0.015874919409098694 -0.02450845676975029 -0.01065669709480687 -0.005956314755128571 -0.0075377305343807734 -0.0017877786141758745 -0.004785165802700169 -0.011797416551704045 -0.00081462382252267 -0.006104030998619759 -0.009200584184447155 -0.012173349719839818 -0.003911360480192499 -0.003441462415708193 0.010098787660774294 -0.006689841578192478 0.006780612934177475 0.015993293285009914 0.010072307024747354 0.012085240838948482 -0.0008351842367247025 0.002852813304016738 -0.0058121382758313574 -0.0013406184665438786 -0.004908195606821934 -0.0007011995555006753 0.009150849841780486 0.020996442670888026 -0.0182690306983409 -0.008141609462536017 0.002525953949957929 -0.0006876686116477513 0.009640358325992984 0.003422043338955391 -0.006741853597868005 0.00187467912672165 0.00045744039333684913 -0.004265541687775999 0.009847338571331606 0.015105706400788744 0.004869453291041255 0.01596341856801468 0.015031766267364608 0.0007673612294194021 -0.0003269554397725468 0.006166013445140061 -0.003105924664942796 -0.01072122091744879 -0.009962356419533717 -0.023839342691583644 -0.007756416236963132 0.007475444207304789 -0.0025318172795411533 -0.01050715788834412 -0.016783193809294897 -0.018455688483009363 -0.002427846664529704 -0.003997464684141262 -0.0068906215830369915 0.013766822048041574 0.0007156222959279401 -0.014617130600290422 -0.004056331626723669 0.0051425117809755835 -0.013063491536660527 -0.006963794144646896 -0.007835132328826922 -0.002712060270639646 0.017014590190550804 0.011550752190492068 0.011251766162295878 0.006688363016881405 -0.00042647180088801735 -0.010039029417490589 -0.014152920997549213 -0.013010626311153777 -0.011426882413680029 0.013757357086888748 0.011133769670923917 0.010210781266068867 -6.519465827009303e-05 -0.0018457086402797005 -0.024948523826450193 -0.007861900783628323 -0.003957221609571031 -0.009977164205120563 0.007565607857478873 -0.0002788427521779428 -0.012397578993489021 -0.004356744139558094 0.00216229769200951 0.02229656034230943 -0.001970964689703201 -0.009305872838970912 0.00495569357914478 0.007476686273644721 0.0008785548269389344 -0.011457413043784273 -0.00267761351432131 0.005854021682573545 -0.020204419119397993 -0.01212380204683989 -0.009023629406726503 -0.010184980637530148 0.008845223143738985 0.00312886523351512 -2.197272814483467e-05 -0.0018206578478087705 -0.004939114763147047 0.03536842651884693 -0.016019163894733717 -0.017895845969968294 -0.0061036556725328015 0.011535930712256537 0.02055175441901094 0.005728269943330673 0.004835134962551272 0.014857842538622105 0.006576696837745223 -0.010691605471124833 -0.012807368535293896 -0.001226419870269957 9.278773462334056e-05 -0.005325903574454946 -0.015431819220529394 -0.006837138737280305 -0.005391719563731911 0.020440714394992628 -0.011280691503916439 -0.005737822507259083 -0.006124893979201752 -0.009001404968460736 -0.012940463981308197 -0.01207410521112601 -0.01129288138278591 0.010676281435427357 0.017193012523262354 -0.02408107002197176 -0.022020505743786434 -0.013196359005711514 0.0031823622346782137 0.016676581898535332 0.0024301364246478814 -0.0005471899510966658 0.003918426794653472 0.04251821285572832 0.018061412831079423 0.002951610462373993 -0.0026434063418288387 -0.01086885610488377 -0.010203700198512133 -0.006583322561928189 0.002676217663005007 0.030184269820997443 0.006955438437738848 -0.016270885221080826 -0.0070269673323516135 -0.004999897718321653 -0.005905748878341137 -0.011710970006990376 -0.010541582145258684 -0.007063756060527107 0.010334186544966132 0.018354064585659188 0.011906496082351156 0.0013943884021853348 -0.009997920071066138 -0.00757353108976186 -0.005178184193643483 -4.5428143305023365e-05 -0.0035934137599003095 0.01240750967736407 0.03857250794761467 0.01951073341060008 0.0038662750476137443 -0.0037991169350982085 -0.008049134553462671 -0.007183253964668902 -0.006581860643143728 0.004106949570668642 0.031261504946495745 0.05496666434989722 0.030078375931545706 -0.005172431854656876 -0.004823028206060927 -0.030855019336579085 -0.03220524243280996 -0.010472298973323229 0.006079838143415653 0.020142735463663224 0.02355255238583424 0.01647512827447276 0.002672142647729039 -0.007567749953408292 -0.007883518805416437 -0.007593966732361157 0.0007856242197442726 -0.0021012923270266153 0.015988852331879997 -0.01613024277536154 0.008809516933195479 -0.0012824083635379914 0.0028319074675889 0.006729973356949897 0.009090717495698251 -0.01257032283423355 -0.010885507798024352 -0.00525390547668036 0.05246614791511668 0.03149192813994195 -0.005148117900706089 -0.006055920441364997 -0.030133599108217647 -0.03232516161919373 -0.011153622961662021 0.007296852730394203 0.020399038275840296 0.014044512106293431 -0.0050234813699281435 -0.010583520122615611 -0.0008901936728085394 0.011228717580605303 0.008187711950487887 -0.005512307208707264 -0.0031689947393432746 0.0006898205943442239 0.005405015071362259 0.026308472283457607 0.003904236845746662 0.007356460339752054 0.01979140431116789 0.018968444121711264 -0.011178523541927953 -0.005935100345254305 0.005699167609342142 -0.03824488839842141 -0.020630096078946548 -0.00664584450808416 -0.005891877992071431 -0.0029951962459286723 -0.0023700516445565945 -0.011474010038975253 -0.0011453006608472202 -0.010974347671270398 0.028950760985011724 -2.1155622444727403e-05 -0.004422228728918647 0.0035791081525388072 0.009749834108456534 0.009797623231863147 -0.0022698116245437813 -0.0018685889375762723 0.007014557762937343 -0.0007082856187493723 -0.007996371359891766 -0.008874245337612042 -0.007897802596644887 0.010754126081051757 0.008790436968433518 -0.0187422566520733 -0.011688233299643521 -0.005707573019326511 -0.033970024619622397 -0.02426900042041368 -0.0003183400684561707 0.0008173519513547849 0.0025071683546913194 -0.0006080727134797386 -0.011061585290271242 -0.0033374538961527134 -0.008549142268808166 0.003740828726004893 0.009268759600261127 0.010273961999484498 -0.0021801381877528123 0.005968712576394669 0.0025558445261779504 -0.004955893250390659 -0.0030804372152810483 0.0025329542561682576 0.011372104824483958 -0.011240320374764239 -0.013890718028002897 -0.008677641716226885 0.012649322185825207 0.014440554224103699 -0.018812243886771 -0.010613426667326302 -0.003747173066329764 -0.014793947745598668 0.009977377808125677 0.010363312322932543 0.005730027991763259 0.024525014153634644 0.029733981864205342 -0.003094571469844344 -0.004511583110993542 -0.0011692104992868648 -0.02449307530532107 -0.009010644758016093 -0.004139956422600142 0.00046220404962106515 0.017484604957745037 0.009236993031161165 0.011105813573480408 0.004691216527403099 -0.0046519161422297044 -0.014039568654870422 -0.0186470028003747 -0.014478179048029846 -0.012531285540749063 0.021784354756443122 0.008784830604511483 -0.00017573326788940095 -0.008905594557454207 -0.005342069236668181 -0.009411714258972049 -0.009638883169478384 -0.00517582750899479 -0.005077788634012318 -0.005116531939220617 0.017972243656687217 0.008852471240506535 7.202617223558245e-05 -0.006050411548350559 -0.027036662802527194 -0.02271337530058965 0.0006955145219869805 0.006110421300411443 0.03510680030588276 0.02790267500374041 0.002512218238590584 -0.009052505148007603 -0.013595667066942742 -0.03302665496955483 -0.020632596417577215 -0.01380100837140549 -0.014952852399315852 0.008518829321795306 -0.0037796090665934545 -0.006629055608068648 -0.0050667251769789656 -0.008980979737322285 0.01613632929393996 -0.03252738577271052 -0.021262738210067005 -0.0057977412359229005 0.007510502917705206 0.015944259449272125 -0.0019646852232062017 -0.004013486219596051 0.005061629130257774 -0.03743942634006649 -0.02235866917966438 -0.0024624909158408336 -0.00146505075033821 0.01811034352165179 0.01840011860618382 -0.001450194823867433 -0.010132563228997526 -0.017727392518047873 0.0018513490840420203 0.007044683749229643 0.019279522517109102 0.013116656577163729 0.020982653611357812 0.017309702765713073 -0.003123681924027043 0.007299651556362796 -0.006881416027615795 -0.0009810442721808381 -0.035199457756441496 -0.026583801031744136 -0.0170800595021762 -0.006533087867688526 0.004736018495898772 -0.008024008949309797 -0.012029158151455437 -0.011424236867847083 0.015207461906843814 0.0008160599801109005 -0.0035535672336897885 -0.009369953442874617 -0.016990882878092445 -0.017647863224366754 -0.01347271859274116 -0.0070262138854038005 0.01781515939673539 -0.00620800999102213 -0.005244699392355681 0.005976726057691725 -0.0023209574123084784 0.007529813641150042 0.0044642580109773835 -0.013121114344723898 -0.0059562540875954155 -0.012356670967579196 0.039950102869048564 0.015581776556877794 0.009525215600578592 0.0037874106595460633 -0.0017360326346143274 -0.005888880519105442 0.007394086040544433 0.012688335815347333 0.02110852843592315 0.012458727578433916 -0.0010155057547942981 -0.005297901502041947 -0.012053344653207261 -0.016845994922132096 -0.01700900511011082 -0.01252868016060249 -0.0017111894095828248 0.020673161878895528 0.03271281813403217 0.019762211789037247 -0.010862012639807156 -0.011626064461477015 -0.03653609626827693 -0.03887094140759358 -0.016246096517638635 -0.0011582065492201342 0.00797924683974717 0.03375892392382118 0.015154535619264203 0.00852396315277415 0.005358376745477545 0.006418667026509933 -0.0018863604538663825 0.005653952584943919 0.014989471551762442 0.01892949253965364 0.03830238905670188 0.030989047383376347 0.012128742980849158 -0.0009921454832733342 -0.013323357386825236 -0.003812322150960776 0.0006712192117193259 0.008729568996071996 0.006073889296150131 0.04386835880764552 0.024024469814403822 -0.011323663333290285 -0.012577891296513525 -0.036559205298809065 -0.03758093354320431 -0.015476543182910862 0.0010870449924025223 0.013468112915204417 0.005648402215959535 -0.015028197430667353 -0.016942891933163524 -0.008506485224563716 -0.00166382557228594 -0.0035623864503630193 -0.01256362360701805 -0.009590069464970513 -0.0061211560931241065 0.04694979885280487 0.04262458042764765 0.019005234941934256 0.00640229922932012 -0.002222619838408199 0.005500804737998778 0.005559113451095628 0.013015308091497438 0.015228975047110984 -0.012708823621350285 -0.003916790378716525 -0.005027869088280885 -0.011067845856145403 -0.011706145513111166 0.001297971014698934 -0.002385802531124074 0.0077276999398088585 0.006049426181713459 0.0341339737196874 0.0029441956194699295 -0.003937269453921978 0.0029473872923120948 0.008299059604928459 0.010833589534417385 -0.0011768613922265546 -0.0008546842864553335 0.00975232872275441 -0.004656434944726461 -0.012109879444174942 -0.014629394130636929 -0.009105697696411147 0.010225780907672939 0.004726727937463883 -0.02085148301936125 -0.015268907654340092 -0.010434712434401243 0.004211474025178346 0.004234895408158985 0.00592985913466843 -0.0016399791317460218 -0.0020153857855811086 0.016110994685351036 0.007938643383879543 0.016935512967671536 0.015333693413256785 -0.012610112958126756 -0.00600020622322609 -0.011199948255120495 -0.00021255722579128426 -0.0004510093745096601 0.02094986012416606 0.0023817169703440797 -0.00024577065785447687 -0.0018108794214581824 0.008834212133923658 -0.014023463913269769 -0.019889403335860575 -0.015635164147821304 0.008609016553819281 0.002722186799377504 -0.022240292548355214 -0.01587809088077417 -0.009740283651600812 -0.015532942987885476 0.007272417573632224 0.007579734483713775 0.0023636708396307417 0.01761963172687187 0.021751295075993302 -0.0043108085484338055 -0.004174525021752931 -0.002725052697128128 -0.008020635747326917 -0.007160696849419808 -0.011610869016783211 0.0007321206614727979 -6.016590505277452e-06 0.017750824387625885 0.002136257432157817 0.0011794675634821537 0.0019577612839963296 -0.00990450696065441 -0.004634359800528698 -0.004856810865043766 -0.001982779635883225 0.012439589776450762 0.04903655626951653 0.006119435914563734 0.012537026488039662 0.006800852212266788 -0.008315830134119162 -0.010843345550596687 -0.009334280767663577 -0.00977799982080295 -0.01033243202740974 0.00556947202748251 0.0030036030186613347 -0.0009122843753306484 -0.006125717449925194 -0.03339009499636324 -0.02600206341802801 0.0007760696502219824 0.004175554721079503 0.029985150500036268 0.01802716870512909 -0.005267415088833858 -0.013532227493941123 -0.015526541472399884 -0.01867578027887686 -0.015324390769404287 0.0070888194974486765 0.007983304743829455 0.027213339526159692 0.03306134785702093 -0.003928416354059593 0.0027094212639105298 -0.0029781137413703827 0.0012617387021229371 -0.0007191178272899792 0.0009996503560703901 -0.0041225911022993444 0.02003592509690013 0.04575762329145558 0.01606006841060703 -0.009531024279118495 -0.022618309407103337 -0.04873266736855524 -0.03259052094932468 -0.005418274543408376 -0.003873613133331438 0.0076819911280506 0.0007037732045241628 -0.009557900230135561 -0.01570325796639834 -0.020181971222304244 0.004476255925048935 0.0002720930591161067 0.014569647415272998 0.008526578919819455 0.01590127990485223 0.0021015968225326777 -0.0095886920825877 0.00620047204953723 -0.0056027192698395074 -0.01839411934513005 -0.016157493418171374 -0.011614864044851118 -0.01040233418583461 0.011984167105067438 0.029813277114298032 0.003174693246488451 -0.01521611129651763 -0.023388168547540986 -0.040555588199009666 -0.002744571423734866 0.0026738424025873797 -0.008580109407011047 0.02514881392019493 0.035772146028851384 0.015529972022122106 0.0007478683436856387 -0.01571236806013322 -0.011085255947726306 -0.009727721687407986 0.002690414324932635 -0.0061246039426223736 0.0020681171777568274 -0.009288145122905437 -0.016050372675237765 -0.009244071997459103 -0.018719535772897117 0.03537546469857253 0.013683158925955154 0.0047360397767610375 -0.0001343071440767687 -0.0012989189935625894 -0.011774223576156078 0.0039513039029254425 0.007511747787307042 0.011546334743231235 -0.04104829830700785 -0.008331445283433943 -0.006189411108973461 -0.016595249060936137 0.006637931450061133 0.0190749007150552 0.005973223523177353 -0.009102898154896035 -0.028259158207772996 0.004221514529550217 0.008608556515558632 0.0026402727713995804 -0.002694614701189108 0.022336520947697697 0.020417167530754947 -0.006017641490031653 0.0004779206963594423 0.0028398127832605815 0.02517597261849555 0.010195715742492081 0.0022432121942837116 -0.0008542004992556627 0.0041940418849679365 -0.006910173396121121 0.0013927521979482937 0.010033740448430518 0.011474102340834529 0.02818845603652712 0.026959706822388275 0.003541650269689902 -0.009749449766188658 -0.01944474037492226 -0.007862789570540157 -0.003880702020567105 0.0032216369695627156 -0.0026982503860672425 0.0024079843830600812 0.009527109361811524 0.002419768443050249 -0.0005851962872124219 0.022803130703527373 0.02061692177159622 -0.0061835022462140505 0.000749045781590177 0.0020575985199396945 -0.0007470448352321693 0.0019445119432002264 -0.005832761098026069 -0.0012233530793685048 0.03740943285471912 0.011031067760367887 -0.0010155660519555695 0.0010032360900083283 -0.016977261265333447 0.050347352432149675 0.04538756395680261 0.01481743314384742 0.0012186241356931158 -0.005470748028853236 0.004542122140318879 0.004733826102928901 0.016129854226784583 0.019888798327600394 -0.013004795975752124 -0.011010379729372313 -0.011845497508405599 -0.016286585174046343 -0.014168937728341102 -0.002626139647729199 -0.0058710634382565345 0.007078679690119101 0.005811715795066464 0.00791053168175863 0.008373004439735151 0.0009737204737309546 0.012354334733782668 0.05781991057293198 0.021708531166911214 0.00523326290497479 0.006373789687714758 -0.010257659250972868 -0.029918760275315585 -0.015543550419950774 -0.008766670457510176 0.0007162121595480069 -0.0005674198750454731 -0.012992131896137342 -0.014976044390113687 -0.014459921645387149 -0.010613619388574035 0.009943215790440121 -0.0019730055472541126 -0.00126449241195854 -0.007056044135357591 0.0010563215162989262 0.0196367669221567 0.008612615555557472 0.022033388233378477 0.022212484132261463 -0.015161548128510283 -0.014499362759035366 -0.01943774635337385 -0.0045309373165902875 7.938893746963188e-05 0.027004072609392037 0.009891135094353668 0.0030861966119226313 -0.0013756689265123478 -0.026429984080337667 -0.008236718828835768 0.0032882030026700013 0.021311892978530277 0.03078196151107974 0.022216313647250633 0.004245953760110921 -0.003001846524648575 -0.0009164702141115976 -0.022433501536294812 -0.004529680851695352 -0.004677158056304791 -0.006152603107042295 0.010575073452053226 0.015923635961405863 0.003492540045879144 -0.00705244577744728 -0.017078016929314755 -0.014836563834235903 -0.015793416413614515 -0.018179304388559712 -0.0015700646646186265 0.00526431294848917 0.021690429049570435 0.002631318614699828 -0.0006958793569264989 -0.002885608209557416 -0.009584417961326731 -0.006257288965545152 -0.006881804652529773 -0.004019288790569743 0.010920035775006512 0.04748499338455364 -0.000476761494195799 0.009644149592041443 0.004010404663116812 -0.020615254572154997 -0.0005920493265203694 -0.0046945354117943275 -0.00331346926640006 0.022972872277305184 0.018443916667943747 0.005229101256939367 -0.008371748298493372 -0.017994832609576027 -0.01777956720541113 -0.011670114045433716 -0.00649700467592795 -0.007290865088517845 0.007908289636513856 0.020764356727117853 0.0010932888930013766 -0.006636080856979514 -0.0001476996758766153 -0.014445537931001262 -0.013002646963143457 0.004628901266522964 0.0016887379246697837 0.025291977442131557 0.0305674858003446 -0.010495134843907716 0.0027558543558313425 0.0017958819627491214 -0.009222212720529126 -0.006436935209282544 -0.006061821631577009 -0.0033860222410630196 0.023804828311645806 0.04390090169867654 0.00862549339160809 -0.01595922591206834 -0.02983425005823421 -0.020876541061522477 -0.008373757171252065 -0.0013873416830853449 -0.003576755453137825 0.001984859626721217 0.01516153975434603 -0.006222148548606705 -0.009060878790782398 -0.00559930421168675 0.00818156777033892 0.009660949428747196 0.007271950768643863 -0.00881268812622607 -0.01110549377878058 0.0006095320546672325 -0.00536916138305037 -0.006588579341632392 -0.000524026949983469 -0.010116857165750694 -0.010035323956534586 -0.008848164527753928 -0.0043170508194860895 0.02112419920385501 0.040381983452178756 0.00868604199506217 -0.009851850001223057 -0.01923552717919067 -0.035582320521514166 0.0025234027716715367 0.011931156069904657 -0.00037995987296886486 0.0384421020933728 0.05314746562533652 0.031351979492959356 0.018978622168462224 0.0013775854921343053 0.00533001908085907 0.002129228517861112 0.0015909388428247803 -0.003887722835414973 -0.0032778080881158632 0.005527687237252064 -0.0012759141227303176 -0.004211384094844299 -0.0037738592014389272 -0.04263082399064517 -0.01120582184130564 -0.009449106148925822 -0.010137985822964598 -0.006701629209778452 0.012599514243020391 -0.008362332235902688 -0.013726131744079313 -0.019399424588068603 -0.0419050233193128 -0.005250270828401437 2.864085499772694e-05 -0.012417489152672337 0.017298941663673826 0.03153543737749252 0.016566875446429423 0.003385513849910931 -0.015996119177794407 0.029959934177618667 0.03531918937802105 0.015467544210763127 0.013916825407088572 0.0577828467249062 0.0500933796086679 0.00512706904505458 0.015339575027559822 0.024584935669358196 -0.04993260059339129 -0.015128006812347659 -0.012978381742288969 -0.011272991289039493 -0.010015421525050118 0.0036112677840515767 -0.016029310503954237 -0.021208320269053588 -0.025285335184184844 -0.0381656013859707 -0.010785920520079548 -0.008563156925337633 -0.015569025344445361 -0.001125735124004029 0.009146657173618176 -0.01772111259319293 -0.021551594596905605 -0.02005504257962437 0.02544554085980388 0.02948830540841701 0.008416626679882591 0.003444641055283336 0.03761696820643569 0.03648622332172006 -0.003988899461620303 0.006241726105605067 0.01805772460289154 0.017739643147087786 0.012107081168656358 -0.002561284474005067 0.012602904143526553 0.06846367643631887 0.02296710119796628 0.009568378216432137 0.014644679710742667 -0.001927759903743088 -0.03991389054084624 -0.014027777484262675 -0.01248868307140659 -0.015040289991021118 0.0023876494903140493 0.008074346842281957 -0.02098183769777588 -0.025443440062736807 -0.022294804342236286 -0.03541985372168524 -0.01896297779316243 -0.018366625864860563 -0.021798857663613138 -0.018718846662926537 -0.004820316538617696 -0.01454859138133055 -0.011427095892297318 -0.021188290587937884 0.03143258845223204 0.023895318965640573 0.010929494731668045 0.034334857658553035 0.09802019563819049 0.043135906909826056 0.023494355784674827 0.027557999039923526 0.009419820560006592 -0.028991598501164634 -0.015493237865676163 -0.008576656740347162 0.01631947711709912 0.015564122076391289 -0.003634531111772171 -0.011184152035038525 -0.010243988851659577 -0.00861061784618107 -0.02867827406710889 -0.014520741317109325 -0.011228891580410199 -0.01332006917928045 -0.006880677645365223 0.0073120462665388 -0.009252795145799098 -0.007339860239246623 -0.018569575230760575 -0.03539325229671704 -0.019735701418506987 -0.009798689997204593 -0.017901723976272505 -0.009495131463393595 -0.010058617263428665 -0.022075075224548206 -0.010035035289557844 -0.007424379171988021 -0.02137209222220741 -0.006957664832588224 0.01095014465449191 0.04438746950458722 0.05055627299385933 0.031910078453820594 0.009866276025377818 0.007936441959980514 0.009629743436444174 -0.02762049672712905 -0.007116775352518323 -0.007436567474185564 0.0035227795435469065 0.02847167825942003 0.033436806873045885 0.01516535580205629 -0.0027058739241570223 -0.019086283083221037 -0.019657523788574334 -0.012219187480374462 -0.0010298796524412367 -0.010094003143826882 0.006858917202699707 0.007540787930787714 -0.011941593869607735 -0.0009305398165639644 0.0014664310855917952 -0.009646140503273271 0.003555295196392118 -0.0009694553504336254 -0.008979070581655361 -0.0033897194019673477 0.003307544919147669 -0.006719159423615554 0.003312010379090384 -0.0038767006315315513 -0.020496014866392156 -0.0022558426115274442 -0.0075353249826776115 0.0036666827869047836 0.043019293454525015 0.04226064029343135 0.020166891942487355 0.0011730739225142893 -0.01515852422938732 -0.01363094546213533 -0.008736374524315353 -0.0048328815514081256 -0.002083941381596155 0.033205695167612306 0.0457464473786587 0.012587233137641877 -0.0021146227215069185 0.0034259660133421285 -0.0064545798624486075 0.005152912425203156 0.002508127793349164 -0.005977054625182516 -0.0035054086028254387 0.006065037606356584 -0.008963827934148322 0.00289672219132557 -0.0020167911123820962 -0.027513788441082092 -0.013376538222212919 0.0010964569309616944 0.004880465535964601 -0.0016808466435578625 0.0017174890658454315 -0.0017843437771349344 -0.0031481498007531515 -0.0025942407930491184 
-1.612213609804657
0.0 0.01951342472212767 0.010522528301436403 0.0 0.01281501259986248 0.031435913657404065 0.0036090398974163453 0.0029329640019381854 0.0 0.0 0.0 0.0 0.0 0.019497303266062735 0.0 0.0 0.0 0.0 0.0 0.0 0.017410900969481818 0.0 0.016203218856735726 0.018056196409186348 0.0 0.0 0.0 0.0 0.0 0.0 0.011489488321547444 0.0 0.0 0.0 0.0 0.0 0.0 0.0 0.023433759189743913 0.00871301216324061 0.015352907984944236 0.0 0.0 0.014826852747144579 0.0 0.0 0.0 0.0 0.0 0.013345208505929303 0.0 0.0 0.0 0.0 0.0 0.007148232815535214 0.00933602725107172 0.0 0.0 0.0 0.0 0.0 0.0 0.0 0.0 0.0 0.02373679890843064 0.008621832703048185 0.0 0.0 0.0 0.0 0.0 0.0 0.012162226120802108 0.0 0.0 0.0 0.0 0.0 0.0 0.0 0.009688178530628533 0.0 0.0 0.012929327213107874 0.015367906625811723 0.0 0.0 0.010989237984742044 0.0 0.0 0.01332566090630017 0.0 0.0 0.0 0.0 0.0 0.0 0.010573917078986124 0.0 0.019497303266062735 0.017410900969481818 0.018056196409186348 0.005485469231075882 0.01571009160457347 0.01332566090630017 0.0 0.02052947927079004 0.02373679890843064 0.012929327213107874 0.0 0.005076154000753343 0.013345208505929303 0.010573917078986124 0.009966446994993444 0.0 0.014826852747144579 0.0 0.006619622585970942 0.012162226120802108 0.0 0.0 0.0 0.0 0.009241182270027995 0.0 0.008707107688640036 0.00933602725107172 0.0 0.0 0.0 0.008621832703048185 0.005386460989950792 0.0 0.009688178530628533 0.0 0.0 0.00871301216324061 0.010989237984742044 0.0 0.0 0.0 0.011489488321547444 0.0 0.009583596270764784 0.0 0.0 0.0 0.0 0.0 0.01029175262505838 0.007148232815535214 0.0 0.0 0.0 0.0 0.0 0.0 0.0 0.0 0.0 0.0 0.0 0.0 0.0 0.0 0.0 0.0 0.0 0.0 0.0 0.0 0.0 0.0 0.0 0.0 0.0 0.0 0.0 0.0 0.0 0.0 0.0 0.0 0.0 0.0 0.0 0.0 0.0 0.0 0.0 0.0 0.0 0.0 0.0 0.0 0.0 0.0 0.0 0.0 0.0 0.0 0.0 0.0 0.0 0.0 0.0 0.0 0.0 0.0 0.0 0.0 0.0 0.0 0.0 0.0 0.0 0.0 0.0 0.0 0.0 0.0 0.0 0.0 0.0 0.008081096255904845 0.010406104709872917 0.0 0.0 0.0 0.0 0.0 0.0 0.0 0.0 0.0 0.0 0.0 0.0 0.0 0.0 0.0 0.0 0.0 0.0 0.0 0.0 0.0 0.0 0.0 0.0 0.0 0.0 0.0 0.0 0.0 0.0 0.0 0.0 0.0 0.0 0.0 0.0 0.0 0.0 0.0 0.0 0.0 0.0 0.0 0.0 0.0 0.0 0.0 0.0 0.0 0.0 0.0 0.0 0.0 0.0 0.0 0.0 0.0 0.0 0.0 0.0 0.0 0.0 0.0 0.0 0.010957863367004574 0.0 0.0 0.0 0.0 0.0 0.0 0.0 0.0 0.0 0.0 0.0 0.0 0.0 0.0 0.0 0.0 0.0 0.0 0.0 0.015144247972039301 0.0 0.0 0.0 0.0 0.0 0.0 0.0 0.0 0.0 0.0 0.0 0.0 0.0 0.0 0.0 0.0 0.0 0.0 0.0 0.0 0.0 0.0 0.0 0.0 0.0 0.0 0.0 0.0 0.0 0.0 0.0 0.0 0.0 0.0 0.0 0.0 0.0 0.0 0.0 0.0 0.0 0.0 0.0 0.0 0.0 0.0 0.0 0.0 0.0 0.0 0.0 0.0 0.0 0.0 0.0 0.0 0.0 0.0 0.0 0.0 0.0 0.0 0.0 0.0 0.0 0.0 0.0 0.0 0.0 0.0 0.0 0.0 0.0 0.0 0.0 0.0 0.0 0.0 0.0 0.0 0.0 0.0 0.0 0.0 0.0 0.0 0.0 
