0.006202228297690669 -0.002937717264829554 -0.008140736353926157 -0.010341546039726063 0.0025558288710333652 0.019601572386893713 0.013571966474065209 -0.006806343817008195 0.0009705010402540149 -0.022149754064098432 -0.013022899945759335 -0.022844415465430652 -0.011480657933209997 0.003667847506846067 0.00827967859060598 0.005480121414317843 0.010908067704307809 -0.013161457942419694 0.008680684732508971 0.006276701575023003 -0.02545194627369007 -0.01594115432168651 0.012132536412370144 0.015278687977573618 0.012002112393147923 0.005215043017591937 -0.007128940089558473 0.009095635723007178 0.0015878137430035619 0.0013697435359638762 0.025435970515898878 0.017634531430334943 0.006290897043949651 0.017007136572326366 0.004850920103231568 -0.003932628992122835 -0.02323273753266457 -0.01342609886635791 -0.02848827259928977 -0.01284702059030689 0.005491203674169474 0.01135412730929412 0.003817672311436407 0.00921838230167513 -0.013750372561847229 0.03350934465105454 -0.0006129681690734742 0.00260178353300991 0.0005653040454580002 0.0036236300902537755 0.00851751087865041 0.013818382953024224 0.010531454991791275 0.012675845356825477 0.004416689273932251 -0.007526728138115991 -0.0032580330574177464 0.022451975243476634 0.01317737118066587 0.001792615879910808 0.014404904848580034 0.002543905845372598 -0.007921882178856617 0.005135772797509358 -0.007266048175564679 -0.009908095063537297 -0.0013939890806132734 0.026999187052869668 0.025296715517335325 0.011996225937868204 0.012172515611628696 0.014236296105938176 0.02199418588248279 -0.0010890436743369737 0.0020109704593029485 0.0007855849696846623 0.0020996173700973154 0.0037987354619854106 0.008660244177734049 0.006403937324352622 0.00719416342306311 -0.0068628231114341775 0.00404418293283159 -0.0017010674417007726 -0.012259874771784 -0.013481769399097825 0.0044771837233533555 0.010631659466188059 0.011735568312221252 -0.00044580410131253736 0.004803758090927761 -0.0077625126510640855 -0.008228695836343282 -0.004284214473763603 0.023846922479000707 0.020322562989822567 0.00932362508177383 0.010601788685939934 0.0141703937673406 -0.006888833787172581 -0.0028163969302117267 -0.005403346376686232 0.008446713330424115 0.025488684184428075 0.0227028101987803 0.00892597363142961 0.0022957611923704498 -0.012467128549698645 -0.0057983852772302315 0.009196819426319634 0.003743777362077271 -0.007240305307786798 -0.01559717631440185 0.004966277425278135 0.015214435487717648 0.014836964309435775 0.0039517076185422275 0.01656838234764772 -0.0111925469753177 -0.00628967547542379 0.0013674551073526962 0.003367406203677647 -0.013405140241798175 0.008509923895232275 0.011096836250902522 0.020045922014526218 -0.004255679164233802 0.0015767802693514579 -0.0008820183840723214 0.007653705031189827 0.027259738580425196 0.022482750658924203 0.010709404470581484 0.0022508584880161025 -0.01078590471671231 0.01819003745556745 -0.004428052327289381 -0.006014020994954668 0.00854971443693187 0.02739945394040118 0.029406292676743113 0.011857536288034242 0.005157119248315359 0.015020879172110589 0.01316338306468417 -0.01712276367366577 -0.010277946605275201 -0.0019482565018226316 -0.0032334489781509577 -0.016914051208852518 0.008769907844451598 0.00958215445379035 0.017147144372347118 0.01199591337938802 -0.0036668058123812386 -0.0023214805078658938 -0.0021998195613085613 0.006852412104147848 -0.0024170568728158906 -0.0037035573692122963 0.01669183770681362 0.013606547793888599 0.011929440367881586 -0.008276943410774002 -0.009047616983323285 -0.0004302765152008045 0.0051553824358178705 0.009252641519512748 0.014615886020453973 0.0032567412759444735 0.012479600959049984 0.026949837314429483 -0.0005468213977009228 -0.013527139631858358 0.005079278317168895 -0.010052882703882238 -0.002705156253023081 0.0006262129313334666 0.0018130885076633114 0.011646812699363317 0.023249134491209033 0.0009367661402512056 0.00019214653548486253 0.0012875497928246794 0.009030568281827453 -0.0032437983489272642 -0.00566371459471462 0.01647840327172885 0.017307483147247178 -0.007920237941771652 -0.00869169348915419 -0.006426452411483082 -0.005962303081473578 0.0016335352120070777 0.010646926958342101 -0.0023527390020958326 -0.004602044573501676 -0.00908116073560853 0.029658832870977595 0.00035089002010939676 -0.008637538933032636 0.010243823299070875 -0.001295973053299193 0.006577083225725249 0.004129251356711596 0.0034630767321761164 0.01153118033471076 -0.016122499973264967 -0.024252845076760513 -0.00614286762731387 -0.004152561644422792 0.008594376134907907 0.028439239494223164 0.002314213194618448 -0.0009947598966736524 -0.0014159138782317156 0.0036921823484663517 -0.003929403661256851 -0.0002589431043123693 0.007604671412466057 0.01255799746776809 0.018401798606174028 0.001533213865854018 -0.0009830441640391494 -0.006708108331959312 0.002913674681313124 -0.00704731414789177 0.009872260851950698 0.006696079374217828 -0.0026928849564820615 0.00548530579062485 0.0040155193489772026 0.0020493023113057006 0.0033640792940679573 -0.0018192778703727838 -0.012576933832202182 0.0019202997092763916 0.002517597415551495 0.021798002159460525 0.04152500173563605 0.008215467744747271 0.008592704978641494 0.00675282068133974 -0.012092660354874584 0.010564492001750636 0.011326742491120086 0.009769741644424726 0.007589053094918118 0.006167818589354471 -0.007938650691975677 -0.005455403056434941 -0.008580275372807224 -0.005084025164086438 5.504552527225277e-05 -0.031041973340313844 -0.014422823560428339 0.01410250855921045 0.013711679333496476 0.0114305900281832 0.003465048441362575 -0.0102468938838941 0.00031632278544704883 -0.005528326104650256 -0.002870985759355614 0.022582140567701553 0.018981496870547745 0.009375491955772438 0.017341953673873783 0.002171924853227122 -0.009932655736422243 0.026505893058062547 0.005183792047253223 -0.0094021131372971 0.0009663487327172336 -0.003172558402789097 -0.004423970385728119 0.0014677946306821822 -0.0021642884650993526 -0.012561075369343313 0.01950008379456738 -0.016436801656920515 -0.015224864497182676 -0.009082141927087532 -0.007615441281081634 0.00038922459103135865 0.012101426291709967 0.006526845183804665 0.0025016442547805295 -0.0009530260731106542 -0.010260800153571545 -0.009657481625385832 0.019517265349285537 0.017822894259162152 0.009604816622314867 0.014631118701938643 0.001380832451713529 -0.011090713897676742 0.0047019614459922485 -0.008543649727103902 -0.012100982781767838 -0.007807464702477129 0.022045398979478256 0.023704490154361917 0.01419105930263864 0.012119924475085758 0.013258304136669726 0.014058637641938921 -0.01360026189709613 -0.019344953256812986 -0.01406408212244973 -0.014404796794921293 -0.00774393076084882 0.008553954649601285 0.003296577662864886 -0.001605547065655932 -0.008749504379160463 -0.004405515044619143 -0.0030028665039855567 -2.0466277472576833e-05 -0.0036699424234882616 0.006504299047942568 -0.0019283556557735193 0.0042774094170859285 0.014328965968299868 -0.001232173940664467 -0.012401679080606798 -0.012855210768494513 -0.009871899634767875 0.012408104685469492 0.008740061024550654 0.0030535666007245293 0.005896741991057831 0.009247650315301937 -0.009219302928073799 -0.007641679047417024 -0.011822392796539929 -0.007982126173452828 0.009213603919325459 0.011699786912493862 0.0036743311562704856 -0.001974727399855505 -0.014346160461435744 -0.012273135075511636 -0.013401470315087996 -0.012047272071063844 -0.010267048504666696 -0.013382492053234775 -0.0034592101843973462 -0.0049857725836137965 -0.002006051793509395 0.0053702129957837064 0.014732475772877793 0.02696487514559806 0.0453366532427778 0.044907813859884294 0.019072140505167253 -0.007695951567911667 -0.011077882470526936 -0.012124329495829441 -0.006482880011881645 -0.017045275022537363 -0.0113248845774587 -0.011797133581460914 -0.008546731510038492 0.0007028701749721199 0.0015334828279264384 0.0012162908855350987 -0.004946674273635525 -0.019051027108399513 0.0036979775544985238 -0.01380741843394257 -0.011475560844316893 -0.002630967950710152 -0.0009573194949527356 0.0011978510575195104 -0.005137022285317798 -0.005303975196819022 -0.00036412245103199195 -0.003795648818227481 0.020973351448273926 0.04675305865410914 0.04394609549672362 0.013688270131685871 -0.014175532605166385 -0.011324654581712994 -0.016583643572369577 -0.021907222507478286 0.0026919147221361782 -0.0013105265355115921 0.008482077989397012 0.017997037520759325 0.01132816817958632 0.047550135413641115 0.053900294532426556 0.02526397866261323 0.012720671239597877 0.00016437068234405932 -0.018784576187029663 -0.015662208128302612 -0.009206581789126075 -0.007439914513389911 -0.002600439350140652 -0.004366509547319867 -0.0051823347500042395 -0.0014559442590403062 0.014181504890055098 -0.010536179777581334 -0.020152012647092665 -0.005431903617218276 -0.011118387156597173 -0.013132019833461947 -0.011371611692127744 -0.007924411465428178 0.0005305686500810794 0.0057854576747652575 -0.0014851720950919236 0.005255183576456645 0.011780837255169601 0.008611680923056177 0.0468696215088812 0.058939614059230316 0.025750343044210783 0.01577610326312028 -0.010230925382044178 -0.02191363374357556 -0.009766353472949652 -0.010330155421931343 0.010932973013477534 0.008929706658890015 -0.013585672430394364 -0.008644881750237017 -0.015945112636940262 0.029337955456885157 -0.0015553697654774172 -0.010472754079173606 0.00510409796896238 -0.003970150629804243 0.001849023689708888 -0.0014985215391153067 -0.001605583141840667 0.007976406015399035 -0.01912988355054205 -0.02454313671550316 -0.006767721823021717 -0.005765215214146751 0.008575025214751203 0.022950603719649618 -0.0006225103084521109 -0.0031992281401926658 -0.006079754665910571 0.003813888918985952 -0.0077112300415555545 0.0017087282992761879 -0.001736226244738287 0.025272709481175052 0.028843323511111223 0.0026514356893385283 0.008554712106062696 0.0028025207801782104 0.014752465852154015 -0.01767994932551769 -0.010233588833235 -0.010938429002950294 -0.007995848825387673 0.002028458852199111 -0.0022061997719223796 0.001496441246079344 0.01451816244302866 -0.0067636438156661 -0.017869334393366628 -0.004808351403519533 -0.0028722291303941412 0.015144642093762747 0.03160265729643889 0.004665556735710137 0.003832786249704255 0.0013833079936419203 -0.01765320833585269 0.009828918724747353 0.008709097375770313 0.0046593471568899085 0.0025149859998293764 0.0003946141583075635 -0.008853458916734083 -0.00767438496724537 -0.01195952658617877 0.026029904891873117 -0.007295653059884556 -0.003706687761053816 -0.003683319582794375 1.6709883832274734e-05 0.008774987657936613 0.0011967175816119324 0.005852331064820079 0.026008468234301085 -0.006397643658777766 0.007937735395280787 -0.0017801690811604907 0.01367389700291254 0.006079701134770572 0.007643296457167888 0.0074254024437155905 -0.001505065073805293 0.017312629244898806 0.022522437931968547 0.0013358776649053897 -0.012255206376875884 -0.00048795465526377425 -0.0002372521598260498 -0.0005309878420418431 0.0035231774355465087 -0.0031811334038678984 -0.01493373244046314 0.015664659574299113 -0.013206930968730546 -0.01633815029417366 -0.009631782914678373 -0.0033749472507977178 0.006279790845396751 0.00772996588529916 -0.0022400138678429107 -0.004705108753062439 0.02312103977529031 -0.006667708064921611 -0.00951319279311212 -0.014511431507478922 -0.009869162822572237 -0.005578827482185748 -0.006720354281528747 0.0007061098283707486 0.006627635441886233 -0.0246315693360443 -0.016678455390807964 -0.029831719559194475 -0.010932542396437124 0.015535475773760483 0.003969202196818527 0.009487762305194223 0.009753373500257177 -0.0026263067490673495 0.021906104008544605 -0.01025087201319316 -0.014335064121461285 -0.005817432647901991 0.0013895843419233973 0.010463141209690883 0.008778277537497766 -8.018756373237457e-05 -0.0009437651199083442 -0.005279937309502082 -0.00028125695341071823 0.0004736918996363728 0.008893265464251926 0.007236972934613306 0.014938755932378991 0.0033069695333224096 0.004048613260944082 0.012971657914135822 -0.0061393300694489355 -0.01281481474905525 -0.024076473595411867 -0.008297660783436394 0.016351745415554807 0.005468539456996188 0.009808837562943915 0.0094215422693897 -0.0010939962269473143 -0.02675895249908588 -0.017478932847384863 0.00026608490788018833 0.003588554066490564 0.01962688826831894 0.004951824183661709 0.002256110812744449 -0.0063970703906870265 -0.005368626392554091 -0.002508226756773985 -0.0043718224731075506 -0.0062638746974267075 -0.0041080490814929685 -0.007547017914406692 0.0008183707057006981 -0.0006362379349381367 7.286243400626336e-05 0.010705668659138709 0.011713094148200445 0.03289294871691618 0.054155369496085966 0.04361272118645608 0.020569354925034634 -0.0006717314249451713 -0.007166385886738108 -0.008649641802126715 -0.005264893321044166 -0.033666439598865366 -0.025126295340915563 -0.012420920539762018 -0.0003356355359030213 0.0184718627718666 0.0001916188393078506 0.0017621003363111828 -0.008818081110165058 -0.007726381157804009 0.01290031571206819 0.009826438040913819 -0.008461917411729861 0.02074721153532628 -0.0012320471321212074 -0.01169511768499375 0.009266478671982901 0.010662816484274378 0.022987415157056733 0.001937650202911105 0.023503325011707783 0.04931245834506548 0.04148290981374072 0.013143228792480647 -0.00815648824527066 -0.0072054417025948616 -0.009245582308162697 -0.012181275618595035 0.01024790261726229 0.0036881364707875394 0.016894469348482613 0.026230603762574474 0.01796717153989012 0.04153096457446015 0.04617904361084752 0.02104751564643674 0.016735035172458855 0.0076881249050666425 0.006133235552404982 -0.007031622107881908 0.01865545185955595 -0.006290635928064296 -0.022202255737166166 0.003722655568706862 0.0033721708318810197 0.013442684575754456 -0.010744364226260933 -0.0036914643326164676 -0.004006330645725766 0.004916996933479177 0.004561003409658889 0.007762997671241145 0.01280845239131053 -0.0036452243922218946 -0.009689832903665917 0.015224055349909211 0.003673906099314999 0.01428852470969804 0.020367240467252246 0.011123103929317174 0.040128622290154216 0.050689144428410576 0.02566656917700905 0.021698248773645592 0.00026576603238084016 -0.011187206495975382 -0.0012431520910988144 -0.0016384373216638862 0.01632844247924236 0.012673696175563583 -0.011044828278031922 -0.007969594526391389 -0.007762904484233424 -0.012523193730943183 -0.007206152884665996 -0.0024968928133594463 0.0029669390197735526 0.0021199667073664333 0.005908543621466477 0.01319888022773012 -0.007848238870750857 -0.014135200699693064 -0.00571346582657783 -0.009681065595214297 -0.004558708941078414 -0.006147592506601904 0.003867167259995952 -0.010513662107115256 -0.009289634711922018 -0.002666833625100477 0.002600497840149067 0.013192617793732707 -0.009336616735724564 -0.002168833774132348 -0.0011411509448615207 0.026244819400922346 0.026646767818378846 -0.0014239289310608695 0.0012221745866266007 7.759047051787443e-05 0.013941351201525818 -0.014121115263531667 -0.00856019443634774 -0.0049027623678926805 -0.004278235817045657 0.0027854684806304184 -0.00509605964896915 -0.00017663167556102732 0.010626182242127044 0.005342920012407118 -0.0028845452396659213 -0.0003102604121835967 -0.004693954697519476 0.004673089856553157 -0.006475024532080049 0.003617571485630412 -0.0016528238237612028 0.01120682968739044 0.000495447375141877 -0.018293053166752855 -0.01611402248459886 -0.016806982724602567 0.010306250256559749 0.007832369359290397 -0.015781132456962207 -0.017261461189946696 -0.012885227793818363 0.028043105807973454 -0.006180196655331646 -0.0040909746388274 -0.002125260514018434 0.0004083516618850174 0.008604811231187691 -0.0002772147143929153 0.006587663394183332 0.027908731629188815 -0.00537308461021818 0.007091692137412983 -0.004195713358089411 0.009789927804122068 0.0025669853193513556 0.004970855480206596 0.005907730281085601 -0.003201421089857154 0.01664549163976894 0.014795899818563434 -0.011538400893959308 -0.013049197095560116 -0.01190077418587228 0.01993856573035544 0.015409273309759613 -0.016181244443121787 -0.016991876178743575 -0.008257278953544698 -0.014116647033004909 -0.010268544471443704 -0.006003408715608807 -0.004083429821525565 -0.006326662171224482 0.0005108141308363249 0.005377446143538659 -0.0002683810900287843 0.012382447214148492 0.019409087378974864 -0.005824415411639711 -0.007882481686761984 -0.016028273235705263 -0.012664604335904127 -0.0071306584687811534 -0.006361890839519991 0.001595232596862118 0.0056412518464869195 -0.010184653473944037 -0.012727695031990926 -0.028964693030321148 -0.011813709977864089 0.007568969095710712 0.0012873315666862353 0.008627019559575138 0.009324132985903365 0.0010608551309308684 -0.0033505055017077237 -0.014580801523084636 -0.016380779990025827 -0.0017236850549838898 0.0009389860767529874 0.01219811961464374 -0.004497071500389795 -0.020839030711834183 -0.01690133275184496 0.0020110247931677096 0.00999286125444072 0.002548843337032671 0.0023615238617089133 0.01967818262291964 0.010167926324255418 -0.011936594312633652 -0.010146109630250554 -0.006712541329258633 -0.005260444242692685 -0.009706897143147094 -0.020466442583369705 -0.009050900950006262 0.008714104964890404 0.0013465373385592903 0.007934475052649992 0.007594121327147997 -0.0009146336077276308 -0.014232747066821892 -0.014078063991203572 -0.007132780698159849 0.00022146440426595323 0.017110485836699742 0.00200595432119493 -9.852890674073617e-05 -0.004452227075833651 -0.003028757340655156 0.013434786168325275 0.011505910904784061 0.0012922302937774313 0.0036091931825663697 0.019488931466626256 0.009996655551653301 -0.012855970156540072 -0.009362443271560033 -0.0045256300866944555 -0.02217672024909011 0.011677090298045673 0.032689080220823834 0.03614637358366578 0.012171780661723317 -0.010754380681883781 -0.01543186289613283 -0.02268902904883387 -0.02261900460266707 -0.012551606961802561 -0.014129910524088293 -0.006970797980558053 0.0033376070023940817 0.01740250754893325 0.0010699286552211577 0.0046483897215133345 -0.0032164959490263863 0.0011543109968328736 0.018163390571619455 0.018308799554293605 -0.0012272704110942861 0.02400724144516457 0.002915966440096975 -0.006750836204242199 0.010853921054834476 0.012901412312949608 0.02136882934673357 -0.020841527361307947 0.005271951476635714 0.022653103279573955 0.034374551043331376 0.017636316150154867 -0.0045109423794891116 -0.009602694365521896 -0.01671286110988767 -0.018553112531755678 0.014737341621939069 -0.0081574985619875 -0.009159016342980069 0.0160648091533387 0.005828376628176012 -0.011799014319247014 -0.0010861019026531132 -0.0070022322966539225 -0.008137977031299178 0.021914828941481976 0.017636161793757796 0.0005979384562176143 0.025860281476856643 0.002064229709278225 -0.010311088530922536 0.01215845543995254 0.014612469879925729 0.025529831665699932 -0.0015773445254983777 0.004030029580369496 0.0048614831210034345 0.014728716186645742 0.014890070382845209 0.018473496921627162 0.021986756658707446 0.005123613917423403 0.0014842498430640656 0.0024143175352627113 -0.01563883487501094 -0.0134372651227917 0.020792222322786994 0.011311097688856186 -0.004505586244402728 0.004205006497575276 -0.0023704351701840693 -0.009160971059931952 -0.0037325250125388584 -0.00834702740326793 0.0071525623811378 0.012633579618736152 -0.004077025718779763 -0.001369686126287275 0.019107477873866963 -0.006834600780626676 -0.01677707400039469 -0.008594183116305562 -0.0016701030231251251 0.0026158807334390258 0.009933986646018694 0.006348935657846428 0.010029848183455385 0.017305606461692196 0.00014461803100963302 -0.004235687553315062 0.0007467630924187291 -0.0054022905379766915 -0.001964982142315728 -0.002726508118723296 0.007090917972506519 -0.004080724854856678 -0.006644461462175379 0.0018431638126001379 0.00850582851135809 -0.0071985023298415315 -0.017889134380859116 0.0014857142055407617 0.005489625496896045 -0.014339444868793088 -0.013382927196983122 0.010576506503548506 -0.014905314857417973 -0.020582981821903514 0.004139989344369682 -0.002040601552924557 0.0012891349483648284 0.0022429305731127692 -0.0033744432010351217 0.021643646582740046 0.05274802833067881 0.05993727316439155 0.03107810216697631 -0.004010574663197166 -0.010095963439140853 -0.005692445476303113 -0.006186840629914634 0.008110133899508732 -0.00656716081855734 -0.007299287228715886 -0.002160259522396163 0.0050469426894423205 -0.005486380809935274 -0.024389143552564396 -0.018454047767371307 -0.01793030487828313 0.015380594066089133 0.01242285365988576 -0.016260287482199726 -0.01751184282052526 -0.012635917360681079 -0.002326462314067898 -0.00736290297329073 -0.00021976072626022215 0.0025749541171612243 -0.0015112750407375024 0.027073084928181185 0.060857516461263 0.0666690061732642 0.026644323227902625 -0.029411343519120278 -0.01901659982084744 -0.016991795727517654 -0.002279285449649588 0.004737425988052607 0.0014532091946554764 -0.013757298233051265 -0.004656556867154811 0.004276708273055953 0.006928177643256527 -0.020924961080274754 -0.014037831423154656 -0.011359990759424631 0.027142557900753848 0.021975636777896358 -0.011754434683455224 -0.012141747387817625 -0.008897310319990793 -0.01621431228997558 -0.004906184114099473 -0.0008437656663187767 -0.00025398237575511727 -0.00218100308298372 0.0047883215728068956 0.011356341052191065 0.002044269357338481 0.010840316358998773 -0.0018464352428992463 0.00040883750508808074 -0.01060890193846919 0.0012450910459311081 0.010517174383071131 0.00620209733521805 -0.010603375367221357 0.00439352273523503 0.031492440254215326 -0.008706315008525485 -0.0031490160508047104 -0.013445135363602175 -0.011926460825252286 0.015482380434034618 0.013348095496443866 -0.01704809190366816 -0.01036099308916819 -0.0003076575646896885 -0.0014814196657146584 -0.013104503071583794 -0.01399711581666419 0.0018151943359533715 0.007661716522423144 0.019995211151456176 -0.0029330609767278973 -0.01787452480007166 -0.013933228381908403 0.005282884218446406 0.0060455046137634135 0.0022779391670965784 0.005907866184772114 0.027169301815359738 0.02503347734364141 -0.005311312335117199 -0.00621900302847696 -0.004293666030915552 -0.003904569012884161 -0.009558944095713836 -0.008075370621249644 -0.018689879889089763 -0.014527120563133619 0.001804865757522689 0.0005435782689600777 0.00012405362055783447 0.0031921287883410077 -0.002508544645494354 0.013636954932283956 0.0032107935031065503 -0.00459855791992994 0.0008231869311816622 0.0026179579106375755 0.004784199680969346 0.0010243035523474834 -0.013734744698395562 0.010463470227777761 0.010069272820203874 0.0020738823302532904 0.004826212772319694 0.023129441735616894 0.01707446837677033 -0.006207148194882724 -0.004043689983906499 -0.0025639750542654 -0.01610047450481675 0.010747535947609042 0.029268319184123936 0.0343710269776573 0.017698957554453974 -0.0055486090646876575 -0.008909131435015042 -0.015056938188781474 -0.01548952870994815 0.006360112625387508 0.01454975536576298 -0.000936286531575517 -0.004378605027618382 0.001345012748531123 0.001580184016344777 0.0031838826016620334 0.0022039244183032366 -0.002651430245765955 -0.012098369484142515 0.022932170953524282 0.0013956537585893655 -0.00848700217827903 -0.010872708614384002 -0.021569214936569967 -0.0067497218756951876 -9.096067909676015e-05 -0.002413382957275929 -0.021202943659668644 0.0055971908186740384 0.027716626466798643 0.03920060588410215 0.0280336201062686 0.0007052492768314626 -0.0042727988129769735 -0.010505886298752355 -0.013078063236812728 0.017944269474118757 -0.005234126630347689 -0.00563261785058112 0.025127137287174882 0.018441816309792806 0.0024694227769462207 0.007504049682094946 0.007338467008244467 0.0006923378864019069 -0.006118368065217067 0.026234677808080156 -0.00044131891005349383 -0.005426307116358506 -0.008037406585532971 -0.014862482655753007 -0.0037383855798204537 3.1617093546422133e-05 -0.002336261808114282 0.002656973225868349 -0.02315020051507402 -0.01938523761715603 -0.01667433411594105 -0.017241077672558287 -0.005564476901177135 0.0026927444187431317 -0.007977372076138535 -0.0016731868980212842 0.012816863493828922 -0.0023211202528249796 0.0013931292563295074 0.04493336966677828 0.04056625823458941 0.018927955034323367 0.019310936182892275 0.016888442878797878 0.0037072985289010084 0.006319452735122089 0.002826647198186196 0.02060874160287211 0.023446950421744123 0.011065427864156995 0.02395238698764944 0.03934242134497973 0.008773403603196981 -0.0036176894382752667 -0.003657035214099163 -0.021272446213742885 -0.019340978980606736 -0.01903111812838345 -0.013331676387857715 -0.0039737451949958535 0.005647570809406027 0.0022036483095680716 0.0012836413925889439 -0.047416263379099335 -0.003934254897838575 -0.0028961313312764903 -0.005055365463552683 -0.012189102540938497 -0.011964930960684822 -0.004868509824533781 -0.01653384724336753 -0.03569491174532581 -0.0025544200818795487 -0.01188215522921752 0.004190086965843062 0.007075757946520114 -0.004139375572676957 0.004305987185414039 0.020341202258321305 -0.007096405148162603 -0.014759392741168463 0.01472608360398334 0.004012881673200902 0.0036059311006916106 0.004859512184817199 0.005355999129312678 0.03235351667539022 0.06339057673428415 0.06261317282797266 0.04250230712142727 -0.050901311104340825 -0.009009139543822944 -0.015457092642734389 -0.010771868074355442 -0.01839844307006283 -0.01875994648020097 -0.012324483813820942 -0.025208644666698442 -0.044703470448577226 0.03489118749036068 0.012867075765314503 0.016196118774231792 0.001976526577931839 -0.019327959197467572 -0.021736763690872133 -0.00939758894820984 0.0028231735286938318 0.04752080005637346 0.0027035370080054516 -0.0036081151856943825 0.0006908439395300663 0.0033263918057934946 0.0031838614968195842 0.029960836582981248 0.05765440999413432 0.058549857383736074 0.03414392824599228 -0.028763010035546037 -0.01711161236033013 -0.013136683619614157 0.002514411166118343 0.0160921547124115 0.010384681652030997 -0.012981249974107227 -0.004627129501851251 -0.00030963542451399904 0.022669286664446384 0.0006836465340695322 0.012159461796577105 -0.0011430300232859768 -0.021513654094372822 -0.024430074191729205 -0.01301334421671544 -0.003582276903862207 0.03845515356885149 -0.02746664410818315 -0.011369073309532313 0.0019677369421106593 -0.007463029421283812 -0.0031422047406822733 -0.010246524049655559 -0.005022109147564557 0.003217235504038622 0.01868377240997074 -0.005847338500172027 0.0012251786649610684 -0.007457189457684154 0.005008257539609422 0.021764045139631864 0.016688141145698658 -0.01019145358333105 0.004858587393242198 0.016583432784878102 -0.008679975580640386 -0.004885945499586939 -0.011477613223231993 -0.007919296750905386 0.01724685933807755 0.01701300815580435 -0.012656998253225806 -0.011440977485997898 -0.003399899004936825 -0.007045129348425018 -0.0012036310974778378 0.004859300069842034 -0.0074399111341208945 0.004550908898034467 -0.009721163763912903 -0.0018983839110552994 0.012660327989560538 0.03427788848619195 -0.02251925139640753 -0.009679961206600553 -0.0016033480003726686 -0.0053209504671818016 0.012772584340788373 0.014865352362336402 -0.010413055551536371 -0.012167051094000294 -0.0013403412468088807 0.001465234794701619 -0.007019945540654696 -0.008753052403868356 -0.01809478036415979 -0.014428186837706702 0.0022490682816356895 5.188699864245295e-05 -0.00011286646505990626 0.003787654419872377 8.65297736816937e-05 0.014715632130197748 0.007300824954976796 -0.005105073357024768 -0.003022192934388842 0.0023418839972430827 0.004023504771044707 0.004079968485710129 -0.002256537728725604 0.0027849930684553147 0.0063339086676049835 -0.01151898478494577 0.002047489274905095 0.005618836741974174 0.011862592550055942 -0.007548923093965315 -0.013928854974282426 -0.0069536723380204685 0.009334515013345273 0.010666492973895329 -0.0012167629120271336 -0.0033368962348687887 0.005481943619812446 0.0046251378572117335 0.010776593878240627 0.0073245291293963346 0.0010281618395676577 0.0026931134716323933 0.021360236530506903 0.005267877110954634 -0.004676413501378973 -0.003174502476498512 0.001975742654595821 0.004222956938999596 0.00531979814797703 -1.4759074653718088e-05 -0.0043865924409319185 0.02596146769189963 -0.0007580711125182223 -0.01191348955041663 -0.013462490765599605 -0.023761565077130287 -0.008892403333000714 -0.0002104125572817663 -0.0012197698846175772 0.024042050601118397 0.014648930167980013 0.0016097304092542715 3.2135369272458616e-05 0.004515280437489909 0.002431071959580911 0.011657191655781092 0.0088501207723844 0.0022050081755174075 -0.012080992571651631 0.01407980984546024 -0.005580398245700849 -0.006460984229739343 -0.00021250449124577065 -0.0181020761918668 0.0015837099469112467 0.003919743320881059 0.0024390966710898902 0.009112141659385457 0.04596868018022318 0.009946676180255187 0.0012175881289651525 0.0006670358853624296 -0.00850364087855429 -0.0010799718662408634 0.004441430223968598 0.004212480263939343 0.0040287704544099 -0.017563507525068446 -0.014606654326495987 -0.014083925615540208 -0.01595497797936484 -0.004030412636549452 0.007595834568664337 -0.007772593458173339 0.004894309002283561 -0.0003095782506319038 0.022473998309046523 0.001679273144702481 0.0032349001276139938 0.0005415077250954989 -0.014815163239765583 0.003939782468300103 0.006557234798953971 0.00943202031928787 0.008659540502580549 0.00247844860476954 -0.0016134405008782229 -0.01062955738170831 -0.019233873889671026 -0.02182228597225779 -0.0025958738404197657 0.005972608307301871 0.006074336343605602 0.022201293742363768 -0.00430148978956347 -0.008911029086505932 -0.00854137407976545 -0.003628785199195098 0.006769805262285636 0.02255062918230381 0.020948201438647663 0.023961249532617728 -0.0315923924854144 0.013569728565665339 0.013486988067347515 0.0046999843877473324 -0.0015122309597897286 0.0016650108966391921 0.010972127931726855 -0.0029288760071886355 -0.01469419434279669 0.023833592085393634 0.015450884742730885 0.01200935782858504 0.001930019785808958 -0.004663911146099018 -0.008828399381820166 0.01397075221058836 0.018307767984755974 0.01845407053323333 -0.037379068087640334 0.0013747180399552115 0.015732583616640126 0.012248464780987435 0.008150111621273059 -0.0034006090396726226 0.0009203888555317067 0.004762827433382225 -0.019848707615679233 -0.04229250443206746 -0.005374365423231695 -0.016805788106914552 -0.010515829340435701 -0.01617715456770768 -0.015295126897794137 -0.010776904379462823 -0.0237193102051987 -0.040150167131221444 0.0537590365122548 0.02136978972304935 0.02118517736734754 0.005717552436697754 -0.01494377666074727 -0.019159981607999036 -0.010254806357146807 0.0062491750788322455 0.06850649966015658 -0.052264160209057435 -0.02174714697142818 -0.011391534535371704 -0.0043647391901879395 -0.009694263572057821 -0.018869932997587074 -0.013588482605626787 -0.011107577717280416 -0.041275469636081 0.036364893593352744 0.029579386111046782 0.010244331235283038 0.01725591563372141 0.015109670767801574 0.0014874544966140151 0.0011379044574819815 0.005959710815159637 0.03728189025999174 0.03548301668522855 0.0077282652970567375 0.013906844194711991 -0.0007901045030636461 -0.01935437527750468 -0.023491183428235213 -0.012946210113435174 -0.0022669012980564033 0.050156302983622655 -0.02582245883705844 -0.010824325152739643 0.002437231956112687 -0.007096297109275031 -0.0010845438043972867 -0.007187198028536015 -0.005472570894158485 0.0011820681449054883 0.018610350942712302 0.012911897002128603 0.019296588097993676 0.0005024279630001684 0.005453172974338001 0.004239672030631953 -0.0062601058776611375 -0.009049054434042459 -0.004586149221953219 0.015153940846427242 -0.022207636311864835 -0.008633672445249908 0.0019963958474128224 0.0006119668510684702 0.013258993461913561 -0.006191537886867386 -0.0081152796389275 0.003281650106831594 0.02048814551778314 -0.008837175803863104 -0.002685134526294825 0.008387883942407102 -0.00909367968930256 0.001816101780363242 -0.008779056633947074 -0.00539296794665734 0.007672270392216621 0.031075648214165436 -0.029276474697756356 -0.009434284495619798 -0.0033335400036368303 -0.005738861635918655 0.015553176020008021 0.017272820458398723 -0.010763210490452804 -0.011641265574755809 -0.005890839299722425 -0.008270141863494368 -0.00423251766336262 0.006430019460566828 -0.0008000600767862995 0.013372431216081181 0.0007838690170904237 0.0020967470714077954 0.013114904389328979 0.03674206497946796 -0.024097570183060024 -0.007599838374444364 0.001062213264563667 -0.00032755710791081995 0.0034784985996681246 0.006490046318999041 -0.009414025908609463 0.0012995143790520904 -0.0016920277625690064 0.006945754984796451 0.011415613815816234 -0.01063955456410975 0.0027266042656126587 0.0024881164670611747 0.01092252301815203 -0.0023439879918649292 -0.009300679605349842 -0.006315631952534917 0.014377728189220946 -0.00035543308238646776 -0.0026660376890250076 -0.0027466403114915867 0.004816005143978825 0.005527161057613431 0.012585740360853737 0.0069943330514022645 -9.96092215745808e-05 -0.006420058149106672 -0.012305003408999544 -0.008617897793481405 -0.010787976158957666 -0.002595946461538334 0.01988014489506905 0.002016180287176241 -0.0014058329523908121 0.006821697652098513 0.01556388936747079 0.022847240522334677 -0.007987264486710591 -0.004399149171110318 -0.006714544636550176 -0.0016756980905648445 0.007599982781399747 -0.008643935158775606 -0.012962303787540616 0.02299720670890558 0.005029633174147632 -0.0009575568442653662 -0.0017654347966536057 0.0017105882228898024 0.0005001547305897375 0.009862756674965145 0.006976617219884071 0.0018345968724475382 -0.005487529746816007 0.011198629556485405 -0.00886645914541927 -0.009031434621422025 -0.005245547483388897 -0.022165649825278883 0.0005215510486396728 0.007623796779936383 0.011167295256123635 0.03112640147060608 0.02758775130952142 -0.0029373445287380513 -0.008468007192910113 -0.012694503641731112 -0.007270473890523671 0.005031590938746663 -0.008184379166131975 -0.003942986054192423 -0.0015519810300203688 0.03168388242684752 0.0024374801609153528 -0.00948769026687997 -0.013623551005074574 -0.01770614636828815 -0.009851732059421886 0.0011506475501010895 -0.005613989476804135 0.007954602797543234 0.026859916758242685 0.001214224472801044 -0.00012175969792823045 -0.0007619049040553524 -0.015452202548917202 0.0031886801829007216 0.004934932749260846 0.00904004643450895 0.0062436112246418325 0.0007582878135484277 -0.0009953457168244664 -0.012560692261783664 -0.021335787030124103 -0.022224807388883595 -0.0026773525647406367 0.004786569631605135 0.004251629220461208 0.007895924206563829 0.04061814498114493 0.008065641467281696 -0.008669630445829857 -0.016674896076769224 -0.020002163980026813 -0.0018925583656904446 0.018475536207366614 0.015570391596801623 -0.01966838086100098 -0.014683935429237923 -0.0016756191216125826 0.002126012971428063 0.008400935348148116 -0.007210831220726434 0.0029896612149563316 -0.0005242359294801854 -0.01504513153026398 0.015219831889834225 0.0184587404567681 0.01224440621627907 0.0009387280630825218 -0.006519434111987742 -0.008952812115626462 0.010189511996607685 0.01643506903301898 0.014009919864247239 -0.04573585012181646 0.00333799250972741 0.015295951361049975 0.01121452373643541 0.0036057862885259203 -0.007716419412082025 -0.0030423273999648347 0.004600627406779689 -0.019433732122996594 -0.014035040394044405 -0.002101114000852243 0.01618219365310087 0.0157191369056933 0.021334573721381186 0.004660921019953256 0.01612462983363908 0.010992473372562336 -0.014400048038119711 -0.02637429577264143 0.010992615879322936 0.021298715285936232 0.019937691532012372 0.017582374755812525 0.014521215654297521 0.018916160819490983 0.02019709390290519 0.016324336278647544 -0.046561390733761865 -0.018778340256584286 -0.013334458315453053 -0.0068153254593166235 -0.011907389515533663 -0.022052447292419924 -0.01375242591300458 -0.010005323058845769 -0.036022963571197136 0.030976534078605858 0.026999591864228536 0.0049244001927869485 0.008839875647120998 0.01181149861864427 0.0030583803394535767 0.00032621161393100073 0.00905011018819055 0.039898177081552286 -0.050426899016678815 -0.013934094312737214 0.005092112688931438 0.005664067327429722 0.007941797529459232 0.00423351094886937 0.00492830711540423 0.003568805381932518 -0.012875253132220293 0.0033201177009846688 0.019439901231518186 0.013045859779354865 0.0030744747434082232 -0.0027101607178690286 -0.001449511460152769 0.004975872712423778 0.02531402972842148 0.033542909672671296 0.021747737402716596 0.02141770165015241 1.5064014534436578e-05 0.0034813597694112034 0.0022926114667245106 -0.006130682197829765 -0.008881011311544928 -0.003301063018832148 0.02480955969069893 -0.027636093741416866 -0.012599787594076603 0.0014492731524047423 -0.0004885217329702388 0.012119070518067676 -0.004264220112639332 -0.005974198242190285 0.006213038725464955 0.020367306678666163 -0.0007162685684841805 0.017922329505694928 0.009228760507119646 -0.0016716894731789358 -0.009383003390931868 -0.01088329517617573 -0.00590060197412285 0.011054643673409748 0.014656267003936706 -0.009874519503246564 -0.005903301173739569 0.014276382092023412 -0.0013358088155843947 -0.00781510117450611 -0.01341134568770545 -0.005529011971187785 0.0029105057946911023 0.008412623896833072 -0.021844921932139882 -0.005063324600015292 0.009728503620485367 0.0021104415334940187 0.015058495039452627 0.0072528013100280056 0.006857278846915387 0.01654174043013729 0.03517350762486552 -0.032252479058826604 -0.017080519538058888 -0.003548526606982126 -0.00019510254298622136 0.009757394675377931 0.011628366120926171 -0.009135061033359048 0.0012349654012703093 -0.00501096485612218 0.004952404265807049 0.007037597531068073 0.02844599339433722 0.005002432558940778 -0.0014009339812699896 -0.006713473822634681 -0.000618113740830113 0.007503943474018816 0.010937739171327558 -0.008586662496406411 0.0014294427364950364 -0.005795153563032042 -0.006992814204818182 -0.008135064631201318 0.0017748046691825467 0.005905476208315112 0.0020509684108310656 0.009867523511248071 -0.007188098739531274 -0.012358478580709077 -0.009517735712092006 -0.0143630055440314 -0.008637018539919692 0.013859375701902262 0.00035647365375426963 -0.0017471747447133231 0.0043017530925823005 0.033366251393643714 0.028102773070706466 -0.008786099254934376 -0.004689010862235129 -0.00944505425745386 -0.009171632753264379 0.005374503228498502 -0.0032876849831829924 -0.002741633680144484 -0.010706005999609894 -0.008210752305100646 -0.010593744620783198 -0.013929442624220054 0.019320666559038153 0.019884207059288932 0.0036535520481893935 -0.003690835376993883 -0.022862402333956266 -0.003999471470450045 0.017580015457817746 0.017510687654935467 0.01730101730831343 0.019110224978294704 0.016653654211585343 0.010466905679526413 0.01562906504523664 0.020673571294060635 0.03532954331508016 0.026161631785369052 -0.0022710966353306156 -0.006807977233789169 -0.01125906310540692 -0.0043708065513920116 0.00857644088292444 -0.0010907587209253691 0.0018276923912983445 0.0031003947464087124 0.03367110994750698 0.005721773667023914 -0.004621004873156832 -0.011318334584568738 -0.020313063587417583 -0.0056360983346520855 0.0019055155280884302 -0.00027169171895657273 0.011947796586268582 0.021913596925458315 0.012668775833049949 0.008494936209699875 0.010601756518427473 0.006240377708272143 0.0029075459938523074 0.005525181163833819 0.017413232671495523 -0.012904309410723713 0.016408963332641923 0.0034747116307195505 0.007740196739593662 -0.005549337877892812 0.0022247860632895466 0.003205838509774213 0.0037306915293516575 0.004695174626848413 0.0036971130455339864 0.03522510087155834 0.005330073230339627 -0.010165922099404638 -0.018987969068970875 -0.02463925223638632 -0.004986894787595355 0.00991493614245072 0.01001314913731965 -0.01922116025251142 -0.015169370127831532 -0.001458414952974332 0.001903020882629404 0.008519817483491765 -0.007059647423335018 0.002366579343266774 0.0026810712616418477 -0.009785134432843633 0.001090141786717321 0.023010099878437162 0.008722437326567608 0.0038292226665093527 -0.012067347194393098 -0.001691447997080142 0.0033067388578251564 0.009999029868449121 0.01823420878039005 -0.016757185315911003 -0.009981306078632778 -0.0010309163180021047 -0.007863890814356195 0.0006092175830078574 0.008328791272030681 0.009838173578950771 0.011899140503575814 0.007611832958018229 -0.016825510201656894 -0.009267813737180062 0.0063107184330121555 0.00810628173936824 0.015750098376157692 -0.0016292351549942578 0.009741280402176963 0.008123538562207185 -0.0127441721110646 -0.03669779315405941 0.007805474492990107 0.020674200658183317 0.01991918755048277 0.01407199809141433 0.008375356492471188 0.012583592279701702 0.010908265321885675 0.0018843213898060772 -0.019008434943905462 -0.006809696565232988 0.00020147210535276168 -0.0037468987548720523 0.010419944387898613 0.022351746884601356 0.019392881209832506 0.019032223867309486 0.01175703496654863 -0.022063322360394648 -0.02846130712889232 -0.004630108979405618 0.010543566678726522 0.022693903227571113 0.020195630862805028 0.011406563885712564 0.012654005617045171 -0.0029862528642253107 -0.04231625089760762 -0.009051868472688025 0.00899685671381156 0.010690263219607567 0.01053795269330313 -0.0020869240238575336 -0.00018760087839604194 0.0013398559281169948 -0.01229017373642823 0.0010512229135738237 0.0163107525971022 0.010533172905919872 0.0017372926732872943 -0.005545448902706655 -0.0034008282192787747 0.0009882155469569448 0.019763678856402747 0.024555487340438976 -0.04852945258110973 -0.04160171852654859 -0.008830279247351611 0.008629959893884128 0.01559477375492721 0.018229234736528755 0.004803960498668017 -8.156053598938874e-05 -0.019939638261956587 0.02371303522545756 0.013036817519591628 0.008987822599025511 -0.009578502036403853 -0.00735024103803023 -0.011546692580054937 -0.00251403101455847 0.02239186526404518 0.02483934733872606 0.004379209007235708 0.020051001964262335 0.010141879910923794 0.0013102734688585982 -0.005882325934154316 -0.0020978141188288347 -0.002989687222500536 0.012489257757418472 0.017633282221557373 -0.007340441166010789 -0.004265623694380429 0.017929265986244603 0.0005456578135851159 -0.006605964253874258 -0.010865982645499851 -0.0013643631585187226 0.006629940974754606 0.011755427525581995 0.023868258286820994 0.008802364462516582 0.0059852894121852065 -0.013199517827083443 -0.012594651957699486 -0.019407650690231308 -0.007249517691073926 0.026517763357757497 0.024358459341597503 -0.024724206852491305 -0.009309702453628778 -0.00017372972630860114 -0.0019555267531004747 -0.0032473927898623344 -0.005552767275749352 -0.0026020929416472674 -0.005643445678794681 -0.02603023523455111 -0.0008013811249944194 0.011700435680681054 0.03158446096764651 0.007334025347123782 0.006478821868215882 0.004021472962480391 0.005443501506107432 0.012174261992688673 0.01555467736588609 -0.005667976682775276 0.0010863259938567067 -0.007819940715073866 -0.012049939979640356 -0.008272513178497379 0.0055668131923183916 0.00482882460344834 0.0016589932965534457 0.011704024331598001 -0.025734080699304843 -0.003674025702673509 0.005836876771596668 0.0036210696196991763 0.010543930579081645 0.006191847370460117 -0.0006844826801249014 -0.0025355104159861387 -0.023500508780760026 -0.004039656805977299 -0.0003881592633942223 0.0021687385444547984 0.010847030909435987 0.019825048890714316 0.00502841238502498 -0.0034228921436364615 -0.014798503783744064 -0.004531349502448005 -0.013432179831999898 -0.010270780973621444 -0.014366550961875108 -0.016319482777110948 0.0015833742936634254 0.007331406395761499 -0.005076289874000592 -0.00885636142526044 -0.02737331866166963 0.014590002982923782 0.017412838394750902 0.01739956473797451 0.01392080316402444 0.006027564697490749 0.009165550473285489 0.011793075206035855 0.01575993734880116 0.02013502772414073 -0.016771782933490846 -0.015391866094515575 -0.014887290744137995 -0.00408356466135224 0.013961047835655965 0.026301628590710682 -0.003275104135789355 -0.009601350992140534 -0.028365857234863654 -0.007870809826834267 -0.008467853803172384 -0.0334921425251317 -0.019946069340185866 0.020228481128535647 0.013882135527276728 -0.004934435644950956 -0.008518987526814587 -0.015846515665116377 0.012921071816083063 0.022751758465521382 0.01602629705582133 0.009225252466191 0.0040480799782914275 0.002117510849463545 0.0021963300112290383 0.006940414559621852 0.017906832260338137 -0.006858224210912632 0.022770634158160427 0.009818168528326279 0.010808780352185908 -0.0004854082684376609 0.0002748370230562905 0.0013465091079320787 0.008938942601142329 0.008945786419786394 -0.0006450726646245891 -0.003009092473520053 -0.020910870628591406 -0.012531461769451342 0.02707996994315191 0.014943537442568914 -0.0026558563287237265 -0.00463759808568473 -0.003609458090097816 -0.011436256269905805 -0.03755771119092827 -0.008502759209492491 -0.0028150653195096677 0.0043677102811333045 0.0028713127815543343 -0.0006897402552831738 0.004112619653854122 0.011896164017705432 -0.0053563081394941685 0.026078872421557448 0.011936293333602183 0.007406669237322855 -0.008385187382818559 -0.001370027114655804 1.6027344803035137e-05 0.010202892918544114 0.017636222393953804 -0.009359169017065844 -0.005613059033714863 0.002398634914227577 -0.003068476562681421 -0.00034442373900692115 0.0007481581357603477 0.011262566246964385 0.017448271871655617 0.014476606257345067 0.008576270640628755 -0.028041794602740675 -0.0027999296211035506 4.506147076139102e-05 0.0038932325919730625 0.003655689642410253 0.003445720328929092 0.008553333736461697 0.024107885677928115 -0.016070475311056053 -0.02407681003720844 -0.013189265028570039 -0.012579146543985687 -0.015107628804882008 -0.008558032101140712 0.009402945464875025 -0.009041238927158808 -0.027914346990349954 -0.015613160378298496 -0.00390142421367472 0.0017785187513302157 0.001837178614151073 0.010327613949743087 0.016534144131591117 0.018385112848536944 0.020832546944928653 0.017113392585627604 -0.014733319108488742 -0.017101648965691635 0.0035473040472318897 0.013832212008330945 0.022111904158926308 0.012383451996782705 0.010636910723411632 0.016853984477085714 0.0009103950160499704 0.001402823549362679 -0.015764525487954338 -0.012522659904091307 -0.012288734118527045 -0.015689464376822688 -0.009109222040099386 0.00847795753589009 -0.011328352984210255 -0.01989818258518462 -0.014673265330655756 -0.004972020205941296 0.004086522254817811 -0.0003736243341241795 -0.02284363028005824 0.0019129275510773292 0.024389516161608914 0.0008411453223794569 0.004363427958114829 -0.03872659204403302 -0.03288743252098571 -0.0003307174780124537 0.015349513942606889 0.01970700644246761 0.01139284962294835 0.0028200668900596085 0.004344549422887548 -0.011903028215860964 0.03378788923886311 0.021640967920351657 0.013585514019535325 -0.007170099263978089 -0.010919114187022043 -0.015279899506624433 -0.0016982762561203908 0.023687000649940115 0.028417758674907798 -0.04226750784406716 -0.010938169051842774 0.000427368136027642 -0.0006539750400318283 -0.01930356712077628 -0.0075300921889356 0.01346283484089149 -0.009721991327100088 -0.01308936061317551 0.03538208965554558 0.018836471542046512 0.01476074905501328 0.005267782687653254 -0.011038629850760782 -0.017252689707918753 -0.009996351784464556 -0.004538935885380544 -0.0023509911647052557 0.03649532644208698 0.020099880937944153 0.011992849806896296 -0.009814912496855226 -0.011808713202439165 -0.01993572184110138 -0.0032115567817501624 0.031741763655357365 0.028874936386401397 -0.01647105247611956 -0.004528402730605512 0.0031546471183591758 0.000581850443965593 0.00029111305708957955 -0.001495323379603777 0.00023613865352804607 -0.0013685185222791771 -0.01673019366331639 0.03072856711854107 0.02497153929136887 0.01969231468425027 0.00700931551851807 -0.015953224355382174 -0.02037889859919595 -0.010831798173565558 -0.004689313347300868 -0.0017927440716343419 -0.026532235972840094 -0.004343322811094319 0.001003606244098258 0.00012128461463233977 0.006359616817169819 -0.013518905242034718 -0.01921752777142443 -0.012949408747743594 -0.02622485768641391 -0.008551841036512364 0.010736510994402367 0.019061474917356044 0.015910889487289945 0.019830845501011028 0.017708609018096896 0.00839047778638602 0.0037451365813091606 -0.014799149533400115 0.007626802565606788 0.005728461046365041 0.005298700028398343 0.013566831267831893 0.02346775099726064 0.017200900154096296 -0.0008325252457082713 -0.010918858172713148 0.002710508504219761 -0.02052211611783296 0.0018169574561692314 0.0059636117308743955 0.007309106356366455 0.020880128426590146 -0.004572714936096354 -0.012747243783453092 -0.01391875381449112 -0.023164736189629942 0.007989256207108393 0.007238524968028591 0.0025623227535349446 -0.0004934413602029624 -0.002414306942758406 -0.0025086147059794335 -0.013064000477784079 -0.01217495997581354 0.0010591245053053304 -0.010628421970612664 -0.014760569460397705 -0.01230141805558642 0.00285644254786004 0.02701345442917595 0.039753373580993116 0.007022425439838932 -0.004837636349567652 -0.02447448654656564 0.0021958406991161336 -0.0022942124786266534 -0.02459635208416684 -0.01291756106612773 0.03607204322953069 0.028120931054462284 0.0023232443615334867 -0.0010067723155326302 -0.0015488457651442735 -0.02444488886776451 -0.010465062689105116 -0.0002048268371456188 -0.006314245133341761 -0.004894925982066475 -0.00747985760263914 -0.005016035583475643 -0.003405108677784296 -0.013965606351108722 -0.02542254950703908 -0.02134684668585241 -0.016817000606281152 -0.009788406741956326 0.008192357787938495 0.013763430382607217 -0.006717178407669379 -0.00889083793248753 -0.033924373528678456 0.00020255807470315266 0.0007440555353071258 -0.022797751390768336 -0.010656008466703892 0.03544221461611443 0.027770436934627198 0.006430794705320344 0.004539418355968916 0.0061973581957871695 0.0034611808021694666 -0.03052279953107881 -0.0019649280466653906 0.006042648485521763 0.013670021261139398 0.009878179588501523 0.0037650932973504457 0.011497886448032223 0.023913918274615628 -0.02029231895239607 -0.013888432395139653 -0.012618023370235728 -0.008751630646679151 -0.0002246096001473256 0.005425126346912263 -0.004707043871953209 -0.0028732031236019546 -0.020614368284807793 0.017435692758912717 -0.017613928111054705 -0.01173201780327798 -0.01869550049378172 -0.009036141003999248 -0.0077870017266812065 -0.007714971190316968 -0.0023581578858338165 0.02095983372625714 0.009460483178653821 -0.025303612597416782 4.027184752116445e-06 0.009997691213052644 0.014925904394692213 0.013021535122599195 0.007693504460317198 0.01476765343913113 0.023456882661493022 -0.0005199696898403782 -0.017675008254366315 -0.011441264254036989 -0.011162161584043992 -0.00945887279067107 -0.0016968485299282106 0.01938730515969257 -0.0008151459160200346 -0.017871628758086438 0.030836430983980312 -0.014866450626853371 -0.012901707048545073 -0.02141975991011766 -0.011826693508084506 -0.007440428062194189 -0.008316541282853241 -0.0027656199418493715 0.0189527873637678 0.006420485851526821 -0.01776189440966979 -0.012688923718859043 -0.018686104266241167 -0.025307839577383806 -0.018008221896551133 -0.009406205657798017 -0.0077598982121023004 0.008010156887599033 0.009941699128764829 -0.007482960530742746 -0.011147601167517092 -0.00999338260864786 -0.009414919789198742 -0.004155413258170025 0.0157720534589089 -0.004993021084769581 -0.017372723508390638 -0.008309625131645834 0.003875298034267122 0.0106822651183903 0.0035532642390621607 -0.01791065089060353 0.014794051562580271 0.03901894883805974 0.011203420960640009 0.013537873974434754 0.008887345635397713 -0.01549375954832035 -0.01037453671533064 -0.019290863561429523 -0.025309916402226455 -0.018700029583091485 -0.009265241606968342 -0.005573774669162114 0.011424708363462058 0.008976435073468072 0.0026866205978018213 -0.011485408589471079 -0.014083521815713033 -0.0202638115715628 -0.029104761228519033 -0.009176081847648836 0.011887118888546867 0.02697014024483043 -0.02555285277530405 -0.0007425757738552888 0.005660296545909686 0.0016432406446668143 -0.018470701459748304 -0.008768125459011917 0.018366534505891905 -0.004364255879081972 0.00021445354847688097 0.05047626468413206 0.026339133275562584 0.020814709231817632 0.01015073685999643 -0.00975369800108808 -0.018523207718010026 -0.013932409887820432 0.0008263164894792513 0.00823780986796255 -0.006599542428017588 -9.397667743448227e-05 -0.011027664851767831 -0.010084011915929702 -0.020456414719842966 -0.03567993243059142 -0.0184801312214939 -0.0011662425045193903 0.006743504777774273 0.015405032523426487 0.0035358198525393338 -0.008846615661090752 -0.012601050970612414 -0.012799340153087601 -0.021402167386989163 -0.008550967957584046 0.0019705305117445724 0.003514566546351962 0.05251422324474423 0.04166306464180533 0.03178896071252873 0.018047104841705245 -0.010230581863096952 -0.014142906578445571 -0.010007269348018771 0.004087054184460401 0.013252736011205435 -0.011575504938677787 0.001531309683887924 0.005161288105946861 0.00621021612041393 0.014740862386080312 -0.00388613073923784 -0.016017155389552274 -0.009163865871194169 -0.01671576622987214 0.013346274230138747 0.0070819934114169725 -0.003578591124071493 -0.009250610377370986 -0.0067088353661366685 -0.017235426243199153 -0.012450455003474763 -0.0037740464826357427 0.004067683272832715 0.0036390857492282266 -0.0033431126288068903 -0.00469698937418785 -0.009988656701552754 -0.01502754210869455 -0.026093620911540685 -0.008787740123950376 -0.0018240785797584852 -0.0039013798797542234 -0.013133045979528178 0.010068758529602104 0.007629045004508413 0.010334291473891023 0.029264911416274075 0.010219790103697174 -0.007435326613550717 -0.00780025309836379 -0.01761672826813127 0.01778131549336085 0.011568844984506893 0.004631899569563456 0.000978622346005128 0.003614946478747182 0.0057991913501237256 -0.008112556881831963 -0.008423894027655076 0.004388713380915 0.009805419101700944 -0.006293007152004564 -0.0025965236533607035 -0.007049590511182579 0.0018265560382868587 -0.009997536324799506 -0.0023097768130389933 0.0005312272633370512 0.010742404196164162 0.004085048510942631 0.002973755387059332 -0.005469315021329617 -0.012471966167212098 0.0018147858984308802 -0.00520561938119531 -0.005872813605264183 0.0008597582863013601 0.011538185537713505 -0.022134687562844348 -0.006693451744959282 0.010998963743002244 0.009182557744263714 0.0117014811610185 0.006099584849199473 -0.0013107977912513388 -0.000283057572722627 -0.009239323319715378 -0.016156108139480683 -0.016822600686112067 -0.016419714963775332 -0.00320797356586963 0.023923849082636697 0.02797712233377007 -0.0017600652454572274 -0.005993406020545184 -0.02310776962389486 0.0028946748017841047 -0.00644388961146364 -0.010647649924307537 -0.015181064176728626 -0.008792057796112447 0.010273416462247227 0.0008905268756995743 -0.0013600400735927073 -0.009256486503449377 -0.020779663044968793 -0.0009496122094138033 -0.009325822246821412 -0.008378047904484874 -0.0025798287529246993 0.0021543079188564044 -0.008438170226491784 -0.0004585126214808011 -0.00396589767742696 -0.02540393415876414 -0.015129416066974748 -0.018833898765678456 -0.009600618353484183 0.008393522371942347 0.013676515920772812 -0.003318081003004422 -0.003269241993410752 -0.02039979381895004 0.029024756031009746 -0.01255989331695679 -0.008491042994329312 -0.013903890576419572 -0.0014899657459878654 -0.005973953078880991 -0.007197253247364635 -0.0003734279924354357 0.03886389368631958 -0.018117526591005836 -0.0013051876575717568 -0.006756263617940466 -0.01260019892858643 -0.009885865147323982 0.0025832644902347114 -0.008526444463943544 -0.0017792372466731228 -0.002493284562714243 0.0343332258840227 0.008791202904739179 -0.0006847601596019446 -0.0006800651383747887 0.004465389299175333 -0.001338563969263025 -0.012768016829015473 -0.010582076049717098 0.012874705327342223 0.022292052619055328 -0.014934844057231143 -0.012856145560490547 -0.020016231648200315 -0.013664707331834012 -0.010579128449188468 -0.009866147247583518 -0.0021816929356356938 0.016616228983232947 -0.0029255914397568407 -0.022588785088437605 -0.012590594590330018 -0.018213057852468684 -0.02591222945862085 -0.023208097651724175 -0.009909990480980164 -0.0037719681965825815 0.009219481900517327 0.029153223455852594 0.0034099136383636294 -0.004613851964598038 -0.0068223475148397345 0.005468342639209176 0.004800737567875383 -0.013781223491136923 -0.013352478056271605 0.007670951342033092 0.032791261564242856 0.005839226448290309 -1.9000821765741637e-05 -0.002661343857414159 0.002928626991005869 -0.004616162635346885 -0.008742767947217704 -0.006996951774968481 0.02880981130162097 -0.002128801536728463 -0.02051315591351128 -0.013521200731011127 -0.02029630219976026 -0.02477884784659596 -0.020539911567724268 -0.009601542108097627 -0.0029753246416766173 0.005222281209181265 0.007205011335270954 0.00413075521303732 -0.011222578515938416 -0.013177315714427417 -0.02022926168882751 -0.036357876989569174 -0.01423369553479316 0.006594311875235562 0.015754062460494274 0.01709468191038666 -0.000963441200742125 0.0008576248912103856 0.00036531094465768176 0.015543829277485198 0.006030022342579246 -0.0027641727817610336 -0.0005411432268565307 0.024514001205139795 0.021329650454747138 0.020945899874675433 0.01258110740067163 -0.006602587109007631 0.018452425594639606 0.00497855134990398 -0.0010597664501578801 0.004073053758568256 0.025031221739534624 0.0001113451683009796 0.004825008868573976 -0.009941025554156735 -0.009758536294494424 -0.019031104775830684 -0.038850613341328166 -0.01935841865692039 -0.0006246747992936174 0.0076391179364819276 0.008326072374841596 0.003789962439727788 -0.007471601673692987 -0.011433780692877996 -0.00893180338915253 -0.020866951134653453 -0.007253337330421182 0.006073237699780779 -0.002095199340550695 0.009111333751776102 0.016397034447810543 0.013755077608267427 -0.0008710172183131967 0.01258106115984973 -0.004382846327872915 -0.006316977350244557 -0.006931117101547652 0.006843313581272032 -0.0069770143430688885 0.017809194692274755 0.00431330228884009 -0.00241166572339812 0.015161172536302276 0.013652121469128755 -0.012292343444457452 -0.013539943591927403 0.012863323139525583 0.0198671561512756 0.012883635120326673 0.0016375638464107736 -0.004416655808764849 0.0034080172431523283 -0.01234630103429988 -0.008830391462104301 0.006209365748633599 0.0123316514851037 0.0022866031265182806 -0.0026056651629151177 -0.00160663802984178 -0.0046677717917268545 -0.0007883877581863484 -0.0167642211297163 -0.004533163345728954 0.002502634877072845 0.00035914166673865094 0.004897442866573 0.02994228462184928 0.006788418409145907 -0.0011502960317782219 0.019037404775735116 0.018871009451939716 -0.007075571815880336 -0.008676343853750589 0.020943984513407156 -0.022314389504580517 -0.007953516982709444 -0.002422413256047051 -0.004765490980090416 -0.009444828061111122 -0.018978317661782776 -0.014264929030364097 0.0009564306524475518 -0.0019760352216118197 0.008083827202702834 -0.007743402343273087 -0.004927194013835218 -0.0054498423162663125 0.011895317430534293 -0.005950782336310957 -0.002059380607195016 0.004024190839023382 0.011389639004471045 0.0043959525034032885 0.0027042664247625887 -0.003835234463410568 -0.009957780166077458 0.011450957789488457 0.005596145777083826 -0.004376029661313141 0.0014556887792043743 0.008580743658375849 -0.01921027093648881 -0.006358277471495082 0.0009122520098107704 0.0010820098601704207 -0.0008739698456161733 -0.015727019794163695 -0.012845181896473516 0.0016678393275283679 0.0028479263308454116 0.011216057801199698 0.012867822846931212 0.0042847633487525984 -0.01015728267873614 -0.00014661336920467971 0.0058818989410249255 0.0028095231939975073 -0.0023385574984661774 0.00954496380796015 -0.0036132241658513066 -0.008292757729321793 -0.012023561864797175 -0.01959663273926121 -0.01461526080166398 0.008215511837594534 0.0042306240264233675 -0.0030516465179017353 -0.015585131804527091 -0.03205979933411944 -0.012335925642443044 -0.013006797582828581 -0.0069561371889878204 0.002866743728810839 0.008757615706906486 -0.004213362145775355 0.005738324661475637 -0.0026559884948535767 -0.012776067210636996 -0.005666421572154986 -0.006250274098742324 0.0034659000742074224 0.017131027527625933 0.014769839229225066 0.007052630768116121 0.00037385951365696975 -0.0060536739269548365 -0.005374517764585264 -0.016343941209119396 -0.012671073924493523 -0.0005324904351578523 0.006709263036670303 0.014565150685341036 0.005029091979521567 -0.002108312556339544 -0.0048608277883569785 -0.03526524280308501 -0.01751963312145106 -0.01212266712737662 -0.012757939612300232 -0.006526877204498842 0.0035156240859176655 -0.0074822667127383315 -0.0010020642292326433 -0.006987458565598887 0.01989741002745683 0.001026261068515231 -0.0018918918825537971 -0.0021590037331192346 0.0006645250217895094 -0.005267841405613497 -0.01505969524997029 -0.01489841906681683 0.01837973238040629 -0.015527226363517135 -0.013959029425776155 -0.008697779084622392 -0.005026897633248902 -0.00023980738082011747 0.009794891435656775 -0.0004915292688987722 -0.0019205820165217231 -0.0063760019950348705 0.03118434214670898 -0.01342277650325774 -0.016383732804988237 -0.006129767412159195 0.012630562818716239 0.02083532141347808 0.0026961600771534013 -0.005735020049495929 0.004307540291638019 0.0018285639873229192 -0.008325749231684694 -0.009482695262739824 -0.01175349453475275 -0.001103660563408406 -0.004639758672754193 -0.019137240145194752 -0.01930887395233994 -0.0046694504048663404 0.012767813942680943 -0.009207175305630545 -0.006872540696569904 -0.008073592306145844 -0.006990015255997464 -0.01344351252110429 -0.014165747361935337 -0.013714835915249662 0.015220741836263447 0.02205191860037521 -0.023560955847107386 -0.024305413244915072 -0.019323037283124383 0.0009390027320674405 0.01655969857147378 -0.002739770089737317 -0.010004989533540466 -0.00029747791794588075 0.059798420058440487 0.015100054248811182 -0.007371531700023627 -0.015933944715796004 -0.01928939222628645 -0.013919027954808455 -0.016449295098910223 -0.005533806911288717 0.022599360632489157 -0.004429831910164681 -0.012561459027702906 -0.005683534247090443 -0.005793889487742074 0.0008320944919480685 -0.007584362191592778 -0.010104491312450723 -0.006458405332955754 0.012313882611657096 0.0045719313728421335 0.010141822732017317 0.006371897387780842 -0.012106848612867394 0.00263970078088049 -0.0066461080973052285 -0.007089981237084736 -0.002571383837760052 0.009516467719054792 0.05432578330425757 0.02229104122468263 -0.0022849473368082513 -0.010529582400694319 -0.012834048345367987 -0.009031577263555 -0.014251506219154896 -0.004297581750205416 0.017937673662859296 0.036861936016518125 0.03239341397986812 0.0063880925778963486 -0.0036531903749565026 -0.030933745278355247 -0.025899828061904218 -0.004048391150621694 0.00870909878652089 0.023403178817179952 0.0073539263457880364 0.015750704395895508 0.013727897694669228 -0.0020242065503915845 0.005091380868391151 -0.009154703872848207 -0.006465510555612733 -0.00482897167966812 0.008742519243841024 -0.031243740073226046 0.0028033868946684445 -9.527954046800605e-06 -0.0036682335601242243 0.010694813994866657 0.010260877062528815 -0.013356147833077191 -0.016752791106945122 -0.00378822576371217 0.024097498065716934 0.03456441661744051 0.011022828094780415 -0.001392746465068352 -0.02724997417709788 -0.02829867975377581 -0.006536416069414635 0.005698914589698684 0.011630122891957431 0.009088981247437651 -0.011736042269447048 -0.01691571168066197 -0.008794606478581638 0.02186729160288028 0.017402527152751455 -0.008945113454665454 -0.008605957794796894 -0.0036150609831965856 -0.015306020334578526 0.025062252822394288 0.0059178928591487705 -0.00020100035369073477 0.02058293296531296 0.020848831424520393 -0.008994606867079258 -0.011347067174809905 0.0074438952234028785 -0.039122624893333784 -0.01978664977863766 -0.004766674111156573 -0.0019460712132926949 -0.007835457000927791 -0.017669527758507966 -0.011362504648328843 0.0003264358488162197 -0.011767859402841467 0.021609760323014135 -0.008418856863114735 -0.012498472157158803 -0.003538100003237796 0.027209341358604294 0.026085099231656028 -0.004723517062652083 -0.009208539787185218 -0.0015665105046167318 0.0008718205339333649 -0.012425389773775327 -0.0019247512941276386 -0.0026002268258276135 0.018546706053403007 0.010285675579142674 -0.015462403893578466 -0.010242699881667814 0.0038133238935104128 -0.031765556210943235 -0.020032208976727743 0.0012547963193722755 0.008104698639826186 -0.002341640862814225 -0.015622253235043756 -0.011316519455725406 -0.0002473297945823663 -0.004401601765749295 0.0074417841965841065 0.009082989551582595 0.003513026280885826 -0.01001325068777281 -0.0014852743087221832 -0.0003110481887646596 0.0005297391609118902 -0.0022268619190325225 0.004855426225288905 0.01548158835495036 -0.019676972296903423 -0.01213538507809688 -0.002187658756983462 0.02339965385604089 0.008412279509719461 -0.015839435958689568 -0.011686044031417646 0.010037922732998953 -0.00982516423615336 0.010718560218860532 0.013419866132829347 0.0016866206132474238 0.011233533222848712 0.027927692557701035 -0.0009487651331397559 -0.00494732933024102 -0.0019999083923266723 -0.019923566454672546 -0.0029593620650297204 0.0008402279318036397 0.009271362591188714 0.017260638452495983 0.010828678499958421 0.007047457693216706 0.00022043493297956926 -0.00878073043195105 -0.005950570786943734 -0.014597211678941074 -0.00911138832645923 0.002928931425610381 0.004653051622964283 0.009456171509144028 -0.0014064160877613875 -0.011954506081018184 -0.013540227306343357 -0.0029950433184467106 -0.004875021610792433 -0.003907407129770632 -0.004894372436755006 -0.0017685343864423297 0.004889614694851992 0.0005142273725620243 -0.004858104834411341 -0.006412730199972186 -0.012447191714806755 -0.021882382725265374 -0.010921669138431362 0.008440946422970993 0.03526675888172783 0.025924383502491995 0.001958411514866106 -0.01613695185836488 -0.005714931028336994 -0.02165593039793197 -0.01800267267051114 -0.010566946605959282 -0.007174039168295455 -0.0066605299531198045 0.0032961942906759617 -0.0037339456569739325 -0.004943650452424467 -0.009036678480282964 0.020235532558358103 -0.02937132275438959 -0.020943138101819553 -0.007379581505380015 0.005450871559521041 0.013364971236196893 -0.003225619407924892 -0.01319869779935585 -0.0028311755558485608 -0.022672289327569248 -0.021949078457190754 -0.0138429937752256 -0.0009630520462544383 0.008809990149300275 0.009920983059685874 -0.0015649322412696815 -0.01391632715377181 -0.01154319920278044 0.008197663842159579 0.018564788056252973 0.02017381550576269 0.01799927895580333 0.01817102002292065 0.03059797836038329 0.007664796639151589 -0.003739328934673115 -0.019620701876273666 0.006432961885706927 -0.03407419981189664 -0.026097858375159547 -0.01828110627668997 -0.0053158370820299465 0.005159022858377268 -0.009496166728823299 -0.017168015340315555 -0.012610646232616068 0.039061181969257945 0.001796002578157413 -0.011405560772299443 -0.01731569816335268 -0.02103161804857455 -0.018315929077663773 -0.019515708659829555 -0.011009619555923425 0.0161280851118843 0.0026505833300258454 0.004795769300270682 0.0037476694154074527 -0.005975750153457928 -0.002787044091662688 0.011750797096228319 -0.005124107915303909 -0.011010698774481931 -0.01742431132295062 0.03228921728761954 -0.0014675886069918315 0.004730369871769556 -0.0013546462809054995 -0.009741959461347184 -0.01586675460850663 0.0009760518638107842 0.009533874559580345 0.0261068087922874 0.029442818669668 0.002349584408080003 -0.010859677971805058 -0.01621791341883788 -0.020123159739579337 -0.017191006031640508 -0.01827181908501775 -0.0064223118786348714 0.013359378782630632 0.0148056331613154 0.022339007916779674 0.0022389512405870905 -0.008370617643280544 -0.034385051303874994 -0.031223668756101487 -0.008820528473382097 0.0027206810174430075 0.00924804296012568 0.028093026747812798 0.003078968072194647 0.004044627627405959 -0.00033526000447077996 -0.003493776059020263 -0.012706192722393279 -0.0027963431691548327 0.005958416953463285 0.015688898400467055 0.06016542977994197 0.03220983984797574 0.007644549687139342 -0.002818110437778593 -0.016079897651525454 -0.028486609258734495 -0.004745122357138278 0.01609699980482643 0.01684295528500372 0.012193869768311764 0.027362051271437194 0.006867851226487402 -0.006212641369390097 -0.030905051996163446 -0.03184079528713076 -0.009825644417578442 0.0020882302072052494 0.004064233077466287 -0.00476864124258842 -0.02700402053666312 -0.02623709880896654 -0.016201968664460588 0.00917861558629944 0.005362596137783726 -0.012364688551130718 -0.014138957293627052 -0.013543285666736531 0.0598466596868013 0.036233910028528236 0.011813542206287454 0.0027755434336148104 -0.00967595907671568 -0.023768374759737348 -0.004738542341500156 0.014915325621527023 0.014375304610373299 0.0014772709989822564 0.0007574013685438753 0.003270341865370657 0.004208047449770011 -0.010098125924262309 0.013533828902062613 -0.0025155660426138815 0.005423741773173434 0.008714015141395031 0.010419783685411067 -0.018851939423641995 -0.020335732623423926 -0.007914470436255492 0.020144784433244592 0.019697879627109352 -0.006342508859013962 -0.013695911761324096 -0.00982429506532628 -0.007099935669678112 -0.024121582585030388 -0.016890955388822248 -0.00916022780102407 0.00796621097060658 0.0033526659033080606 -0.018122652741530035 -0.013619919728185327 -0.00039887969413724864 0.018031102716755273 0.0069753835800641555 0.011883071298515428 0.012372230476465471 0.0020567612637337903 0.03284287337414806 0.0049165385174219315 0.010594910353430475 0.005791637942328228 -0.018757940334071087 0.0002763232550738259 -0.00401113469635929 0.008988857112384346 -0.0023602197317365774 0.022039585052896566 0.0016261511507950754 -0.0071721982494601325 -0.004782874490934592 0.01114238853509918 -0.024173090595407662 -0.018858812288708088 -0.0085945662093092 0.016542760162521066 -0.00046992897580348743 -0.02027949452729269 -0.016837798122205865 0.004204687993813205 -0.01252190847488007 0.006937255067539285 0.007914215127648326 -0.002475109730501551 0.0028195389370541074 0.02026633962873699 -1.7279412772087827e-05 -0.00465297204436086 -0.0029088297627765827 -0.011414574069008036 0.0009147673619071058 -0.0017187813019627874 0.014162923678673934 0.013537248606742668 0.03446590042024461 0.007774571799730569 -0.0037738893878433155 0.0018983078845450714 -0.016446868587710987 -0.007477633137351596 -0.008763927326796088 -0.0045311714545698215 -0.001932873938247919 0.02918579802379657 -0.002377014134859742 0.0029705344276219725 -0.0025280815202584116 -0.0001343546761007053 -0.006358591860711912 -0.0038110431676603488 -0.006085188247278849 -0.001314053696223451 0.0004710207739675906 0.0005029370902483234 -0.003038032017940044 -0.007507475786994914 -0.01750622533143391 -0.02149823442026697 -0.006193489035960861 0.00478496187403157 0.02242480231034476 0.011701752832699627 -0.002453013664349229 -0.014633007965110266 -0.005118305357631539 -0.01650947867212298 -0.008938175065417902 0.00843969565378982 0.0037769567817394056 0.013387950532499849 0.02916230608114736 -0.008739245615126916 -0.004196249967110904 -0.003260705080349397 0.012719398833133035 -1.5587388839904297e-05 0.0037427109332200405 -0.004221735167875715 0.009149466901485586 0.03621079858591268 0.013214390519543609 0.001774359562753127 -0.010898101544324745 -0.030254576284684326 -0.027875719531014625 -0.013410085153290079 -0.006186018185675058 -0.004126773676986183 -0.004699976677780762 -0.007104945973760667 -0.016271763884973582 -0.012307874704012223 0.010291902124953822 0.008831890411527763 0.012945020059138904 0.012061543049200053 0.015261295338386938 0.0243432368291856 0.001551659560252703 -0.01264062655316936 -0.030910851359772146 -0.00755238104069288 -0.015381165204229134 -0.00906582706896528 -0.008974169460155995 0.011414748331848612 0.02793355867905167 0.0011820585903442734 -0.007868837164040295 -0.015278732057559323 -0.026412967150715803 0.0034729534147159955 0.014003359265675785 -0.00562930874893148 0.01474703807937632 0.03634237304979456 0.015126637325033781 0.003096876750312049 -0.016310565793706107 0.0019298948213053613 0.003861847674012141 0.0040674058003267325 -0.005144962956334815 0.0007299383925776944 0.01173156809840291 -0.0038668620594841624 -0.016727830232140087 -0.029075239348017916 0.03734942948023268 -0.0021597555261817815 0.0032695093014062497 -0.0024654595061884125 -0.007631919800739203 -0.015846595847037 -0.0009318250861508687 0.007639430244926966 0.02793540667801357 -0.02463706537143605 -0.0018939136500588786 0.002796178321170876 -0.013273858279419157 0.00333064398008055 0.0198219924734582 0.004502175294415724 -0.003973345120097913 -0.020563086808641648 -0.01320694519303721 0.0055846896318427555 0.011460681273426138 0.005512973392780787 0.03211466627459139 0.029405646294730813 0.0019298846566429993 0.0001850369702977506 -0.014467025033076356 0.028429298248411162 0.0007648824071481606 0.0013730966446099042 -0.0027286288543117458 -0.004764821925097829 -0.012802033109429052 -0.004420189435166368 0.004784934884910789 0.017520473317594928 0.06026568929345446 0.03192497688194848 0.0031406937235288973 -0.006017683365035213 -0.013807142002520348 -0.023359352851161592 -0.009531787881589466 0.012785872874953592 0.01295669901674429 -0.015911635183657496 0.0040282717243889325 0.009237289183811214 0.005323044923699087 0.026204151518237632 0.02346812687001026 -0.00041612561829861466 -0.0009539019564607553 -0.015851204308002634 -0.0025132824912409246 0.002509741930003396 0.0063789662684066864 0.006297297750316256 0.026990587408531004 0.011444492219374483 0.005655770698769376 0.005602323225310697 -0.010449224024860317 0.07191091195954831 0.03788780133902919 0.00455583669401227 -0.002318424479644715 -0.008990401536757602 -0.020752067263885468 -0.007309338012207106 0.0166882417342614 0.01843931930178218 0.001587497051750978 -0.008204674479483599 -0.0016484888086122868 0.0009403944544945491 0.00037964782496895837 0.016046254267009636 -0.0060913733889737965 0.004466967505129407 0.00959562961329519 -0.004503231158484146 0.0021034985347506943 0.008015405988772727 0.011200078478527132 0.03222501462557574 0.014339117269168236 0.007360589564452281 0.0058989234578575404 -0.010561860228132826 -0.025641951294918364 -0.009155253361781482 0.0005018586770021103 0.009644916162197517 -0.016368784401722392 -0.01990670284443672 -0.015906303667712486 -0.01683888233173882 -0.010691805273789505 0.023239270277173513 -0.00182196225420856 0.0054613055999961765 0.007712973741400384 0.010015460175794078 0.03595604980368361 0.0035749409700868277 0.013979741163714664 0.016718515105270466 -0.018646984860555774 -0.0009142290735757845 -0.006931731783613719 0.00241398095626108 0.003303996759599339 0.029719885219710824 0.0027042513610937157 -0.007638041989755038 -0.0029669573028452078 -0.026703069674601076 -0.006634022264074114 0.0070001393955507535 0.02418281743141371 0.004365514731037322 0.00018818177784276692 -0.005641392041382038 -0.016709896767317028 -0.006868828324271718 -0.025657037930876453 -0.0016223118148078733 -0.002581000696335893 -0.01767352097130918 -0.011776241269040581 0.0034826169003173884 -0.00290286894749914 -0.01212136323980826 -0.02035817585487697 -0.017383705144004006 -0.0012286163462244084 -0.00296520786091003 0.015016511659332599 0.02286400277342578 0.03877736852681296 0.0033157475169926917 -0.007749073388026985 -0.002986990865156786 -0.015846630978963643 -0.007747696601851677 -0.008608008449103987 -0.0062795558797806746 0.002050034954103122 0.03302520629675305 -0.007867299212214619 0.0014698106062078417 -0.0032601313889043535 -0.024454343885898636 0.003635638266088117 0.0004970187210352156 -0.011629637206736685 0.0033182378076595537 0.015247631087025567 0.005667098303678389 -0.009565734679038079 -0.019158241504031805 -0.012655159845045146 -0.010926068233543603 -0.009233799848600559 -0.013334648899654536 0.002905112484613002 0.010541149419050816 -0.0013381442274831622 -0.007609303872437838 -0.0009247989933471279 -0.013519398868985425 -0.0051567104248119045 0.006847290106486862 -0.0014788494641778673 0.009416019203023972 0.02170039868673741 -0.018975942485071975 -0.008405766843397515 -0.0012100897932271148 0.003976910388504149 -0.0048933618428406295 -0.0018232419205910415 -0.005572514680758872 0.010119191740345677 0.026874134173419505 0.0003034918363477994 -0.006564087992763581 -0.016267870087197343 -0.018099189973851217 -0.009411887149878426 0.00013015675331104257 0.0010838198940268634 0.007695209383203807 0.020050259320161766 -0.01093268307199 -0.007083723613147948 2.922816775406029e-05 0.018527743935376026 0.01699082473747495 0.017481186210272642 -0.0021577123410582606 -0.007065714606238111 0.004677942748835773 -0.009013248857309955 -0.002679655087107227 0.003686665624959379 0.0004929766610031617 -0.013051256630041592 -0.009998629114871963 -0.01139948792867138 0.008826188513070363 0.023946832646200573 -0.0010176316913675884 -0.005173499897542067 -0.0131854912092107 -0.026905731156036956 0.00603988236027036 0.02351786662361034 -0.0033961428678449565 0.01987158237203645 0.04506880687837015 0.02511688181910242 0.015049756564981967 -0.009184852587685316 0.01242736961173412 0.006335025816136122 0.005676035462634554 -0.0016620210751397703 -0.00022988378610700423 0.014423061599945103 -0.004170507474560676 -0.0037470564508638917 -0.0032086914004197708 -0.023921782364456502 -0.00717412714521158 -0.004917439511076817 -0.017555612667794495 -0.005465341736836739 0.012366885440824435 -0.009300553043403994 -0.011704052119592332 -0.01378691465854399 -0.025189356348591645 0.002375203085987634 0.009764577652049251 -0.015252078556095967 0.00596613752579588 0.030511714211865458 0.013572981796238358 0.004466693593164558 -0.015298378292938265 0.004499408300667527 0.02992506498060933 0.025608030986553346 0.015877742483336305 0.05653629374528363 0.05045561615661108 0.00686566711605421 0.005212499735351689 -0.0027142528911359583 -0.03390274007265999 -0.013821139952807225 -0.013390515428352597 -0.019190588245942917 -0.0073598714178546255 0.010101062293940756 -0.014894889502378848 -0.016616546500876038 -0.017700700835387866 -0.04101814398244269 -0.012371767863947175 -0.010318601150222617 -0.018857626118297013 -0.008800555221417686 0.0011058699724668815 -0.01422580276496203 -0.017243521263174334 -0.023692583305270944 0.0008412779707700605 0.023079218629143538 0.019600010137478283 0.009438036472227575 0.04341747064691186 0.04072034980321235 0.0020764051192889077 0.001565047193466141 -0.0032468764845327474 0.015743378571941174 0.013499542559762602 0.01497704136908062 0.02027885485152015 0.057535483710162476 0.022390079940219753 0.015353863756405864 0.02297925445674197 0.006937765653150752 -0.036126347652648994 -0.012224991142489322 -0.012252692704729756 -0.016714917499588748 -0.0031477017745094185 0.004820277843519994 -0.01399536095770218 -0.017770791049037293 -0.022136026986329087 -0.03143599571311616 -0.013734080069487002 -0.012474744329620311 -0.02073872983978748 -0.021483146902826822 -0.00895012556488419 -0.015125622906017702 -0.011703781783852268 -0.027782588709733737 0.026134412547507545 0.02127683852185503 0.02653401960464227 0.03822435438644027 0.0763380455451683 0.0383430476443246 0.027864618827068893 0.03713326034739354 0.016934760135741217 -0.023477049596610712 -0.005377278416021221 0.006139502375025804 0.031104904153965333 0.00468667701146854 -0.007448074269568621 -0.013984058565483914 -0.01510160838650484 -0.0073794889351897494 -0.028140693221104317 -0.010359969519893347 -0.005335666508302949 -0.012690618936992368 -0.01053441205197419 0.004253573399325355 -0.008935942176182264 -0.008128473114519126 -0.028100806785094183 -0.023272422017699728 -0.01285972220731989 -0.006638048378140339 -0.015925441858018134 -0.01059157763222204 -0.006117345708978719 -0.009492863727163474 -0.011433146546843806 -0.012472740963577322 -0.017021164335431993 0.006770920131480307 0.026050863727280497 0.05918793261246232 0.034983345280479534 0.021325195290957593 0.0008079284982098775 -0.0026838706576248783 0.00744409121513295 -0.02824929164102097 0.002046907421690943 0.0024539817186063784 -0.00271602380134075 0.00481721072404566 0.02291684359938881 0.017363607591206948 0.0008697929877966215 -0.017852990522931173 -0.0186491343175466 -0.009123480728050729 -0.00039105103573538276 -0.007861086873135373 0.004636505627239227 0.009278244925343246 -0.0010485628284046462 -0.005798379432037204 -0.013700342761264233 -0.007355860428582853 0.0056030085453272205 8.514713277267744e-05 -0.010165556291644345 -0.016160724134416413 0.009245525787099857 -0.0013972171336853211 -0.0008915716182363199 -0.011311926867648684 -0.02062756066779691 0.00937019237646126 0.004507054207992075 -0.002489341883602811 0.0160612492811591 0.03502990603907419 0.025640940111402215 0.006641360843196175 -0.013397251148907947 -0.00046321246043927824 -0.0011569293878718784 -0.0002366418116137211 -0.006441129441740701 0.021405560001562254 0.029443884604302625 0.00896111830403144 -0.0015981219128625463 0.00782886176431037 0.002579392574420551 0.011090930521625065 0.007063460205916618 -0.007821521268066156 -0.02081688392453348 0.012638083335233781 0.0030248613510751943 0.003238517274486092 -0.007045851132321142 -0.012020180863749811 -0.005486529738922072 0.0022113630832163236 0.0012071818812373833 -0.008362830569665717 0.0027387332607716583 9.565212458415465e-05 -0.005600939459887634 -0.010568837048499353 
-1.3366991008461637
0.0 0.0 0.016101775335453823 0.0 0.006653018380984246 0.031052224347279944 0.013375086962626159 0.0 0.0 0.011740724297469996 0.0 0.0 0.0 0.021228766833186925 0.0 0.012578580839097441 0.008350989394420413 0.0 0.013121658474283617 0.0 0.0 0.0 0.020806311554113267 0.0026849961726118335 0.0 0.0 0.0 0.0 0.0 0.0 0.002591738150941267 0.0 0.0 0.0 0.0 0.0 0.0 0.0 0.029540642963152668 0.0 0.014643326108868437 0.0 0.0 0.030196980190065205 0.0 0.0 0.0 0.0 0.0 0.0 0.0 0.0 0.0 0.0 0.0 0.0 0.024364441023552928 0.0 0.0 0.0 0.0 0.0 0.02670537265823697 0.0 0.0 0.0 0.0 0.025474805587750077 0.0 0.0 0.0 0.0 0.0 0.0 0.0 0.0 0.0 0.0 0.0 0.0 0.0 0.0 0.0 0.0 0.0 0.0 0.019526964627299078 0.0 0.0 0.013846563492744254 0.0 0.0 0.02456976735424913 0.0 0.0 0.013669647045939697 0.0 0.0 0.0 0.010193608614951437 0.0 0.008256995809157792 0.010731264171630743 0.019526964627299078 0.006458106575979719 0.006350874271849482 0.014643326108868437 0.0 0.02440583929902642 0.02670537265823697 0.013630735753358405 0.010324215644112376 0.01617963050821508 0.013669647045939697 0.010193608614951437 0.010653771356980611 0.007383640378617308 0.01914940899093069 0.0 0.0 0.0 0.0 0.0 0.0 0.0 0.0 0.0 0.0 0.0 0.0 0.0 0.0 0.0 0.0 0.0 0.0 0.0 0.0 0.0 0.010965694548276693 0.0 0.0 0.0 0.010258248991818736 0.0 0.0 0.0 0.0 0.0 0.0 0.0 0.0 0.0 0.0 0.0 0.0 0.0 0.0 0.0 0.0 0.0 0.0 0.0 0.0 0.0 0.0 0.0 0.0 0.0 0.0 0.0 0.0 0.0 0.0 0.0 0.0 0.0 0.0 0.0 0.0 0.0 0.0 0.0 0.0 0.0 0.0 0.0 0.0 0.0 0.0 0.0 0.0 0.0 0.0 0.0 0.0 0.0 0.0 0.0 0.0 0.0 0.0 0.0 0.0 0.0 0.0 0.0 0.0 0.0 0.0 0.0 0.0 0.0 0.0 0.0 0.0 0.0 0.0 0.0 0.0 0.0 0.0 0.007772631901147859 0.0 0.0 0.0 0.007449094669985276 0.011600553884761288 0.0 0.0 0.0 0.0 0.0 0.0 0.0 0.0 0.0 0.0 0.0 0.0 0.0 0.0 0.0 0.0 0.0 0.0 0.013093004205866695 0.0 0.0 0.0 0.0 0.0 0.0 0.0 0.0 0.0 0.009445177877444425 0.0 0.0 0.0 0.0 0.0 0.008630479628832788 0.0 0.008730603659575424 0.0 0.0 0.0 0.0 0.0 0.0 0.0 0.009192968959556833 0.0 0.0 0.0 0.010227785694553727 0.012547163642492209 0.0 0.0 0.0 0.0 0.0 0.0 0.0 0.0 0.0 0.0 0.0 0.0 0.0 0.0 0.027329996678590485 0.0 0.0 0.0 0.0 0.0 0.0 0.0 0.0 0.0 0.0 0.0 0.0 0.0 0.0 0.0 0.0 0.0 0.0 0.0 0.01529246799261567 0.0 0.0 0.0 0.0 0.0 0.0 0.0 0.0 0.0 0.0 0.0 0.0 0.0 0.0 0.0 0.0 0.0 0.0 0.0 0.0 0.0 0.0 0.0 0.0 0.0 0.0 0.0 0.0 0.0 0.0 0.0 0.0 0.0 0.0 0.0 0.0 0.0 0.0 0.0 0.0 0.0 0.0 0.0 0.0 0.0 0.0 0.0 0.0 0.0 0.0 0.0 0.0 0.0 0.0 0.0 0.0 0.0 0.0 0.009025924122842813 0.0 0.0 0.0 0.0 0.0 0.0 0.0 0.0 0.0031927921357636432 0.0 0.0 0.0 0.0 0.0 0.0 0.0 0.0 0.0 0.0 0.0 0.0 0.0 0.0 0.0 0.0 0.0 0.0 0.0 
