-0.0005587442699057263 0.0015445167013740883 -0.0029125605457365564 -0.011697651463255528 -0.0008145067883355279 0.023241426137241682 0.015741685386800895 -0.0053370583025906405 -0.0025713996921295367 -0.008860356108269322 -0.0030746946170055536 -0.018210145494377435 -0.003636540248087997 0.010228387959894994 0.012190647281481067 0.0060951414075529385 0.013905629376907952 -0.0003210605731840733 0.006266076360211524 0.010135129711148846 -0.009814890051695637 -0.005655619471995896 0.006388044554871903 0.015579572442844726 0.015701030103692528 -0.0005963311841106018 -0.010411944803397142 0.012677116216922973 -0.0034515068051156434 0.004535388853048498 0.012576178673307202 0.009213879289793812 0.013255893691513256 0.013677270541984862 0.005910336569087158 0.0003026862277220499 -0.015506250752482532 -0.004421472032628747 -0.024661874238730595 -0.007700958531627754 0.008427920078426947 0.013681599929544784 0.004207140385337681 0.01046396890964042 -0.00412976438358719 0.022312802304476128 -0.0036571533830699722 0.004188994716117989 0.005548284364820319 0.007321471606720335 0.0242093274955356 0.012958831204294908 0.004113963661964837 0.006041181883702996 0.003361806135594976 -0.010367441232269082 0.00011177795270054581 0.007810082192553534 0.002288990789448486 0.004258097351671152 0.0037950885383366767 -0.0009441941277559457 -0.005910923098066142 0.01465665298953222 -0.004692431063423728 -0.010847655166211044 0.0020130029562383986 0.02152141144767449 0.023609744660043244 0.01038620456889474 0.0018615289171091385 0.0024417137025743423 0.013069623754927677 -0.002262075803679117 0.006060884673933437 0.009421777685109682 0.011316305885064668 0.02215153485243441 0.009079125276312048 0.0004217890656931331 0.0016278458370999394 -0.02996516249966549 -0.01172701065738901 -0.004481871751265512 -0.0010608130418844081 0.013800028545562755 0.026794844627950485 0.014186573884878742 0.006851975675580419 -0.0110697348544839 0.013701255329316726 -0.004163991381345175 -0.010039068138247838 0.0004602145005192386 0.021808652555186287 0.020245961764534158 0.012732166029420292 0.0015969318640013186 0.0007218454459111817 -0.02442500752484153 -0.0141793195481097 -0.009426366583215023 0.007829632145429111 0.020967950638072597 0.03366138150425556 0.016893596143657406 0.0030371993832819435 -0.01194656227398997 -0.028257422766507955 -0.006776622035132046 -0.0013046413594814765 0.0010534429454386646 0.008147369628448219 0.02416845652886074 0.015334910145912012 0.010018455445689104 -0.0088995650591896 0.025390561568042317 -0.010877702297068892 -0.003969891062685404 0.005964144331633378 0.00935863517117606 0.0029813470319638904 0.01037525659224192 0.011177113592374685 0.019971709069281193 -0.02522297627971509 -0.011600877445371605 -0.007287569942058341 0.005742016995463174 0.01980157625940415 0.03107739239565497 0.017923755662059136 0.0023897308045499202 -0.011398313801447029 0.02067010789601295 -0.004440960945617467 -0.007884590410275515 0.00844706006630008 0.02412109359651414 0.02675907281389342 0.011484616710850996 0.0032631484635042133 0.016432257899004904 0.021697241240966152 -0.01598097311643686 -0.009648503391342864 0.001760583256278427 0.0011630975019659498 -0.002321637627612544 0.006735913840873257 0.011387875791068857 0.018907488754823613 0.012357687661494213 -0.004375222724260302 -0.005914605834160034 0.0022913566993204787 0.006156650372471326 0.0023142995063013495 -0.008242782978374276 0.003988040816080999 0.0030053433085698747 0.007875864392270365 -0.008196704552103208 -0.010614170135428378 0.0023564412298301826 0.012757332514109885 0.021332560530598794 0.01766367308889963 0.004448085407408443 0.012977920153177261 0.024618213674168297 0.005893693294373736 -0.010236717003452111 -0.011312321630166152 -0.01422940253039174 0.004680534009764777 -0.004247177322270597 -0.00925169543870592 0.0020252917291522015 0.030410134904904445 0.0021702334922455747 -0.0022610417606033105 0.007366086565931913 0.012133415271363305 0.004430655771697111 -0.008627288242712847 0.0037247185937574353 0.0076660803969388755 -0.013541938964353602 -0.011392243053500742 -0.012292046458350702 0.004088706787919333 0.0042145495096753815 0.01654932843218786 0.0034042916467847766 -0.0002787667292262221 -0.009099045679194628 0.039349080343559446 0.010555747699384922 -0.005084237074081066 -0.004538899483506951 0.00020137171878850928 0.016255568620744933 -0.0015673513313952542 -0.010179334276252325 0.0037776015878207636 -0.01706600878447548 -0.025987299099900312 -0.017084980904667594 -0.0059482035520446765 0.004860170395605011 0.029418038664069335 0.002864505945793658 -0.007505947640845412 -0.018622660037578686 -0.001753704069784233 -0.00458093072945476 -0.0034752363421473535 0.017187884847477946 0.012933767603749261 0.026965177812875094 0.00877637129739624 0.005006325763600584 -0.006009938660983774 0.01741486858422596 -0.014575237970743298 0.0025899905972178307 0.0102589033358365 0.004592274998838297 0.0037968606361178073 0.0019530806214204497 0.006057929165071307 0.008164474413000158 0.001233660449583492 -0.010615792475292683 -0.00468888874459164 0.004331849306301991 0.012790234457948297 0.03383452207686206 0.006200363734151044 0.0007415298661058727 -0.008206879459979092 -0.023447651697072202 0.008558285507040466 0.010444220058636265 0.007201020680791893 0.014308614291153994 0.019283563095374916 -6.218571546382729e-05 0.001542269941598529 -0.012401648018809499 -0.00878845152083283 0.004016601547442099 -0.017749746666207895 -0.01160883196836485 0.0033792688525651673 0.01221265011255547 0.014120279303443803 -0.002453890311459688 -0.01519378584842754 0.00163600211336287 -0.008504189666134001 -0.0010963090897508929 0.010289026823894728 0.011998529231549305 0.014270604452277548 0.012101604498211687 0.003186949572981726 -0.006425582019066851 0.025433724999321665 0.0058505764583336095 0.005142486853407206 0.0031932684872610167 -0.01105421632359522 -0.01009882412934746 0.0025538763822772984 -0.006441562505843662 -0.009829359286213247 0.014921926021888307 -0.006183425009323892 -0.0017646717585348302 -0.004405376394751875 -0.008793196749078034 0.0022048999310246703 0.007682505665304695 -0.001304502981293086 -0.007351073834127867 0.00165744035292469 -0.009461984018332436 -0.0027374963224640818 0.01038941310997495 0.01318344130594628 0.014739190674300314 0.01063090458533251 0.0018075521544826582 -0.008663708688514018 0.009488529770982246 -0.007042411254725588 -0.014658346359437479 -0.00288034371178779 0.02196465789207546 0.025043515369750916 0.013035329966534106 0.001001529439279183 -0.0007282295545530063 0.010291232840446978 -0.011563398178652658 -0.008145197857864762 -0.006810567370291952 -0.013622826593058612 -0.001032362052503941 0.008472828497264408 -0.0016191720905894592 -0.010107272356195931 -0.0024636570867119815 -0.001640548612911639 -0.00359213127279181 -0.004623251235267194 -0.007083294299106176 -0.004452338977100739 -0.011483581603272518 -0.008522392403329249 -0.0007868508610554522 0.003404447904471959 -0.007272037992277523 -0.012665173544524346 -0.0038047748041764593 0.013503926499034716 0.01380402464746462 0.007620491203317306 -0.001582843890795319 -0.003779487807358118 -0.027461325984042904 -0.014589015972110883 -0.010904296524096623 -0.003390042540881849 0.002976768882200944 0.021083203098660384 0.013310647307345868 0.0013335508863626343 -0.01441587893550646 -0.005347034049383517 -0.005722790017714297 -0.005290574640806881 -0.0053329036922621165 -0.009135255884262868 -0.007330902237231106 -0.014151772003038169 -0.015292670066780202 -0.005098048348498644 0.01811937885290121 0.030503077227364814 0.03131924799363538 0.028379103824404173 0.02577803012981707 0.003339809726558539 -0.005601302596097402 -0.004656075566109095 0.0030929713665301464 -0.035171285736975484 -0.019016084530849672 -0.013573319192951332 -0.005921457976714009 -0.0022382490030435193 0.013477468213911683 0.008782886680299926 -0.003502078211000671 -0.019548325782866235 0.005927478112305868 -0.010869837236512048 -0.011082618447065533 -0.0013201303727108046 0.008707017450908877 0.011561979443606032 0.0005497852078380892 -0.00421233846686829 0.0023535153391393486 0.0004831442850342701 0.02107767952338802 0.03135406397993249 0.027334322495805623 0.020991002557799187 -0.00410358911408102 -0.008582246959048991 -0.010194965749643204 -0.010854835901958872 -0.01431369476385814 -0.003692260756895868 0.012405756871672419 0.02505409179248763 0.025295117910789096 0.04133421942219265 0.04005391466285364 0.010752589844566333 0.003467947445868911 -0.0011039280063850627 -0.0157187309848061 -0.0152871098435548 -0.008397615366191213 0.003939249614273458 0.01156618036306824 0.003039083053154966 -0.002795401488356515 0.00018930426823800413 0.015042553098168298 -0.0017200510940012155 -0.014396036691563295 -0.013219017695870581 -0.009578454777923793 -0.0030355437417638547 -0.012564250766290417 -0.014846567747454588 -0.003237285001449278 -0.00924761093827248 -0.006499823307333611 0.007998344618331833 0.019221870042937305 0.018867495890509903 0.03836158369119086 0.043744602527173646 0.012463412905915601 0.008343502558917804 0.007799320459701521 -0.01037490554406086 -0.00911078490925778 -0.012524691664137149 -0.009535728894485535 -0.0036830323150462054 -0.010935641451715456 -0.01432096245211299 0.000521114314317369 0.03913851624376149 0.009997173452764107 -0.005841520931171173 -0.004226748875623245 0.0011001538901491744 0.011306240822424504 -0.006417006318204217 -0.01189713018874512 0.004310821469214199 -0.01773408801869322 -0.024703981416547265 -0.013932843199633886 -0.003185569066786564 0.0055848888013571105 0.02401106753093364 0.001596946545124403 -0.007174103679579878 -0.016123845175127344 0.03061124898537595 0.0008309794172519343 7.702254846635149e-05 -0.00643385519747463 0.0023733748945990105 0.012054496922515775 0.0030533464968393624 -0.0011266957579968357 0.01871922336895158 -0.007645988840673462 -0.017558933342191163 -0.011552897914117538 -0.0039496574307854955 -0.012005041206544786 -0.0014865150893788722 -0.006222198257099223 -0.0032641962270785786 0.00247711348903286 0.0016202221012465352 -0.01338395768252369 -0.0067338396245485025 0.0057092149499081805 0.01594287820528549 0.03333363577916924 0.009455282903491548 0.0020431563637115613 -0.007436258613477608 -0.023289124694826455 0.01123748399074014 0.011032788097548311 0.006383238758021485 0.01761223663255186 0.025214658473936318 0.004383398133564859 0.004419076979773014 -0.011401266876023504 0.0075286275449391845 -0.004473540687331287 -0.005041165768489635 0.002276849504343731 -0.005877342308819081 0.00700696722271073 0.000528455961965141 0.0043790760521656875 0.02130080950754761 -0.019462308157537377 0.0050500233405274195 -0.006540212950405003 0.01623885561906177 0.009215201681717154 0.009372597371333944 0.010551571991519904 0.0003637857351627031 0.0034501785143934705 0.02614285002064394 0.00583316769925721 0.0038029873427996436 0.003060507062108861 -0.007643876464591659 -0.00819979112141516 0.0016879323602144597 -0.004741152154186531 -0.009089098003467851 0.011844298457993993 -0.005384600106326711 -0.0024426836363294025 -0.002027591800667885 -0.006443930611989047 0.005872104930643185 0.004999310465997564 -0.007277885047846782 -0.015129757454844751 0.010338367032748338 -0.003204279448129029 -0.002749798141776133 -0.008157224987351388 0.006491279114337115 0.0021238433262391857 -0.013058851910784744 -0.008671389286609727 -0.008869119193746607 -0.0043646673372942785 -0.0021705804108288515 -0.027116768176907845 -0.008932819660210577 0.00849554498726837 -0.009234481274552212 0.0008120615976200262 0.0027478117893804262 -0.00616771180885211 0.01933063736812603 -0.004948748046600832 -0.0030897615781192876 0.0010488997227232825 0.0020477478393566674 0.015548620503625349 0.008547200432041819 -0.0030959167418207 -0.008668581688620187 0.0006156355899157402 0.0036050062702841093 0.0019062534476141867 0.0048148646381864614 0.0021765571629779037 0.0021354135600365194 -0.005367821327663718 -0.007163374849473046 -0.0012073787140420564 0.008429204722778475 0.0006953136929152741 -0.018659983720015517 -0.004007612894702691 0.011371690904373137 -0.0009744528373429546 0.0056309647187817655 0.005531019542753625 -0.0018517796068643687 -0.02221800697688142 -0.011489388397427296 6.631512590242098e-05 0.002418267056467421 0.016989150440823803 0.012528272465075053 -0.0004994175552527118 -0.012094767796849796 -0.01457272053534827 -0.0006104831933054881 0.0003812623399759201 0.0003275954873135714 -0.0026174485877752617 -0.007832660505008571 -0.0059001906293145966 -0.007714278585168 -0.009500552701735757 7.438454005635905e-05 0.012798577024341107 0.031597089096069675 0.03661360736651608 0.02889332567608028 0.02362210417039042 0.007597742405987872 -0.0031468843729783274 -0.005655394372507544 -0.0007130351346973851 -0.034434454181340654 -0.017001527289579547 -0.007794928713027811 -0.003946301521705002 0.009660431305778988 0.00022415301649763133 -0.008200913608007895 -0.021106463090684677 -0.018518070662718093 0.03067404895407574 0.02046417013610057 -0.00927137142415955 0.015991915133066945 0.010117569135687031 -0.002703767404995365 0.005018232264266437 0.011137062720942989 0.019135070745466096 0.003902639010174242 0.019785131037339986 0.027435576236063183 0.022043219707101182 0.014269554256964058 -0.0032999998211926534 -0.006894133622410603 -0.008207398580456686 -0.007192050604067744 -0.006147787942906803 -0.0018154793371410217 0.014664748227020033 0.02643478724971441 0.025199591519673794 0.032609730902095166 0.03211668635640894 0.008461701227963924 0.006432225641605422 0.018630666201450284 0.012724668205686516 -0.010657546181584805 0.010068912168264034 0.0015043045269556264 -0.011177203712079649 -0.0046859473747129675 -0.0008865470450976094 0.005242196054729681 -0.021472677687936273 -0.001031482414471789 0.0013809255522913037 -0.0016514862694477022 -0.0034451630551311386 0.012720628032113036 0.018765252370491523 -0.0016708020712476613 -0.015071165865616153 0.002676603595578576 -0.0008880776700821221 0.014115611019901044 0.02476041011354004 0.02351614704373847 0.0367131429906167 0.04007971616230261 0.015963086015242104 0.015266144636961998 0.013897408002730448 -0.003393793071920148 -0.00397701450364595 -0.006165879636230768 0.0016549972017495564 0.00506395922380031 -0.008906415613179003 -0.015022499349940651 0.0026848813792267764 -0.017271688313868272 0.0018085897317383756 0.008223768587133614 0.003146141833550083 0.0031232307941134055 0.019335279869041017 0.024449243748440437 -0.0031104589063402502 -0.013747764697254368 -0.012003755765719179 -0.003822042485618864 -0.0005938694542634542 -0.011048455158543826 -0.01206239333473565 -0.013646488721193789 -0.010478050618803504 -0.007099460165505427 0.004049166675069196 0.04007195446236683 0.0014982713870213286 -0.0009610436126032776 -0.0028972670154592504 0.009788376680692405 0.018231002888632324 0.0026022502669641383 -0.0052628529127902585 0.01517317231073135 -0.00939732017365126 -0.012648423873470134 -0.007867331791597989 0.0011190383614228866 -0.0054689921837924454 0.001282516049465182 -0.0065762056035811485 -0.003560255260909292 -0.0013435840175300235 0.009800421853298808 0.00983808756714032 0.006197440309676329 -0.007397881352861468 -0.008949720769296364 -0.00927732316860532 -0.000560914117860516 -0.005544507904410222 0.015473977177880955 -0.008262993888516326 -0.017258633917132837 -0.013375756345562864 -0.0136589896452105 0.015746186677807483 0.011766957811041237 -0.01826201193243192 -0.02448730718435947 -0.020305018868140595 0.009559366773116263 0.0017511822896880743 -0.001446517748407347 0.007318077746452202 0.0009219934279964676 0.010298829968345285 0.0010441856804877443 0.00827534401399522 0.02322178927187346 -0.01206621658621707 0.011565134597041098 -0.0051363402986479125 0.015879372272898706 0.01234311184203693 0.012396633057097733 0.011199964677688558 0.0033455209974342106 0.007914587340791562 0.007650448083009864 -0.006874535703706514 -0.004981342825226439 -0.0037698538608303724 0.02731818496445733 0.021208732955303254 -0.017231512511441664 -0.02137177584842203 -0.011440926866441591 -0.0178735181201221 -0.00924617863872745 0.002902396170674515 0.002790411563595167 -0.012556918574018652 0.00029123327440898567 0.012518611182875053 0.00687460975996677 0.009757041860420862 0.014809311405095702 -0.00045611793114030616 0.00012244267618120972 -0.008484599211183486 0.006077902466735395 0.0018402831756283346 -0.011307585108293319 -0.005895733643979201 -0.005494911594231176 0.004754483383811053 0.00223756133925899 -0.021442982922926436 -0.005989825054468588 0.010130674257477983 -0.008146529037750688 0.0020592047983924583 0.004841643147498706 -0.002695625267136105 -0.002058936397694577 -0.013338723354892279 -0.010847863825514122 -0.0012375762121237064 -0.0007310747632400189 0.006026089513938094 -0.009321633156292027 -0.020488209444095656 -0.01229593707172684 -0.006243071987707531 0.00419047408097893 -0.006132439320916505 0.0040718797996324016 0.012252179798525942 0.0024132446146300085 -0.016753134292789688 -0.009901489265865489 0.001833552331618705 0.00830744185411661 0.005913177865900178 -0.011142959139725708 -0.0010161423251785538 0.01371534611430131 -0.00038012805496673015 0.004504321102629959 0.006263462670370777 -0.0002731385428395598 -0.011030208643232765 -0.006213771812584659 -0.0018511414195853072 0.0026190163456215575 0.016824089883874162 0.009155124642546707 -0.0025132735191905555 -0.011086718073934559 -0.010516335988716078 0.0012883271181555068 0.006738887332122002 -0.003959501472248059 0.00578695213133984 0.01808055048997559 0.006870425177252938 -0.01327509177835335 -0.007959066807841655 0.0028939741007183444 -0.02343545593390336 0.02221508681353216 0.033886224722795455 0.04687786100822831 0.012154600387387617 -0.011786902614227768 -0.017096977977383226 -0.020340731598894327 -0.018219200443639248 -0.013588037582281743 -0.007641266540638084 -0.0025021672263864226 0.001237588085354062 0.012754579858897696 0.005292511806796451 -0.0008674681379660897 -0.010726996056356733 -0.007781523814914483 0.03775647490581819 0.029131026297249514 -0.0025089456795986875 0.01973125203832117 0.01363914834416682 0.001537352937228925 0.00730209596105722 0.014513581328796701 0.020303994643580552 -0.028209641439953873 0.015561061263830812 0.024587170371755594 0.038329643179055885 0.012317515094833642 -0.009331072049107055 -0.013660344359094488 -0.015495515231864999 -0.01565456059731803 0.001611815519935637 0.004906822896072861 -0.0023838473552277965 0.007657341095176348 0.011025867263939141 -0.012223967753454341 -0.005319507709224907 0.0005333056532652051 -0.008527665493111389 0.031796116199713835 0.023096741880174514 -0.00411404515675134 0.019689420015727703 0.01153474429789653 -0.0020835531705451337 0.006224905934008361 0.01273846223428578 0.01787660568117336 -0.012936328720489521 0.00758159237591568 0.011240689386212819 0.011940372169272353 0.010157771647632766 0.02345990959129355 0.027247436665022495 0.007208976969693225 -0.004938985638272967 -0.011528175717782203 -0.0027734563066657975 -0.0070657256230715676 0.008296444564037012 0.011496070097041098 -0.01200756526575725 -0.0057291663708624796 -0.0005110015840400705 -0.013990898326961524 -0.008251534536471074 -0.005532620190110083 0.0007776833054598453 0.009416726892033015 0.001738533460722618 0.009671048348483518 0.016140723959710383 -0.005735964900450887 -0.013850014538395277 -0.01619283655788345 0.004701361575619754 0.011051968805080229 0.009945776958471464 0.007373802420146656 0.023293340023730697 0.026140697838631922 0.003361586747352219 -0.008809487714429865 -0.004808652654953786 -0.0015676676559960364 0.0005270984099321369 -0.0067116014470245 -0.005482090810057761 -0.007688787721821193 -0.00979200731743063 -0.003024600597191029 0.009213089635541714 -0.007468966880102276 -0.008282141667822663 4.1051155407091774e-07 0.008061392372679842 -0.0015699562820984414 0.004065735002417074 0.01293140215481629 -0.009686071546133046 -0.017679976180786344 -0.001801247155188829 -0.0023843260242398796 -0.005769929143405972 -0.008416452305387368 -0.016931415129653543 0.0010015162196657856 0.0472232759133444 0.05015170373027922 0.031551224029645275 0.009800382325387375 0.005002577510643889 0.0024153073457154825 -0.007112324373192393 -0.005859187812643641 -0.00918946170963358 -0.00909144715728319 -0.0026927764687987906 0.013054983736071986 -0.01633890369188315 -0.020857975110245553 -0.011964751381328461 -0.011349076917511407 0.017027217951912338 0.015086620356862923 -0.01763499050430453 -0.025915895541913262 -0.022567410431891775 -1.5901633686833932e-05 -0.002145249777794222 -0.004219546208796065 -0.006535775302051693 -0.014532193864007156 0.008069489237038315 0.06470908564622009 0.06795464744767156 0.04005314371134111 -0.034252810045816415 -0.017778952391539985 -0.015369723403966746 -0.0056302550573600375 0.0008680120299182775 -0.010221049528829516 -0.014650017550178458 -0.011423394815746191 -0.00810706220925291 0.004923423304461032 -0.009380167765175935 -0.0032458810539405048 -0.002402893425009194 0.030546516225988096 0.02809395599426513 -0.007337752737527152 -0.013138038938668233 -0.008815957409810409 -0.01884784289933068 -0.006667090390228031 0.006830464361251051 0.004841263623577373 -0.006798888117677361 0.005810219585201103 0.015520261994887569 0.006840396643527705 0.007958924173163072 -0.0036298992940409923 0.003860316471727697 -0.0034344800119292794 0.0023023278555559567 0.010394884217810894 -0.004533364265318703 -0.009146656998380803 0.0002728004679959029 0.016643401502193084 -0.00695346651697834 0.0020708125660121248 -0.004347108054246719 -0.0016894593645378506 0.015975651273031577 0.020896622410439963 -0.008317365140172322 -0.00702164161586288 0.0022604593668126434 0.0017365024589704754 -0.009986638838523357 -0.00825777160623238 0.002639246586668891 0.009144982814248345 0.014600078239595048 -0.00761338591906999 -0.016609344842090683 -0.00771043130011771 -0.0005447390183604486 0.0036649765642578925 -0.001848589592395018 0.008562534781475907 0.02464953223601631 0.010756858486796384 -0.013911718299325826 -0.006079707115730084 0.005809708962870567 0.0016330219481136285 -0.004895756158024026 -0.007655617871156397 -0.01904781985346598 -0.005982193532116873 0.005357968873538696 0.006737910380900374 0.002993655178651609 0.0019143181986185232 -0.005054779301422766 0.00343301862812011 -0.004686199234839154 -0.001610972269594248 0.0036262680871739427 -0.0003145285253624638 0.001877631501751725 -0.0012928034916306129 -0.012125343447096721 0.004084193262674141 0.008782892667730195 -7.585943619943099e-05 0.009428578078437753 0.025391058419935747 0.014076705883660008 -0.008255830063990057 -0.0022776324031759457 0.0071220108892864915 -0.017593185640394207 0.0255680858162654 0.03912667960327881 0.04892806020455956 0.02425621581800561 -0.004482410040028361 -0.012049331219727278 -0.014029112563082842 -0.010968257679812715 0.0020760782768951343 0.008954695696685472 -0.004723297310950385 0.0001708990451904052 0.0033820830963266152 -0.0012340683914815517 0.003023226957334609 0.0020639800076602145 -0.0012496325039609878 -0.0007092414563110707 0.026019064187456822 -0.0013804049785830653 -0.008285392974953742 -0.012352210558525388 -0.022390295331306927 -0.009162035775341297 -0.0017820892013276461 0.0044868384757011815 -0.02331256576082189 0.020129901264865482 0.03403646548885657 0.04746952999046496 0.025303664469592445 -0.002139861932781149 -0.007758204195977104 -0.009252263969160988 -0.00927676203601477 0.002358749665336787 0.00849567850815342 0.0026719511189434177 0.020215262880486067 0.026984359778441103 0.0009657096655206482 0.003067669758577902 0.012364402258026042 -0.003942984823300151 -0.007157473913059538 0.021289480660754943 -0.00037664734412302405 -0.00657199664846931 -0.014651909727739144 -0.02218086038261495 -0.00962802136116707 -0.003767854993029256 -0.000941364793773326 0.0009371993965225419 -0.022663221542558797 -0.015345616631955383 -0.020788412010866165 -0.012511938737432978 -0.005859681922648657 0.00129364185606442 0.0007433777764972113 -0.004005572389757317 -0.0038393457895166743 0.007635277730663881 0.005381012141086569 0.031347651647495464 0.0407531893078028 0.006845949667391881 0.009077191659923746 0.015699902803524998 -0.00341325894340248 0.0007381260994688862 0.004103570571468364 0.01122834371199925 0.01922551511020555 0.016717439045196462 0.0327509906793304 0.03848157874480191 0.00734205876412289 -0.001278672304922136 -0.006295835360728843 -0.02301775356971452 -0.017044657913333407 -0.02500681569672643 -0.0132325273316924 -0.006104895120499559 0.0006127457128140764 0.003763311215428198 -0.0035925487733127655 -0.0352331353223308 -0.0035807574685520578 -0.004803091664783504 -0.011426295561704117 -0.01684821648850562 -0.01155482054762329 -0.005051940351585741 -0.01344545720203206 -0.027196229803839844 -0.003850705013521696 -0.003300485978836069 0.001682303340859411 0.012019544210526947 0.006960236439069688 0.02104111805130643 0.025616533478893914 -0.0028858712300506195 -0.01130254834879205 0.006829907635815887 0.004000489598350303 -0.002783268060735947 -0.004020881325387651 -0.006843394783837158 0.0125485473628518 0.05548778323119242 0.0575762704034745 0.04129780570138379 -0.03602342319108273 -0.004227592343751371 -0.013958109841946098 -0.015290176210132648 -0.02013333676139651 -0.01490394351202327 -0.0067495147465074495 -0.013951465002350493 -0.03137457200483916 0.012533226759224863 0.0033820608240255805 0.0055714077556894715 -0.01135550841175421 -0.02634097810729856 -0.018275913416593837 -0.0068914683879542 0.005759325207511737 0.04915932007831763 0.00022504057150571138 -0.00044031369903500047 -0.003252486756638739 -0.005199232875074195 -0.011376831593538706 0.011305302844602159 0.058595034039118005 0.05943599643802397 0.03884020571362366 -0.03438323440665011 -0.01731206201825425 -0.013098723535175091 -0.0018876391844776148 0.009960103359502998 -0.002748409035585364 -0.013613869031249483 -0.009791009880366696 -0.01147330920024882 0.009697620373258192 0.0009615053560017155 0.00683299573844466 -0.00986766111138598 -0.025890738598613537 -0.01867897715826849 -0.007269342243315258 0.003664065469895187 0.04881936947310325 -0.0334572155210026 -0.012109202416585998 0.0008731573262356824 -0.006198775585248408 0.0026904516094924356 -0.0005562471430921468 0.00656693805069072 0.001685477736372061 0.010483830340146617 -0.008629093436847911 0.0018216827258299099 -0.0046489736825910035 9.270610518030686e-06 0.013302980368295976 -0.000866834064934536 -0.009286551752625858 -0.0014064296796353203 0.003474420538861704 -0.01095412365647545 -0.0016540375069586384 -0.0048038626430350955 -0.002477534633003065 0.013517367876971217 0.018194827257398204 -0.007726368456123311 -0.009608656635812887 -0.0005760402765483802 -0.014410511926548445 0.000688123587934451 0.00830768293526286 -0.00017178201992384262 0.017701044574996154 0.00873182365980482 0.013065482831562081 0.014448866110996007 0.030517813269525882 -0.02073708212832166 -0.004700469557862728 0.006888423484582584 0.0007462496075539262 0.021111960918424356 0.024795387714070267 0.0006111293437120646 -0.01137172119921718 -0.0060661575443796655 0.009212493693240814 -0.003293914551819925 -0.009794746092965195 -0.021564482015173397 -0.01114929807036102 0.002453373413775709 0.004810868809288129 0.003663061562568629 0.0036696000967690197 -0.000478406219472973 0.004304044090988743 -0.0036730113935460147 -0.004883163454505837 -0.0033573865678887577 -0.006094994254690381 0.00047616611979046214 0.0013569528362205692 -0.0052819235322083755 0.005621926821563336 0.006910931567700517 -0.006709530865844632 0.002203192217952405 0.008530742938974144 0.008559425359016689 -0.0057505031462231045 -0.0074855538591712826 -0.0007151161247218639 -0.002138832016951926 0.011729695214728006 -0.005090763999903062 -0.00618212087244551 0.004736813634292148 -0.000595180246142161 0.00887079155878443 0.017285389918196996 0.012600899058189691 0.004261459259074474 0.012218777191155591 -0.0014982544666385252 -0.001353134339173331 -0.0005197420625612343 -0.003117437579574269 0.0028901513259021448 0.0033400327576887014 0.0013674253880140816 0.00064335639975304 0.027432195646212135 -0.0015931373993218999 -0.01102291950737668 -0.015867372806335708 -0.024387500005915642 -0.010004032302334981 -0.0025072237370376083 0.003983833929430858 0.01811209571834923 0.017396354478062502 -0.0004923443764933623 -0.0009210852203937799 0.005969097070857764 0.00085767052965385 0.013780437100771238 0.020463755001931552 0.016979536165732285 -0.005009093430798724 0.019674876545154082 -0.0003974828266402449 -0.010950426154300523 0.0005947237079813295 -0.006483026459817832 -3.4396604253079146e-05 0.003952961462044488 0.009557091458717765 0.011607175096576659 0.045201717131239785 0.010768132663507086 -0.0011031612749704861 -0.0094372722382048 -0.016240542332436835 -0.005206652158317625 0.0018797347508772582 0.007234775639617183 0.006391708646542203 -0.01048881094496496 -0.008384952453723487 -0.01501443992342208 -0.008056539011396366 -0.0013842253273170868 0.009542365438944208 0.00751579745136435 0.004969087734202979 0.005961154080979471 0.030658219186244944 0.005379281983981998 -0.005768849395454495 0.00028457168483913376 -0.0018865855860711947 0.005053034116756529 0.007733787355593924 0.016639699556953318 -0.010944939086312881 -0.01093884959604658 -0.007839374206318124 -0.017131379246626843 -0.014430110015945827 -0.015512757069832668 -0.0038703167775480537 0.008442919907805761 -0.0009580831291839999 0.020291232310896298 -0.0009650342419825458 -0.0017617461457923311 -0.009086673198684189 0.0019382810297002345 0.008185683164260583 0.018531467577509664 0.025253691624723268 0.022218217760043624 -0.011690151873839373 0.02264592075150966 0.014594939305125863 0.004352000328179762 -0.0017141441074412862 0.0071515252264878724 0.011470082572398442 0.001917591985607002 -0.004198856568530213 0.006928107322720548 0.0036739695485313462 0.004117484131219053 -0.010026553079645326 -0.005488115721034681 -0.007594027454437016 0.004076114776482987 0.016627658376167694 0.01545035569288432 -0.03638250287818131 0.004780194609028033 0.008352231970445424 0.004432925153097816 -0.0036468771454862426 0.0029439370958833934 0.013309025149261522 0.00452253954370664 -0.019487158375689855 -0.022109063280991305 0.005006648596380849 -0.009420088238989259 -0.008634258964578445 -0.014865430265130595 -0.005952353266893633 -0.001034770732963637 -0.010441730489534966 -0.021922070499607534 0.03849246501742821 0.015040076870392239 0.012459818971744707 -0.005552560464471659 -0.019684361241268294 -0.0137337511163678 -0.004349570730016091 0.013051446075640318 0.07731780157744704 -0.04719799490106078 -0.014194291077499508 -0.013811020795361612 -0.005360881331705931 -0.010595428773874978 -0.0047408881954421195 0.0028590041059662337 -0.0066922411245086515 -0.03411912332850219 0.008594199903400523 0.021536902139181434 0.014622146844621799 0.017762765161938355 0.006839884312832931 0.0015997168417067192 0.0026855790842579613 0.004386416601073853 0.030176706968518995 0.022947244933281173 0.005661037819164116 0.009746790589283162 -0.007157045073681881 -0.021550730786519104 -0.016338221365339335 -0.005413568337954744 0.006323645770943513 0.05943729920430803 -0.022884311382597406 -0.00865420123575406 0.002891936280257461 -0.00325640948101066 0.007885647682920875 0.007312386129600075 0.009100779324486368 0.0021821161693067305 0.01487158368713704 -0.005553660768954911 0.01596844384634894 0.00908878185208976 0.009270589166629708 -0.001702716280755526 -0.002665854609026712 -0.0035271247345480725 -0.0029804583124563096 0.012407779730714592 -0.024933404373027008 -0.006621206533327396 0.008062997349417596 0.006517196498707944 0.00500011237719527 -0.007221914214982173 -0.013748763542719034 -0.001571936705182172 0.010074724711080446 -0.010955289002214734 -0.001519694607051716 0.00835557008297973 -0.0033275017745242 0.014680256995073348 0.008431667293887644 0.0081623728936081 0.008061635767668919 0.026774695035244208 -0.026242117982940343 -0.004997889108915278 0.005476626591750729 -0.000127198192355856 0.0217709831538009 0.024393020040445818 -0.0015231842142019911 -0.012708542586939897 -0.010284800968390751 -0.005932303186692167 0.002843257576083354 0.016179420046184872 0.00949778847906451 0.00814742677656556 0.0015032809414082164 -0.00324146943825558 0.010097811699571786 0.0300107016166095 -0.03890367404904737 -0.003527206276875752 0.0028770085172053384 0.006483060143316341 0.011049787250567145 0.010438511298650513 -0.007555821508038641 -5.930658994458566e-05 -0.011949739260709712 0.011451752028853051 0.011166878619840013 -0.00719836922903159 -0.001296542937309643 0.002003814688375469 0.004540792094168335 -0.007059661669880486 -0.008364093213290666 -0.0011122453093361537 0.003017787648608234 0.004574008811308942 -0.008716053667299918 -0.011070738228535425 -0.000553084465142762 -0.005160634932963839 0.004956729325900437 0.012085672979325985 0.011718096296000442 0.0201683090768128 -0.009348400373520926 -0.004207405418281046 -0.00773998195340995 -0.00644918429059912 0.004976347334832576 0.0032963944552509075 0.00791529932045777 0.027449650639625414 0.020399100176558303 0.007562326233247219 -0.007733790046036328 -0.009225122314395654 -0.017046919197568407 -0.010963114947897095 0.012198202914334605 0.008970380636053266 -0.005177048285641479 0.014588406808080125 0.008347818680894405 -0.004370025840378711 -0.005372005268272177 -0.0006346452203829419 -0.0070250836056423545 0.0059800226694543875 0.012586391908587551 0.012192379365403606 -0.0007647980940338815 0.016136987296108806 -0.003279175621587952 -0.014637802040945603 -0.004513095218729918 -0.012961557635773618 -0.003811960756693144 0.0016624794708626173 0.008439623183706878 0.0348226294589632 0.013210018627458433 -0.005711234045438985 -0.009869510158424953 -0.019528323912944897 -0.011927821009930745 0.010495759686741891 0.010449825933103828 0.0004764037325431115 0.014613119240066877 0.049026400701440445 0.007531721664144498 -0.006425629896932978 -0.013935473650916073 -0.006989654593637484 -0.004941350159678663 -0.010096911590159659 -0.004253680639710183 0.008940807584424601 0.0300834356902217 0.0034345882093099423 -0.011156428312967285 -0.002843868506162619 -0.008316567780430585 -5.501668662253386e-05 0.004267426422881735 0.0130817981306827 -0.0077247909399488154 -0.008785134050782203 -0.00793120524687665 -0.020128540203240723 -0.016368059862070013 -0.01732810324326779 -0.006077853667136458 0.004810474939938956 0.0011339922546238234 0.027416095352847367 0.06197553311719839 0.013745303569346447 -0.0043827447604487015 -0.012492144657831999 -0.004573868875360035 0.002479843633835611 0.004974655020226107 0.01399146074318392 -0.028707424088398336 -0.010998223364078729 -0.001191458058732318 0.002008156078302129 0.002834855060377192 0.006791171028835259 0.008288610143746489 0.0018991710259491168 -0.0109381211886599 0.008146497662448163 0.009311734746620885 0.004974827900085562 -0.010002671297754973 -0.007353591168762118 -0.009496782824994589 0.0027613791133378747 0.01732888862045402 0.0198991195055271 -0.04149749853577509 0.00609097985481093 0.010273513837653628 0.0027078314222179537 -0.005822478630937408 0.000724769294439744 0.011771152598376943 0.004197025630422492 -0.018245626299709015 -0.02103438571136227 0.0031015957685823752 0.013300686814632565 0.013540524829278738 0.013190074991143596 0.012737601240290627 0.019454316378400317 0.015206922669166451 -0.002700860035105353 -0.032816917811607595 0.0035409521466446877 0.011210499721140426 0.007347137048415427 0.017847255847490827 0.02005736925274625 0.020290113669464465 0.02234416579944745 0.017960754855188252 -0.04310422035806255 -0.011612117081366554 -0.013283141538961322 -0.006351364824324879 -0.012323567213225134 -0.007498727784843103 0.0017536807868179052 -0.006243054540201685 -0.032119103914194806 0.007357497838475239 0.021244941540101835 0.010139942153450585 0.01089593325584112 0.000749005898881094 0.00010760836686556671 0.00281361723419563 0.008776692834107312 0.032274374560442 -0.0427713683463756 -0.014762923933837102 -0.002494054022255433 -0.0025969810419877826 0.012756913167474222 0.015431247593376144 0.008405706459521795 0.010685702863154916 0.0008556781040386938 0.01130447322829117 0.01625147525462732 0.008483699104526028 -0.0043782637608445535 -0.012583200843247742 -0.011973058169255986 0.0024579364588399096 0.02319953109637391 0.033015307558045846 0.004416798736486684 0.01918377668572887 0.01024301217986368 0.011186191575478299 -0.0004938905210914712 -0.0006213487762781313 0.00013871167346776866 0.000538093290338463 0.021198753776003998 -0.021170201258035003 -0.004339091636801882 0.010944908393293299 0.008052498520938037 0.005745229630888151 -0.005065456599227338 -0.008459219990762054 0.0038855824306434582 0.015281839844533832 0.006686713288298951 0.015239114499740972 0.008359373239069738 -0.005554437123567551 -0.014382824183015305 -0.016688704125781724 -0.0035527517743624785 0.015282171236015177 0.0166016985605828 -0.012674519863226104 -0.0025646525218484275 0.01690025372557134 0.004110220775923964 0.006165253100455871 -0.00048653195819683666 -0.006987318696823184 -0.006067164476660839 -0.00479913139400156 -0.01458753399147986 0.0038105400889788307 0.019021149167631538 0.012292763960436638 0.009441585676122355 0.00529792888389053 0.0002680645928529071 0.011947722444600382 0.028929110592605178 -0.04754709687753732 -0.010795853883506951 -0.0005617690285131272 0.004909919224123835 0.011881548906441107 0.014404014720828364 -0.007320631146541239 -0.0013038160794011933 -0.015865035612922955 0.005021081310062202 0.010517902841328695 0.02928347457533187 0.008764424419023843 0.014828317237500362 0.00404162141018892 -0.00760341873464075 -0.005886379005006412 0.0005419651866927636 -0.024012202366213792 0.0021640292055476852 -0.0010643911993216933 -6.177181932918584e-05 0.014428016257715637 0.022023074539127063 0.01061859476499299 0.0037647901940795277 0.007887422745771732 0.01867680898340232 -0.008988833420292278 -0.00492632113018487 -0.010326002448060244 -0.011971609846253523 0.0021746364330356436 0.00336937249061949 0.006688427820219114 0.024421558011775334 0.041341059728030406 0.015510735247072943 -0.007081319323339143 -0.010131634387479667 -0.018835141238203797 -0.012996729514802442 0.011530150598703496 0.013889765075083571 0.005036344955269874 0.006028431805525376 0.00038713635957168737 -0.006600516995561867 -0.014237763473621807 0.007326156896273582 0.010264053309649116 0.000689517680915418 -0.0011346166763951228 -0.00667237222925901 -0.011231255726690056 0.002539722421845173 0.0024418901004319734 -0.002303082429493936 -0.008344077183999649 0.015468488284423548 0.01426057624251179 0.017912502194597196 0.022590760469235627 0.03801023927229246 0.013049007929202204 -0.005577667097564843 -0.01037025660059759 -0.018310054589252698 -0.007043181063517781 0.012785754814680103 0.014251317504844476 0.005955227526894562 0.014531256171664434 0.04904458945711055 0.010330793456588954 -0.0038469673850396223 -0.010192163728575732 -0.0031170945283714793 0.0015737013942827558 -0.006680435601404085 -0.002535573634392291 0.006310294040952549 0.009490432101776065 0.0019619425110963817 -0.003000599436417727 -0.00833515825368757 0.007695962780978673 0.007820043027289338 0.01237786568414025 0.02061801023638284 -0.0003664480583509598 0.027058546665495314 0.008556934851837622 0.0009105473789791593 -0.010874091403640034 0.007686425358032528 0.0008357044362368621 -0.004293135692526765 0.0012818298572317866 0.020260862868781405 0.05502509255376926 0.013151590021981375 -0.004519985889561212 -0.0148840971973437 -0.0066748883575213965 0.002741240548382612 0.0002804916006411011 0.007110493318764041 -0.024219827282393802 -0.007839533558980535 0.0012418072789087083 0.0029248360519006527 -0.0005911707901363011 0.005285533308933099 0.006485301534158825 0.0032952697620313564 -0.005640424916400305 0.017022581519918194 0.036299280663925966 0.013181807488575066 -0.000151944402269439 -0.00933022050934633 0.009003770269411427 0.003428881798122718 0.003035597978256062 0.015256696517415467 -0.019839631265881133 -0.017024047520418646 -0.008443218846678775 -0.004380383526971347 -0.010885118881220722 -0.008691941719927624 -0.0004171376979498698 0.0021003790510341555 -0.0017451018765010447 -0.017198399372129695 0.003835673654154966 0.011695031330125385 0.011258312432392599 0.008329300861300978 0.010815457967633056 0.01694406870971963 0.014223146752527952 0.00037655638069566564 -0.026907559012526325 0.004209600264703594 0.013229693163647608 0.00901877850336311 0.018547064369325725 0.01688579493847075 0.016520010331765374 0.018659938617148496 0.014240447765845602 -0.015318346196253562 -0.009201923069370451 -0.002253744932114793 0.0036574683413230667 0.003217381461176326 0.007824566598765147 0.00981650151241889 0.011344646213120863 0.007003575646716199 -0.018531749505871248 -0.025818088642676575 -0.0023356721559607153 0.019102106755634264 0.0019218745063247417 0.00971378902396791 0.0069036457973857355 0.013225618072756278 0.00268610688957692 -0.03517067995110976 -0.008284691712340087 0.0021803245074377125 0.0011202791597907376 0.01131428300218135 0.005329286011888484 0.00253360712651323 0.008805800282848608 9.436628982884172e-05 0.007104456638772005 0.012985037191137739 0.008562308856949238 -0.005013139342462785 -0.016888642724627322 -0.013125390666677702 0.0006603593034073306 0.019674853480683922 0.02542097832852875 -0.036766332327252016 -0.03589045919743784 -0.008473564667774342 0.014734466898450982 -0.005651660680945868 0.0014292160755252836 -0.0034171848831326167 0.00261833091469605 -0.0067571655698334876 0.03396558194588436 0.012711875063478895 0.005150885257698745 -0.004629428741202016 -0.0066491611196946845 -0.008674132682423666 -0.0024511702161177824 0.01983746297209884 0.03511713379353151 0.0038544414945160302 0.014160210652310249 0.008819859946593457 -0.005670573430802491 -0.018905927980438404 -0.015289724717690481 -0.002918924822949015 0.014697608279037634 0.016924212478358607 -0.014784101684645948 -0.0038032017041210084 0.01765046142717456 0.0033390682411249275 0.0031242366788316925 -0.001908880868515764 -0.005623195526861984 -0.004769067970690311 -0.003404006591152523 0.03279753535249734 0.008144405139417103 0.001722132096002246 -0.0060794177899425265 -0.010619323883298136 -0.014895132813680285 -0.008113606780380955 0.020103804712502185 0.03161276360524772 -0.009531725964418584 -0.0005112651890489627 0.0031112443357036355 -0.0032822114086446513 -0.005212380565619913 -0.006797194055355775 -0.011602451997989364 -0.014160183025353129 -0.026993837146872018 -0.0073405836557197054 0.009733462995804163 0.02949441470826475 0.009180928830277199 0.016721530037542603 0.009488652943163457 -0.004057197460223165 -0.003532434058107654 0.0013620142539391908 -0.02021280070448284 0.000726824623068819 -0.004490335767383751 -0.005622812415729402 0.0068801074943146395 0.015219306943334836 0.005073597764952416 0.0032512989018562742 0.008202156377572248 -0.005437857943598648 0.006623307143382804 0.010548867398311002 0.00013392968052955054 0.002863842474162658 0.00015656229774395434 -0.0100421215335108 -0.010161465901991948 -0.02010181586588052 -0.031204117701897086 -0.0022380289279339037 0.0024460327018033974 0.009839724903903349 0.02796498959968624 0.020361545640954295 -0.00011894425851076613 -0.013049451090943106 -0.013509720891192737 -0.00030727752871953246 -0.0021705269442180357 -0.007775976795596885 -0.01174515829076902 0.0008056017301276612 0.006134293184696786 0.0002972055565925012 6.374968335483549e-05 -0.00871958501828658 -0.001973141420331892 0.0034656335259324075 0.0056369313467276045 0.002129847617810058 -0.003986379289280796 0.019308523916726644 0.022373024615814308 0.02203250479799665 0.022026046716420625 0.019469347957154527 -0.00885585280525616 -0.011135923061992254 -0.0066641171188204715 0.007738987621806134 0.01692480276974965 -0.007408172619306648 -0.008637664992464426 -0.0024169539648903615 0.0052334043636300094 -0.007454330656208169 -0.035738340721998 -0.024355628392609577 0.0005943478850089219 0.0025998851816959306 -0.0070310369854582975 -0.01247353935966427 -0.012879814629063516 0.003815232356227003 0.008217931048139063 0.005585598450169269 -0.0006469148689676144 -0.006691656202180906 0.011988535796559494 0.013415479599729618 0.016763333575782503 0.023054324298512754 0.0025562118795934064 0.033139125601845926 0.01563823149125333 0.00754436869041301 0.0038692303971991993 0.01807575162073723 0.0041724923658791714 -0.00034758931839840804 0.0036587878903735754 0.012860769435110596 -0.0034330054048224245 -0.023990509696824844 -0.016381807858130256 0.0058137867242995436 0.005710997793764488 -0.002684162664776615 -0.006593668180871804 0.001467086917318297 0.005138795528038009 -0.018969914809116886 -0.0030312484807221334 -0.0036268223915792933 -0.00027690854546839254 -0.003014413151387901 -0.0009582724368418975 0.00238775748540256 0.010430259783259867 0.007887396431464435 0.03681623222626698 0.019300808370391855 0.006334714536193781 -0.0018085710789189674 0.01484985308561062 0.004249594765291501 0.00391447188134918 0.01527304745652324 -0.015612299883631893 -0.014557175397266364 -0.006136633864824423 -0.0002624783555652086 -0.004239527751097637 -0.003942561420120816 0.004420544686942962 0.007719662379675445 0.004300155163622505 0.016037591300229127 -0.008165423255258958 0.0029117649413028354 0.0008119728578000052 0.0009996678667391124 -0.0014481700287287476 0.0007796323291101446 0.006846662237112862 0.01554446871371718 -0.011965383770085871 -0.022498605375610294 -0.015574350329330897 -0.01215330083096296 -0.003129368277114997 0.0021814039076073453 0.00924753901485744 -0.013634600853117719 -0.032226613864860455 -0.01602269910606749 -0.010838267134282214 -0.0023367031346253246 0.007788883220119148 0.007252285239570931 0.010526438662491236 0.013805110821444533 0.0153203528308939 0.00806591801968278 -0.015668320582769953 -0.015767214652413337 0.006494396592680492 0.026920946347466446 0.009952174298103082 0.012517998599870399 0.004040678073084196 0.012863353022137708 0.002323727693723884 0.004193780341269871 -0.012583378250156266 -0.012304397906352325 -0.009880308339011948 0.00010523047414448669 0.003422453027461153 0.008516680165183694 -0.009513530828715984 -0.023766767425124343 0.0021471747523045146 -0.00630056117360008 0.0037575346074524337 -0.0016016972068213097 -0.009422687470039623 0.015247405647841206 0.01822793524015446 -0.003788826023999452 0.004628479217975443 -0.037253394781730655 -0.030791803428265173 -0.00113532070834046 0.021495617376039312 0.0024512649382337553 0.0037374546200017733 -0.004965022680032401 0.002924309998165827 -0.00965675518787158 0.03622662507831097 0.017146971777315032 0.008389679291941645 -0.0005821947612003816 -0.004517568277351414 -0.007383502306540794 -0.0009003961214486084 0.022045487522061733 0.03723050320689621 -0.02117661250533112 -0.014272976611644584 -0.004165836575494018 -0.008285372549540674 -0.017196784982819492 0.0010255997518619712 0.008083022536715827 -0.011900151329734009 -0.009064749416114747 0.024667711949787067 0.02522946377645634 0.016631871291063586 0.004777552947633188 -0.012507637246204226 -0.015100101454206764 -0.004686172754671193 0.007786495427296504 0.011512288622296994 0.0372852750866024 0.014493440072033192 0.005278418039243702 -0.0032162780944286025 -0.006759935458346438 -0.011778528827604341 -0.004253977816197025 0.022393687441789264 0.03452065662925539 -0.003319336225218409 -0.000729007683661585 0.002615519898240988 -0.004037047464696762 -0.00294235135077262 -0.0017079929555718649 -0.0074289980386140365 -0.01104803492744536 -0.019775451400187914 0.01904919477690657 0.026798257998406714 0.01846052801130869 0.004712442298376402 -0.01561698822188 -0.017618946598944155 -0.00585731384234437 0.006645093115890929 0.01079146532898374 -0.028345115804790978 -0.011506956241170036 -0.0038857765714702857 -0.005250348876196795 -0.0009523037320466819 -0.017058456929873924 -0.019432337455394404 -0.014270469191372759 -0.02584823961250745 0.014287745980240034 0.015279553042739038 0.019415731269399363 0.005901243289859535 0.009406219086872898 0.011990568266728011 -0.0009027346656398717 -0.00415142050746102 -0.011453584426916083 -0.01965954880299913 0.003286989298692251 0.006021715246785397 0.012733102017359886 0.0272864284890507 0.02710389490152751 0.004422507397248456 -0.007754198093016167 -0.007634891877603488 -0.01784540637781427 -0.0008587339799145696 0.004681335420678524 0.0038917095261721117 0.010739899308377321 -0.010260967929118911 -0.01171965350766074 -0.010976775355021824 -0.019183522994096057 -0.008408479776153546 -0.0029175899229190094 0.005736442213103666 0.010291443626817637 0.010627317290435341 -0.0007419023014018427 -0.0018359758634808794 -0.007827434912784493 -0.00048184122209015865 0.021655641125496863 -0.009733431412525122 -0.010574558686773664 -0.0032702390373595966 0.013063333805933015 0.02175180800183526 -0.0021164097072846593 -0.007138839578895399 -0.0014500635054370912 0.015819819584301387 -0.0022415276888094007 -0.029276699024134756 -0.020975697648065214 0.007622188298320647 0.007589981588631232 -0.005559182702846182 -0.008866612502405644 -0.004200164061280262 -0.010975852708716833 -0.009544653960491251 0.002828725320185716 0.00012975156379770898 0.0038747949150967826 0.011831854855491875 0.0033605441962156406 0.0024014822318147986 -0.00956106511152373 -0.048926618448275096 -0.024166242960295927 -0.011781988800932317 0.0009684836850345152 0.02098807327295171 0.02658780623965687 0.0013200638374092296 0.0010298490181710536 -0.027349819857168414 0.016813920714308515 0.0015413536180543827 -0.02562985007579678 -0.017892288050238632 0.005628574832571325 0.011409602870816424 0.0035510354947859285 0.0011409173892437349 0.008642922505853 0.011400701751548014 -0.013856375809243556 0.0022194272440438033 0.0018695321594057307 0.00370218587603164 -0.0003651763124291714 0.0038699378667808072 0.008876771583800463 0.014757341052980787 -0.034982228935635705 -0.01638978556186249 -0.007560424719932876 0.00406821447482309 0.021397963936284063 0.023664489128573184 0.008396990496227576 0.008785769290779559 -0.010255568973121618 0.009914200143625894 -0.00790360509103261 -0.00784471777168698 -0.00530983460013931 0.005962588237811607 0.0033711095095202387 0.003269998096831295 0.00657970447010193 0.025340096489100676 0.017791422948840084 -0.004855296234510266 0.006407386889989391 0.00633582508492493 0.004161580509069887 0.0015872984953058248 0.005514444622249309 0.01199164379899321 0.01638174429520967 -0.0002812857376055481 -0.015367330992103028 -0.013913492766748591 -0.01095657548890795 -0.0016198240305929968 0.0040686110940751875 0.014037131375612634 -0.011763135830064749 -0.02710916108460503 0.01726638159533013 -0.0026698108209439824 -0.005167978219627541 -0.005514126191550697 0.007342204054015604 0.00703477697940988 0.006870893051080647 0.010216040865877912 0.022613425678810726 0.00800644794391253 -0.009442783037247484 -0.011963005571301762 -0.012174216269054019 -0.02073506334710208 -0.01890330417655341 -0.0052403931425478775 -0.0018568861631472339 0.009130842291895947 0.007642408766301003 -0.008345558603244922 -0.012474248700922494 -0.00979436697981819 0.0012424716237830467 0.005135964757874335 0.013357075078986813 -0.008378105509869654 -0.021024123027759 0.006588117351821134 8.457562948103949e-05 0.007560002163725155 -0.0008473694098617653 -0.012196509538712125 0.019365226362304082 0.023874350368785605 0.001531077344746762 0.01225602258758163 0.01406383717984809 -0.0035930387746598517 -0.009102091551862765 -0.010662876239464915 -0.01748127717594278 -0.015225510061167971 -0.0028052222682729885 0.0009221390323191584 0.013476743533393433 0.03647243957610626 0.01708338716589477 -0.008909281502176503 -0.013151016447068295 -0.022783039378943257 -0.032382064975614924 -0.004932044112675522 0.005745993111558848 0.02687686375585943 -0.009884948203617417 -0.008757916118176584 -0.0019747775300777283 -0.0070987332261541886 -0.016060139321832423 0.0007363030089552068 0.011415089048280116 -0.006895072780388249 0.002667146823848704 0.039041529332099104 0.03237408805775777 0.02268291569340353 0.01045074616465816 -0.008041871144054873 -0.015050266982330057 -0.009857047314918292 0.011622116709754405 0.020220436574036525 0.020610247946806253 0.00855689317812516 -0.01197203521779342 -0.014613078282931442 -0.024890930850349408 -0.03688468866427035 -0.010447363696010004 -0.002308742559113934 0.014257542372673696 0.017856708733580928 0.022579133673087427 -0.00012476192465280032 -0.007947278817555053 -0.017071075618408385 -0.004169946507109072 0.0033723430048836767 -0.0016335076967654949 0.008699602260296906 0.043145656208989504 0.04262267614759183 0.0312393132630761 0.01861331067383966 -0.0035674709438542783 -0.008260272064156223 -0.0022510783761336564 0.01676750343230958 0.028319976681663535 -0.01273873137490699 -0.0024746227729781174 0.002508152643437339 0.0036321894880123207 0.00990238871328206 -0.008388451591933275 -0.013944949464750837 -0.009298301532510947 -0.01571579573729652 0.022402192609155616 0.03216099716063232 0.0047924273112638326 -0.006157307870514537 -0.013486054656672634 -0.0019486941022850391 0.002803716024485479 -0.002293622329649043 0.008324913814468987 -0.014863667026388203 -0.011089561278255423 -0.007793632279593133 -0.001328332525953785 0.002213024318746858 -0.01091600043858761 -0.0018604095786783949 -0.0004647489597158213 -0.007384999689673099 -0.008527023254155046 0.008109868820533231 0.009780616781093801 0.010934324318132398 0.02210669638522383 0.0013065505199432396 -0.00778642079421241 -0.006311600288894327 -0.014947746527319545 -0.0005668775978378372 0.00016510385400256907 0.005950656772137283 0.010746781832614977 0.018224623065166284 0.008763037495904548 0.002992217009885313 -0.00502148522154763 0.0015338069149646982 -0.01087243157181825 -0.011128011689152431 -0.0049515996726463025 0.001818600475000487 0.015999465611557656 -0.0015839328864158686 0.001736406818598954 0.0008898925025242102 0.001976554250225455 0.0037654467429970996 -0.008468440617996707 0.00016735397540450843 -0.000724823438268198 0.0034930315165938516 0.009487979312273197 -0.0016266624579521962 0.0034078799588376446 0.012274489752026777 -0.007508920307893448 -0.007807595524109242 0.0060122245275690735 0.004129518117996229 0.008587248885776447 0.016226341425712918 0.0037094447143378195 0.0028209986688925324 -0.004512221531676303 -0.0384125279563423 -0.021729888765256035 -0.01340562433869712 0.0031808670309190195 0.030331933578287784 0.03279173517984062 0.0007183292811247302 0.0013856704677776856 -0.018116972666504496 0.010128241210832008 -0.006444328793739847 -0.01010238023855116 -0.02107388225568913 -0.009635604535965854 0.008050452522387905 -0.003953802352846448 -0.008391040746043776 -0.00782935480721911 -0.01599346747711745 0.010601453982105241 -0.0014956327931743897 -0.00832885529670801 0.004546005611255722 -0.0017085771075170965 -0.009786468780779796 -0.00432395486599466 -0.0004096805326442973 -0.0391103518295297 -0.020960750787745123 -0.017385598669972163 -0.0003015540805759472 0.024463990617914738 0.02313238981582691 0.0020533967240409993 0.003348079609181586 -0.01574141215824571 0.012049738566538922 -0.006213572877480493 -0.009611022843330218 -0.005469553075104604 0.007320901731115465 -0.0009548244630081514 -0.0008711087588405448 0.004491199419706691 0.03167275792323457 -0.01384874073715607 0.00896557559478658 1.8417112754263076e-05 -0.009239858664014292 0.0017200091335052557 0.0027642367017622297 -0.007695077116262712 -0.0011828487518121774 0.002963292195454338 0.0213194964563802 -0.012507646886761538 -0.009783329420026816 0.0035122712097052314 0.01173824351235001 0.0006310253655720598 -0.009046790795552796 -0.0007334184311916696 0.009569320625774862 0.012307425105512502 -0.0037607219791145003 -0.008918173897494847 -0.008252048810130428 0.0017436420306264518 0.0010936576583621556 0.0018211877493733263 0.005232576791804753 0.021989828609667833 -0.0034206009191565427 -0.013284743340468379 -0.014118290059562808 -0.012138908838984006 -0.02245793747178089 -0.028825173640223297 -0.007862951272624506 -0.0033340189463858683 0.004316476645842324 0.02365829691392044 -0.009574499783569342 -0.008555836438676094 0.0019355478272915032 0.017007153482015442 0.009327901247860034 -0.007855023219647797 -0.0018413440661783208 0.006719276555281744 0.03441198874610315 0.003649139297175581 0.0009752806057858774 -0.004731956653815305 -0.0035025655880524392 -0.008127181654799163 -0.008689162512067241 -0.009118537447857728 0.024264840848347735 0.0023635779114091248 -0.009483124181423941 -0.01352119863241539 -0.011928203297188019 -0.018804148134973397 -0.01951216526466755 -0.004983596363912316 0.0001324084749824029 0.008994002706453643 0.034759469480910285 0.01863082833747851 -0.010377183617716803 -0.014146975666081408 -0.027462435276349065 -0.04185831858212395 -0.008949439050349636 0.0008735755027463905 0.018791373928193387 0.03118226532731864 0.0004714241810609898 0.003096974511836002 -0.0006348687995250777 0.006952675279227308 -3.7633976076991826e-05 -0.005489747208816817 -0.0011682509599609879 0.03332244880534274 0.030552221249854423 0.014692604700124269 0.007331419433787923 -0.004443316264177408 0.0008125281711788774 0.0033638985480735697 0.005855150802691576 0.0017256909781695196 0.027117622572085553 0.026303840984396074 0.013701788011751113 -0.012529324917503904 -0.014781153255629913 -0.02450183509446058 -0.04191701290437624 -0.013332692601496077 -0.00423224003873871 0.015667525108101297 0.010882544681466072 0.025706853230992494 0.0021149250437178984 -0.007565715038247095 -0.014896620308641209 -0.0024638584697906064 0.0030517119440783506 -0.0018728332829500783 0.0018031574692132697 0.01959198608210404 0.010721273159937136 0.004239694978365495 -0.003958202999342836 -0.0004009272655626278 -0.0020907080117526576 0.0004665761372786108 -0.004211048375555747 0.014835170034678425 0.008260878870202736 0.015579475030736622 -0.0031578025040179007 -0.0003918095774685388 0.009114369414878865 0.010258969296188426 -0.01214413489630892 -0.008809716112785134 0.011019040625207392 0.024621418721850884 0.03809702413259672 0.009804037915008145 -0.003053979738128828 -0.008030954387609786 0.004250379916194257 0.004898491748507915 0.002030265596100044 0.013909767407941597 -0.02095031639371416 -0.011339277582457246 -0.006079967973798315 0.0009980232139878778 0.011902641455960648 -0.005876823107214909 0.0006237654325933701 0.0003739218601039372 -0.006716978274426425 0.023025554032827515 0.027618957068236503 0.0020483798230053543 0.003299871197294746 0.01503087908932985 0.014118504701314406 -0.00950378200477622 -0.004484723979166663 0.019436063679789402 -0.02599166574813014 -0.009828615366056746 -0.007499782516219593 -0.0008837801885230073 0.0009229367438208813 -0.001750926232796921 -0.007061034440792206 0.0032789478072046165 -0.0008533290470424133 -0.015871938138251086 -0.01125813535086789 -0.0033106563123112692 0.0037616040412225228 0.02053574399641795 -0.0020449826789291467 0.002790136452997773 0.003633523696083875 0.0009304688016290441 0.0036437828103996527 -0.007894805470148545 0.0025151773685502844 -0.0011813453095456026 0.009089953560496926 0.013949289957239194 -0.000553028628398418 0.004266790675601226 0.009353474632853456 -0.022684914714237992 -0.008315811678973514 -0.00159796291400711 0.00629987574682791 0.008700782992371125 0.0035559963580144424 -0.00450611476920779 0.004743261315219563 0.0027987806011442935 -0.004572481927279413 0.003895241381082255 0.006895311816328225 -0.0008671676785398043 0.020074816332811517 0.0227101306545804 0.0010861326712582858 -8.980755212459812e-05 0.005259738652745096 0.0015506573268493612 -0.008465127469300077 -0.00914892022957282 -0.0214140993222472 -0.004904024295809624 0.017622531738083824 0.00031949241762681 -0.01149406789982292 -0.016044047928316096 -0.029136234742761717 0.0015630460317805541 -0.005510592719986597 -0.007546467527695835 0.016672522074564388 0.008056729553573377 -0.007964480345290932 0.00012951614017519836 -0.001881774229884777 -0.010757108878650843 -0.008133537578086584 -0.010557196146468583 -0.006166452231692696 0.012185765842123308 0.01447983998072772 0.006234491135259514 0.004703249465675247 -0.0038377716797008765 -0.010773163523206869 -0.012111986644366884 -0.01222513886136335 -0.01095010043444438 0.01385581396834658 0.018176953349643653 -0.00033594213894552337 -0.0068296956004242635 -0.006682050882555475 -0.029058394297897996 -0.0012254199466988306 -0.003583914102350119 -0.009151860266675929 0.013876811944773037 0.008839882560507505 -0.006296951281023314 0.00045598343450807186 -0.0005232643497666729 0.013067154606933223 -0.01434125703326054 -0.008139480621629435 0.004634248848685606 0.01204130745564039 0.0021443131374010893 -0.01003337393816124 -0.004858739124926978 0.007632626419632559 -0.013434735432396663 -0.006544425421535206 -0.00613672071950171 -0.009260479438382914 0.009563402666957849 0.013484085021468322 -0.0028047419142318733 -0.006321161958103537 -0.008366050476627446 0.0171266045141942 -0.017530631968300688 -0.01932623951062292 -0.007912463550019988 0.014727280235445362 0.02376579081851078 0.00850744268683259 0.0039389957635646315 0.012688690887504302 0.0022677438280177646 -0.018302781715938677 -0.011415136104369833 -0.0015545869536786432 0.0073406814628755425 -0.0011432086348805365 -0.013468901366404225 -0.009347769147301746 -0.006401042834304597 0.01688729732133161 -0.00934463050528243 -0.0049972430287183005 -0.0071805012664035535 -0.01051986705940002 -0.01564126791355493 -0.014382224954977166 -0.015649060906295646 0.011303919992683787 0.002813389259241677 -0.024680256140605157 -0.02266213912645042 -0.015568931980306374 0.007402000513582489 0.02238810290597804 0.0059625932372351165 0.0007275208434801791 0.002994069745459799 0.05222745509285456 0.024834106183877776 -0.004183058600457744 -0.007138055244813671 -0.016957109816852736 -0.012367783824961478 -0.003390948267464436 0.0031584638475809917 0.01940296221980905 0.008476420865023856 -0.01080070699599052 -0.0034182106696612666 -0.004409061801223596 -0.0052467728308163005 -0.012406621027183725 -0.0122526478153323 -0.008459491546803685 0.01695839455822264 0.01481546105994171 0.006642795790890278 0.00420240321496208 -0.008377433778593181 -0.012487221737213889 -0.006724473241812926 -0.0005546277476886424 -0.007411707971258741 0.010069770985609761 0.050275931638553144 0.028902728430129667 -0.000530635868544574 -0.004004591680852238 -0.010934606179681502 -0.006535023155815262 -0.002253267473188307 0.006924171032947664 0.024460596017462696 0.05781482218195688 0.032548978745383456 -0.0021095830650843216 -0.001953859167008504 -0.030230507693797214 -0.03017151300182815 -0.006652789438026738 0.01134488634843498 0.025037010464148312 0.023544672756187296 0.010941376208836121 0.005111414500359622 -0.005112439849396196 -0.010561852332662908 -0.007413389912266401 0.0004506657919979443 -0.003416059112775049 0.017651975790312788 -0.012814520321487612 0.0036653172872343335 -0.0020419737332360013 0.0006517642216069593 0.0019310105910542185 0.010844209257005803 -0.010098439103049531 -0.009749353726360207 -0.001182476547051922 0.051818102510899966 0.034326129787880626 -0.0008780206801024385 -0.0028417383131503714 -0.02813722653972515 -0.029767569070512524 -0.006838256592241122 0.01130253980959396 0.02049452082140192 0.006017508539357116 -0.0038882169997557243 -0.015281484608851856 -0.002103203983414737 0.02600001352899769 0.01755823252061904 -0.0026796157515009554 -0.004511692631357259 -0.005881411198152551 0.003496952408248437 0.01578267859229195 0.0032692930316164533 0.004373147111776523 0.015540885533917569 0.02153348540265582 -0.0067330675541384735 -0.0036947202933635187 0.010649850434631052 -0.0421676121230251 -0.02100657189138491 -0.008117121410271037 0.002458448537469342 -0.0007680483320193754 0.002774645576756688 -0.00406077146282035 0.00330416938360353 -0.008749100326457844 0.01935386579827435 -0.0023388640490785715 -0.010830219268818192 0.0025276240652239127 0.025975262975363143 0.021550106387246352 0.004508790255862234 -0.0002889894726528508 0.0020863363044631112 -0.003586027500654269 -0.00019257465170095583 0.004063600626201486 -0.0023424508005988037 0.02251563047057654 0.020284225123324222 -0.009544387292852625 -0.007538733907382041 3.740663751094269e-05 -0.04529892033048559 -0.027024653163856327 -0.006088251740100933 0.006005728105989863 -0.0006273590332972841 -0.00035279150272665716 -0.007179311227835561 -0.0008471738130040745 -0.010824964207674351 -0.0012802019193342107 0.0022501022111299633 0.0022447235798942174 -0.007744610353611424 0.01058835525759899 0.012076061143335762 -0.003477624673962375 -0.0027117153885234963 -0.0010824264844461072 0.00553187044766157 -0.006454756883331417 -0.006744544590926665 -0.008827042074792494 0.019401146897194965 0.0193559121026747 -0.011251614044681665 -0.008122029761761587 0.0027775690913102533 -0.023344033225605243 0.00751361335716724 0.012247119084947642 0.007671113160391195 0.03194484747206399 0.03509240592287342 -0.004266443240380443 -0.001914362303320176 -0.0013900092570536024 -0.022064285710982966 -0.00858454154046951 -0.005373539639021067 -0.0024790789502018183 0.015542105215575667 0.019000541579915736 0.008696901375787724 0.003510565781709173 -0.00777997472403803 -0.01314544029534751 -0.013844482218611922 -0.012280386767346878 -0.009577068475060457 0.02470909145294485 0.02225619088586275 -0.006925541356863699 -0.016439808961025953 -0.012095400027128826 -0.005410356506348634 -0.0064969449838923445 -0.009901924042546337 -0.009114808563823296 -0.0073161681453621915 0.012545572596744648 0.0051718247893478226 -0.0042560489279112775 -0.011147704613051852 -0.027249346165791825 -0.030455965800762194 -0.00959367429929433 -0.0021615795222122763 0.03177392996746765 0.02916554886219449 -0.0026442407434204857 -0.013604302759734278 -0.01453040393232878 -0.023398860836646374 -0.015239869204985084 -0.011542902082884781 -0.014074960444154513 0.007943669118193237 0.007144768137546085 -0.00938531322199253 -0.009634737238980343 -0.01176129726873046 0.0013293371734825173 -0.03171452632246116 -0.02390817031961522 -0.00933394710563512 0.010932358866132834 0.01963268334210883 0.0012011400922782747 -0.0044357169661889 0.003423650193351548 -0.03533595858747472 -0.027873917915815748 -0.010521548682163961 -0.006116671135287614 0.02289523483606502 0.026441673233747666 -0.0035669317719359307 -0.01198158937000735 -0.018280341866909924 0.0013136552382990068 0.0113039500114356 0.015349330388384673 0.00939746039793624 0.02213946055865025 0.018717385539646362 -0.0029238158260809994 -0.008721676782624478 -0.02387810122920492 -0.012814874452778268 -0.0342919679432347 -0.02647753535001368 -0.018461252012379914 -0.0016996070934016622 0.008141336804043579 -0.005030607788725721 -0.009545527772508926 -0.009615087045144051 0.029889555495287535 0.008288264158071566 -0.00976052533957431 -0.0126915844844047 -0.022896311285517508 -0.019622677080186116 -0.00901504651358049 -0.005001477038595024 0.011454586333599717 -0.007974809443828088 -0.0014517610357612936 0.004129924918532439 -0.005751326892901867 0.009854232770686764 0.007464382051941443 -0.012742795034232725 -0.01572794931612013 -0.023956510438549718 0.038825430338439416 0.012883085155799303 0.008727058926111381 -0.004038575783578895 -0.0026320746688129736 -0.00653007058743435 0.006565676682326706 0.012480696114229483 0.023339889233496638 0.0241026962342829 0.00679286312684709 -0.009624272362841909 -0.011094107036501008 -0.01976311590966874 -0.01758180027776315 -0.009166241621478078 -0.0007761360384542489 0.013476269074075982 0.031227962035883693 0.016387470360293244 -0.011323368426629522 -0.011024370195860755 -0.03645590989083521 -0.03696293947858071 -0.013009567118423089 0.002628306025516715 0.009235041410964647 0.03260039971519937 0.014825764198403136 0.009308236756799364 0.0010229331882206248 0.00942347996071496 0.0005204080916944691 0.006758744780367311 0.014199699117217265 0.02036449521345285 0.04905442338058808 0.03452576559819155 0.00974523614532466 -0.005947394344027311 -0.022053236435735226 -0.006720770964361012 0.0030396791462774173 0.01078546524925076 0.004861693957554632 0.04005532340933558 0.022558229161168945 -0.009340563603517935 -0.009323733334612859 -0.03206277513801651 -0.03454268726769044 -0.011700106490439316 0.0055772267185697656 0.013036145699145347 -0.003522171667650679 -0.014499819893452417 -0.021354904485687325 -0.010366800746888354 0.010573934995441799 0.0026980989175517294 -0.009213829570675014 -0.010282572015328817 -0.012792691247662311 0.061415183825836085 0.04673968880880232 0.01596068299821854 0.003772610079438415 -0.007360996791625463 0.0032492902807769244 0.007059810654090633 0.012615675137186281 0.012858078996585103 -0.006757713428240428 0.0023727283348958343 5.497678587461363e-05 -0.0069776666601128684 -0.009710221685718766 0.0013924101301905005 -0.003630103233975876 0.00836700112276213 0.009883903821255511 0.017015193631563053 -0.007585290640759711 -0.01458055205449195 -0.001968611044030024 0.01998134670349755 0.018630965358011235 0.001616980606719586 -0.0040733969896524815 -0.0036320560737494317 -0.009494086898188916 -0.006923379508453167 -0.00747307999213809 -0.009868162464794768 0.014572569813166568 0.011604614908377628 -0.012061293855092603 -0.011233066476984912 -0.006118054024475723 0.0071942031953704435 0.011716938721322444 0.012023002944333389 0.0027081620261235877 -0.00023735084797251013 0.016807003428779888 0.006680941744926062 0.015226600095649547 0.016515139594317656 -0.005606290745606786 0.008814695594443426 -0.002729319152096006 0.006772504220533083 -0.004118755474498839 0.015353238026789498 -0.0010948357487311302 -0.0026528858123830578 0.006173766443748544 -0.00013266950588496247 -0.009507428259165458 -0.014133549865510216 -0.018669101683997488 0.014079704784646842 0.010369987197363376 -0.01441603279327739 -0.013859135011021227 -0.005853357227255923 -0.023581381513156502 0.0033201626619315154 0.008100505153071529 0.0023078086537588723 0.02565238538011988 0.028229566665763844 -0.007257143678154716 -0.002132155264356288 -0.0018618710097352356 -0.002222647718143818 0.005430346517362375 -0.0037544081457158195 0.006173061082723794 -0.004654312517259605 0.013018471599556344 -0.003467004638641772 -0.002015672680437889 0.00972209085363945 -0.007751500143988942 -0.004316522755722255 -0.00928907452102047 -0.005850086845003919 -0.002167559725897553 0.031821696515127396 0.0013586176962604058 0.005953971265445888 0.004388949572320737 -0.003653421244149785 -0.007734201859260148 -0.011894098607370214 -0.011518274796836604 -0.006063988474007033 0.01100706917773447 0.005327421219090575 -0.0025761989707632784 -0.011318396235213659 -0.03051993693057957 -0.02909936437300362 -0.0052994591237566545 5.010113993326863e-05 0.0315539932440965 0.02926516978862207 -0.002570527022390926 -0.012120231335072167 -0.013296936742138377 -0.013141548659341062 -0.008812482701189677 0.005468841787087298 -0.0005003319916872416 0.022992464070630266 0.031492902104286034 -0.006637540857795952 -0.0007558408671086913 -0.004927980877736601 -0.0027409978435956922 -0.008053094300240867 -0.0009750867608970319 -0.010448700121474551 0.017984090606460983 0.04752603145264228 0.0180101955842526 -0.00396893746863729 -0.023087893506528078 -0.04229846584845858 -0.03560114127079458 -0.013568540353072592 -0.009519127820901105 0.00911982498596043 0.010490977069160842 -0.0071007926718363494 -0.014086624733029508 -0.019863685580344643 0.005035752719604521 0.007351171729983405 0.01125062207099292 0.006777359341319443 0.021527956262930657 0.008538742871920087 -0.008484099523261958 -0.011612833367827598 -0.02696155051145513 -0.01445781398699115 -0.0189072633275877 -0.015294797893750418 -0.017255502538859463 0.009537582616167453 0.03103654880752201 0.004735189473255846 -0.009862119192029542 -0.020794509897732374 -0.03035083340087732 0.002218524045567459 0.006052410039351671 -0.011558432273753779 0.024777651736682105 0.03860907935267786 0.014029206299013173 0.003818535204394519 -0.014465653721085643 -0.013439571027780567 -0.004086600415885412 0.0018949387715353266 -0.009157115045826255 0.006054841614313518 -0.002832055313981222 -0.015134988337969323 -0.019857413648231792 -0.03287369771117698 0.035582661951903995 0.009702963870534728 0.004421922814045531 -0.005954807840089936 -0.0015360978698750923 -0.013381322626622923 0.0023171600191488023 0.009315400723650625 0.01779642175384505 -0.032041026950247686 -0.005326274191706642 -0.0034205182275277887 -0.01804405384049426 0.006441791479240373 0.018609342117645176 -1.9113474840177992e-05 -0.008138083887400498 -0.02755624555492804 0.0008656827434090739 0.009202943396252453 0.00984482537543471 0.0019443000697259185 0.027968375172104498 0.024387921009448765 -0.005696475450899799 -0.0012710117900564884 -0.0015034781502332652 0.02506877255214557 0.007350882296923958 0.0010359548494217967 -0.007017654272286646 0.004097470674086054 -0.007852222610221109 -0.00018877788505672468 0.008875367574310674 0.013725611606856092 0.04047259902564633 0.029687461085511308 0.002119310561943058 -0.011716208258626752 -0.028724532536632277 -0.011367681790136726 -0.0020237379585754988 0.005326440139440808 -0.0032789534485538467 -0.0018157708881001453 0.007892329589645211 0.00858576188325597 0.003614318806991171 0.028669290298359205 0.02475673420241672 -0.007904207547248517 -0.0018642823604026796 -0.0021417319839237892 -0.001651169323875938 0.007138091862322583 0.00348976800961962 0.004160485671010383 0.033344040640671764 0.00790716872540568 -0.0010625043506668976 0.005179243691309675 -0.014975913792480217 0.06302159948538953 0.04382517973169451 0.006449777041619857 -0.002875180641906131 -0.013763304397302624 -0.0008302010161942906 0.00520320468633265 0.014390996489617579 0.013888836094157869 -0.007918318266350546 -0.0057305979939597206 -0.007153309691318221 -0.014701671339813326 -0.014118157984761542 -0.002890510911511331 -0.008687377485910378 0.0060482666660500615 0.00880918211137124 0.004312229317500224 0.013507669903670413 0.01028903580730556 0.016756717756397494 0.05088783430733227 0.016203533137356577 0.003952602927450914 0.010705684683353093 -0.009140479668313656 -0.030556439378639423 -0.01031932383833669 -0.003777706506363642 0.004695927724496356 5.7101871125344976e-05 -0.013140885378161857 -0.017130860735005495 -0.016393176053884358 -0.01358617017530872 0.009321154952120455 0.009932268174625844 0.005710253148489426 -0.003368513968312501 0.0051930308815744735 0.024318914460291635 0.0057657792374210875 0.017305088651199646 0.020670527280712125 -0.009032567158441026 0.004296695723632428 -0.007922822608758052 0.0021829022245962925 -0.0062003834291304 0.01601401858173549 0.0028091802262427963 -0.0017304191269629202 0.0057919627839220075 -0.02786956398889669 -0.0040974774749469225 0.0065494048869935775 0.02753293216418747 0.031754400630078915 0.013923448492339454 -0.0016861016449119257 -0.008138987653082652 -0.003977998743627211 -0.021173222606686762 -0.0015307149254885765 -0.00036866060572722265 -0.006195854420727392 0.0028797047242874103 0.010073294806947342 -0.0006065695014930013 -0.009511149951878026 -0.02353312759818916 -0.008937326704244937 0.0016709087273363028 -0.005361357273204527 0.010127937717085558 0.004319712064505316 0.020957429522808026 -0.0009709176380276208 -0.0024332152774922174 0.0058962792735738085 -0.003368033000982332 -0.0017865473493066603 -0.007006766338543985 -0.004652747612911035 0.0011520075132007402 0.034794344086236585 -0.002144230824719024 0.004318108162283599 0.0037697583141438765 -0.017866947349142407 0.0033027277911373727 0.002046943036295643 -0.00103150388701113 0.014269985561956132 0.01621346019156258 0.003271694951806919 -0.010291995135888875 -0.02344188070280118 -0.020580390656480974 -0.01032976668039284 -0.005104391358110163 -0.006325051746560001 0.009312620201206982 0.0166859121902892 -0.0002484795402714871 -0.004605246064184334 0.003587063998619795 -0.007917926347832284 -0.006002890774894671 0.003138810890351401 -0.007907934497868703 0.02015978397650123 0.02896787565870256 -0.013319483420625146 -0.00010224476523395458 0.0002886618699406991 -0.008558290156944136 -0.011078532726105901 -0.007866781276551165 -0.007894868592229744 0.024784486641215648 0.04656324747313374 0.010907561141297383 -0.00914853274824602 -0.02831160372554045 -0.0062516430544930675 -0.0029735853250794143 -0.001903354025426888 -0.004124186467287456 0.007264218233595719 0.014977802423645901 -0.010671291811268333 -0.005648076626423014 0.002022120361861303 0.005736166450629981 0.01537431439472236 0.01006080797970971 -0.01183337854176984 -0.009711374848902238 -0.00513939703441619 -0.012998434770203909 -0.006037147516421036 -0.0012739850028595755 -0.008141626406186158 -0.016175408708905596 -0.016701401516389276 -0.015616613807836788 0.01630718611709618 0.0366062533258789 0.006236807296928282 -0.0067802741861974795 -0.01811180325772988 -0.018133012300636454 0.008675006138587835 0.015159844868342476 -0.0041355895070606 0.03587732747682225 0.0547144695476825 0.026606061491365674 0.02186355335654289 0.0031604998560968924 0.0001752828829307168 0.004447921658215711 0.0016547493227277936 -0.008063186317200334 -0.0010818701127932625 0.002001325991946836 -0.009227549608263929 -0.005583093263166677 -0.005950753935036314 -0.02888962207909527 -0.00929561170962688 -0.006299214930661578 -0.01149408148430876 -0.008830494259526492 0.014691434674839384 -0.006681505636456878 -0.010172286310636023 -0.01310989440690366 -0.029656804589061073 -0.0013414339783928138 0.0014343527316247092 -0.018268107498028867 0.012035322923902456 0.03051745298574427 0.008862560749690942 0.003560216381723329 -0.01585358263409208 0.02339138953552173 0.03230772616382312 0.0239005322849905 0.015107856028667866 0.05351685995238719 0.045320266336512996 -0.0002979189596363269 0.007957141321974693 0.01393224846234323 -0.042349685938328906 -0.015200564307796007 -0.012501395327502064 -0.014150797662571685 -0.011498155821529547 0.0063744919760236355 -0.0166558541567724 -0.018583464217687837 -0.02214216144256065 -0.025348828881165773 -0.008182979500189291 -0.008310597363500576 -0.01737361643598226 -0.000796286984541677 0.012915062403199052 -0.014673115549245894 -0.01986954303804731 -0.019488236895735568 0.0200743585015911 0.027154084206295167 0.0163159536543252 0.006072288307733674 0.03860992237172491 0.03701813853002865 -0.008951180303626504 -0.00040529663116208676 0.008914328779205127 0.01608170663431113 0.01849208354998207 0.009691386601546715 0.01899093908246327 0.05922685117910045 0.013819690423237949 0.006015397074237742 0.020472719027206987 0.0012688409965437026 -0.028834152419965554 -0.011054313144594572 -0.011666567727316966 -0.016030963007040135 0.002564462575464006 0.011390266678187615 -0.017257132339977034 -0.023499884624814425 -0.02223906249049829 -0.029240223968649524 -0.015809360123426947 -0.016634997860265198 -0.02177745073013473 -0.01867569707207082 -0.005637863042798794 -0.01280427893773411 -0.013321384655768344 -0.019579088010318033 0.028634159185931544 0.030431358485626062 0.023466563417914713 0.038286330837840436 0.08455021475335922 0.030977670288584547 0.017959856986890888 0.034185528237753206 0.01339636816565722 -0.029254866844063757 -0.008708402686475245 -0.0034373916470634364 0.021812075958819774 0.015951773663493107 -0.006871925397251602 -0.015181236165054587 -0.01408110530106488 -0.011527768059923811 -0.023745513418498298 -0.012573313292531807 -0.010871101343176714 -0.014169387895781083 -0.007105620272135043 0.005510196301445265 -0.007804243288976765 -0.009858820840865944 -0.01764488130589059 -0.030748859602431133 -0.016521678635205355 -0.00965180152189394 -0.01748528299157469 -0.00689352586349397 -0.009178052146075467 -0.01864142153088648 -0.010076285860946107 -0.005164733546194558 -0.022119653408962537 0.0006066530948305781 0.015284779667704185 0.053446166423973956 0.055236784504452345 0.02745367344286018 0.005807817169895616 0.0006382100508223735 0.0056602086919053 -0.023869674038184043 -0.0018923353558465128 -0.0014468645976855902 0.003871064875441517 0.018117908045641055 0.02225457723481135 0.010219565572442984 -0.0047124501685020664 -0.025280541991903813 -0.015008416511871701 -0.009740481398493967 0.00014047913568553648 -0.0074142141338692305 0.009100499044627904 0.007737313978342601 -0.005809907783193677 -0.0006658989294497456 0.003908852101171997 -0.0014027702794791289 0.008957353562794016 0.002364192342854277 -0.005492602482669856 -0.000540617740726224 0.007216475093845753 -0.005655210940438517 0.001825654707402027 -0.004329167121068487 -0.013265609996743165 0.0071877089697959485 0.00261456602281236 0.007424829771695716 0.030390931954200995 0.03308812078590511 0.017899113072694737 0.0010232230092619562 -0.017587561861980357 -0.00850425613498879 -0.002098851279336568 -0.00036408246409653556 -0.001712276832833121 0.03058242717678563 0.03567570085758642 0.008803310367351361 0.00043275403793233494 0.010027616974000196 0.0072441607828825 0.011373166080090698 0.008120829271837679 -0.0008566709015910008 -0.0007832198763448237 0.009861937704657207 -0.004957246589683757 0.0059292569358290114 0.002122087975769507 -0.03162629113293939 -0.00684916311841592 0.007993278854660528 0.017712413231877045 0.006584915354335784 0.002512564902921075 -0.0015737362269038777 -0.0045349793603122555 -0.004109793649794265 
-2.2602002653485638
0.0124492868855899 0.0 0.0 0.013616493526341074 0.0036785620927695666 0.02075743273573263 0.004631844990789127 0.001179209226292381 0.002196625949383867 0.001425285916408399 0.0022265545823710355 0.0 0.001506732681530683 0.01849767639808727 0.0 0.0 0.0 0.0 0.0 0.0 0.0 0.0 0.01015121073137112 0.020825849620747953 0.0 0.0 0.0 0.0 0.0 0.0 0.012773580140765 0.0 0.0 0.0 0.0 0.0 0.0 0.0 0.025864406023903875 0.012828121680444676 0.014953455053936712 0.0 0.0 0.022073976901598267 0.0 0.0 0.0 0.0 0.0 0.0 0.0 0.0 0.012004408093413674 0.0 0.0 0.0 0.014425062903579136 0.0 0.0 0.0 0.0 0.0 0.0091373305912042 0.0 0.0 0.0 0.010723124037582578 0.017533608965952466 0.0 0.0 0.0 0.0 0.0 0.0 0.013451068624942908 0.0 0.0 0.0 0.0 0.0 0.0 0.0 0.013244104748223717 0.0 0.0 0.0 0.016069598466446334 0.0 0.0 0.009722865404124478 0.0 0.0 0.019544715799157335 0.0 0.0 0.012228964295995012 0.0 0.0 0.0 0.02545467355962628 0.0 0.017533608965952466 0.01849767639808727 0.019544715799157335 0.004609480858436876 0.016069598466446334 0.012977535131231102 0.0 0.022073976901598267 0.02545467355962628 0.013451068624942908 0.0020549712092211916 0.013397929909936789 0.014425062903579136 0.009722865404124478 0.00876290711259169 0.0 0.012004408093413674 0.0 0.005370319612242994 0.012480051057186182 0.0 0.0 0.0 0.0 0.0091373305912042 0.0 0.007295535378560617 0.010723124037582578 0.0 0.0 0.0 0.008153221117929436 0.013244104748223717 0.008096239522149929 0.012228964295995012 0.0 0.0 0.0 0.012828121680444676 0.0 0.0 0.0 0.012773580140765 0.0 0.007121698440632315 0.0 0.0 0.0 0.0 0.0 0.0015555251439999234 0.008105643568459032 0.0 0.0 0.0 0.0 0.0 0.0 0.013530314242187338 0.0 0.0 0.0 0.0 0.0 0.0 0.0 0.0 0.0 0.0 0.0 0.0 0.0 0.0 0.0 0.0 0.0 0.0 0.0 0.0 0.0 0.0 0.0 0.0 0.0 0.0 0.0 0.0 0.0 0.0 0.0 0.0 0.0 0.0 0.0 0.0 0.0 0.0 0.0 0.0 0.0 0.0 0.0 0.0 0.0 0.0 0.0 0.0 0.0 0.0 0.0 0.0 0.0 0.0 0.0 0.0 0.0 0.0 0.0 0.0 0.0 0.0 0.0 0.0 0.0 0.0 0.0 0.0 0.0 0.0 0.0 0.0 0.0 0.0 0.0 0.0 0.0 0.0 0.0 0.0 0.0 0.0 0.0 0.0 0.0 0.0 0.0 0.0 0.0 0.0 0.0 0.0 0.0 0.0 0.0 0.0 0.0 0.0 0.0 0.0 0.0 0.0 0.0 0.0 0.0 0.0 0.0 0.0 0.0 0.0 0.0 0.0 0.0 0.0 0.0 0.0 0.0 0.0 0.0 0.0 0.0 0.0 0.0 0.0 0.0 0.0 0.0 0.0 0.0 0.0 0.0 0.0 0.011432300250986951 0.0 0.0 0.0 0.0 0.0 0.0 0.0 0.0 0.0 0.0 0.0 0.0 0.0 0.0 0.0 0.0 0.0 0.0 0.0 0.01051927746141596 0.0 0.0 0.0 0.0 0.0 0.0 0.0 0.0 0.0 0.0 0.0 0.0 0.0 0.0 0.0 0.0 0.0 0.0 0.0 0.0 0.0 0.0 0.0 0.0 0.0 0.0 0.0 0.0 0.0 0.0 0.0 0.0 0.0 0.0 0.0 0.0 0.0 0.0 0.0 0.0 0.0 0.0 0.0 0.0 0.0 0.0 0.0 0.0 0.0 0.0 0.0 0.0 0.0 0.0 0.0 0.0 0.0 0.0 0.0 0.0 0.0 0.0 0.0 0.0 0.0 0.0 0.0 0.0 0.0 0.0 0.0 0.0 0.0 0.0 0.0 0.0 0.0 0.0 0.0 0.0 0.0 0.0 0.0 0.0 0.0 0.0 0.0 
