-0.0032223369127108263 -0.01277353171248498 0.00027238011591937286 -0.009070486273547911 -0.003552938980503385 0.015323041215427376 0.010254679791354545 -0.006821775299269471 -0.005831642718596543 -0.002552243486591546 -0.004355897563756339 -0.011983712103957904 -0.006644074707522601 0.00020990527786733486 0.0050677174150135906 0.004234267036918536 0.009168477083628626 0.0008948557412205554 0.0008828086933379917 0.003674485420084405 -0.015926200312606623 -0.008206151284932411 0.009866095144514243 0.02173463296309911 0.02271827842057106 0.014812256235258316 -0.006488914011130821 0.01256208940364489 0.0006394361166157914 0.010223785835183075 0.022445466325976857 0.013800200031640975 0.01202978566587183 0.01065279132865187 0.006150324195495577 -0.0007983952411108526 -0.00888036852475706 -0.007163296564859601 -0.018106823633674413 -0.009244635859986989 -0.0011267023786958835 0.005586935850511 0.001536697195438439 0.007540193257888474 0.00011726942293007392 0.022992189581142793 0.00038964701939852523 -0.0017286698569877422 -0.0026948028117671583 0.004151182738284582 0.025737372792803116 0.007291509054877856 0.0022652682917379003 0.003500050135683829 0.003231522642070487 -0.004623207854997303 0.0062089650204700565 0.015379550278335348 0.005249979008109464 0.006675508059505125 0.010356554953513057 0.0061895295995067524 -0.003731287064779313 0.015797786218084628 0.0006594562651787888 -0.009840978521268005 -0.0025322688672502073 0.02308402901159217 0.020937111513625466 0.010059359494294541 0.00912028603213178 0.010403136129066277 0.01702948370344671 0.0011897296655747859 0.0010842903084615117 0.0024800148026422678 0.009286541275407218 0.020401783772932357 0.0032637984554293965 -0.0008057749979982495 0.0007910444691554953 -0.02075872999544578 -0.011286511158825377 -0.004869282409585038 -0.0074673430654791165 0.0046096915613375415 0.020638833065925448 0.010171401985235721 0.010364790389085811 -0.008201808220024816 0.01894915110082804 0.002639074698180595 -0.004469707806363292 0.0032408593827124403 0.029355219594453235 0.022227242424719008 0.014027700609288062 0.01138960150108467 0.013107693114256722 -0.013054696313321386 -0.005341520156819138 0.0041765519142202235 0.014504759396936722 0.0016808536593439555 0.0049069141748710205 0.010523665806132291 0.0026215410821644075 -0.007626190355168957 -0.01964921751664578 -0.007219070111730036 -0.0034221651787856413 -0.00526477328287009 -0.0015048681272077829 0.018577405671543562 0.01084522881836772 0.013515294002199398 -0.006105011954581335 0.03126037771391678 -0.008807591774287402 -0.0049183910259638815 0.004756538162897604 -0.001932077932977796 -0.004768156712571686 0.010694832842023308 0.014849928467388945 0.024872939406821976 -0.011966208357412886 -0.004039580646425227 0.00517711425188119 0.013573017306384877 0.004201148321599291 0.005112115347419211 0.01241486367809336 0.0019564938974134726 -0.0068181360066857585 0.03268258870076556 0.0022773680120353156 0.005875643064800932 0.022147518129470436 0.02568936362752996 0.022146431070160854 0.007792837361776138 0.0026748040463938057 0.017117285595777614 0.017460959000404078 -0.01722884641764481 -0.011720947930102869 -0.003659680871138616 -0.014259640989650456 -0.013262092619510335 0.0035748398814761293 0.009280469689713033 0.01792556701631914 0.02694341583614353 -0.0027265697793399006 -0.0025850055850229724 0.003052862729697846 -0.005983782103963404 -0.009009934384474344 -0.004212974870990303 0.012797315605654896 0.01094791930261517 0.017082632274363067 -0.008112817061174539 -0.004133862006623834 0.009939794865739924 0.0052986934458164065 0.00676898269751176 0.004189708004830243 0.00016874589640066494 0.007971973229487339 0.044613344523384106 0.007634359679293127 -0.009242477338788798 -0.005572035394036313 -0.02208749705691626 -0.007724103322163919 -0.001211764601933678 -0.0012187926192339569 0.012413174518701778 0.035518922828908756 -0.00038956707093880274 -0.0005686921035367013 0.007179564322813597 -0.004681422182770734 -0.01005345758962729 -0.005210559317852804 0.012464975197951353 0.012714408308521103 -0.010113735374529118 -0.013601536053265962 -0.01467729074332359 -0.005164529436797714 0.004723510189489962 0.01696879881464044 -0.0003712621981335728 -0.00445224379465425 -0.010126046615572166 0.055238376989211205 0.009993261073806693 -0.006932212611898166 -0.002679411415919933 -0.01146502771443021 -0.0017602808622770015 -0.001626161053175861 -0.0027130738083919652 0.011993997176998965 -0.010684809607377242 -0.017697426215013606 -0.011503656185931493 -0.006910810153685206 0.00028158100513423715 0.015811820519188412 -0.0040423363040194005 -0.004822615460480832 -0.01606972540738084 0.005182991328661954 -0.00439907866470212 -0.007591715564458923 0.005224128249053386 0.014502131697278682 0.026344210448391598 0.004682400842278723 0.0018422529367099951 -0.004894677227965235 0.009818445281176712 -0.020158327841065422 2.8786722585893835e-05 0.009159287756853205 0.018162826856116403 0.013638782344825805 0.008348629111824955 0.009895891063728218 0.004045620483280808 0.013138692955803666 0.0015983511546339797 6.916562984488929e-05 0.001020875156153931 0.008204732827858642 0.02012674909308873 -0.0006563234027873664 0.004165111642021135 -0.003234120036104965 -0.015344860718370013 0.0003787952136921303 0.0019346230502928817 0.0021797360409144258 0.0018147852272848266 0.009434202184514903 -0.006666055378426734 -0.00037447831240092124 -0.00874032289961225 -0.01299495887233703 -0.003427503054138724 -0.023976904534170448 -0.012471850512101892 0.007780696650259048 0.01814361070335562 0.02115279883490636 0.011664418932261656 -0.009897247665319634 0.0045009697343707696 -0.003919522109746443 0.004410385445935935 0.02019955808610096 0.015858462771110922 0.011860121266058121 0.008601669329565922 0.003419157083232533 -0.006454723068606652 0.018995588902694347 -0.0013852581637176752 -0.0009593402638865011 0.0011694606261079688 -0.0043687037692291784 -0.00820378921122896 0.005357438956948797 -0.0007320631378448066 -0.006982828385106873 0.019925944027269778 -0.009102273019859598 -0.01291984201665343 -0.00865559948917662 -0.017690379668295113 -0.016439941444697573 0.005399427647883064 0.00710022545846959 0.01043595390960983 -0.0013002416027007866 -0.004532269491049894 0.0044673559074882765 0.02187367648582524 0.019934192887593006 0.01480048592953272 0.010138369848487537 0.004024185386160361 -0.008077210714035818 0.013754781142091778 -0.0012266714588101031 -0.011569430480256966 -0.003383686207711006 0.03023884691354576 0.02502656514554045 0.01124830532638018 0.007142397485432634 0.006679933688410758 0.014298136729556528 -0.012070258902586246 -0.016727465522982224 -0.007863823925511066 -0.017528095263845724 -0.014408505342890949 0.007786679904247483 0.009580714770316709 0.012658352013088495 -0.008082264437086479 -0.004484843184718484 -0.009203553670534404 -0.008211386775475747 -0.01082527280024033 0.00029676303963746813 -0.007505669773351257 -0.004598868959716294 0.0029443050065963714 0.009997911263597286 -0.0031105466802487896 -0.009338015922636783 -0.002531740369126801 0.020561215235082773 0.011636251583775691 0.004409924249363962 0.004401339187984263 0.0049808262568056625 -0.01680541677340216 -0.00852357743978158 -0.0007050983328450657 0.0032693753946707008 -0.00547877828864661 0.0007587292737930671 0.005123837344269416 -0.0011747427126830858 -0.012517825903978635 -0.011402352868207902 -0.007853414726707805 -0.011516664040217492 -0.012121997324583494 -0.011715486606015188 -0.002709037977411543 -0.0076744684362629765 -0.008832676066520563 -0.000986788879792587 0.026094374890751438 0.029282892033104062 0.039578111014504785 0.03420759796004854 0.020138023502993735 0.0035715870687493554 -0.004896827830226116 -0.0020312678096266234 4.452503274347927e-06 -0.02519028767297225 -0.015588045032991174 -0.0056468618725075545 -6.918674558987274e-05 -0.01132001698426754 -0.005971183186004259 0.0018392348908347822 -0.006053018616668742 -0.01761762103296217 0.016725495166291775 -0.008535200228257833 -0.003994132907686469 0.005801367482057446 0.004063947950585171 0.002253445719998593 -0.0025993921194930668 -0.004306562205260771 0.0018708317162674337 0.0017418638210679317 0.0187205339390112 0.03810066444135729 0.03314182674134124 0.015882460849281167 -0.0037926628749136654 -0.010289951382257377 -0.00798503655075043 -0.017375361079741934 -0.003944541372908408 0.003317433165844822 0.013892746968349459 0.022565641804593778 0.02682158122959774 0.04104980840591039 0.039732701624737715 0.011046057387893155 -0.0002451790600977227 0.00734093896014278 -0.016236299628884843 -0.008748388724767884 -0.0008319311709275998 -0.001762594879681049 -0.0007253591174343006 -0.0022540666432293186 -0.0037612851913430938 -0.0015679659272129958 0.036513139093828716 0.002274424276956955 -0.011681169506615224 -0.008864772595842783 -0.016928630742961047 -0.013242799484155996 -0.010283291763971766 -0.010490562664106393 0.004287907730320271 -0.0043697956585883446 -0.0009122429327226091 0.009529248724009357 0.014755032170425016 0.015539519676241176 0.033664519412591895 0.03731507076077251 0.007605374506307308 -0.002313444716921869 0.012328576003187493 -0.01102686295410224 -0.011690686768313132 -0.011896430895866597 -0.009793041712691452 -0.0008182622510614548 -0.015566860616446689 -0.022212179573646122 -0.009654804521896944 0.059443506991341204 0.011222464061133997 -0.005782852304385194 -0.0017433393400331243 -0.007791715473461122 -0.004929873677100197 -0.006365949330902242 -0.008196276941655516 0.01173553836586641 -0.008637537876135234 -0.015295772596458184 -0.008711989466842304 -0.005249574431311377 0.0036181940345536047 0.015509902313116716 -0.0026396856613065526 -0.004117961048618 -0.014164631788195554 0.03702930861393476 0.0014114081954426658 -0.0029664496971835174 -0.0048630554682690345 0.003242046258251588 0.013607414004177107 -0.004576661630100313 -0.012362166509906881 0.0014825509682124208 -0.0028820641839634852 -0.023164421077708684 -0.01658390754111517 -0.013818333993694726 -0.01899723591103587 -0.006158161864489539 -0.012445126935085971 -0.010179758350117437 -2.1501390925068734e-05 0.01342546813153717 -0.0010989511183001782 -0.0012881498889940484 0.0024626399502646733 0.013923853679939974 0.02286352792423986 0.004694353588497268 0.005962799032651072 -0.0023956878950124032 -0.01514451554049448 0.0037840629965507954 0.003348731945712817 0.002366522900828656 0.011387325808342029 0.021015129193176166 -0.001604414422710335 0.002162970612731876 -0.007004550198193793 0.01405999670069389 -0.01132328229773896 -0.008089908734145428 -0.0044644837444477265 -0.008761202944799833 0.004694147339159791 -0.004394953259056906 -0.0015772230035064373 0.020148572498118616 -0.01981457505182588 -0.0016665461328124317 0.0015095653426749683 0.020370550520455895 0.017552943541192675 0.011693049374046137 0.005131757893678058 -0.0048877906142469835 0.005720049589889493 0.021431657370226145 -0.0015176119929229028 -0.0034109255241148314 0.000330353877640488 -0.00116732433494127 -0.006349176078846476 0.005168250578087295 0.0011061189976199293 -0.00643824455399131 0.018022903612533746 -0.007476864637152149 -0.012987660502997534 -0.0029848066984212002 -0.010361166629951537 -0.00812721020011576 0.0035906252522709434 0.0018586796798750536 0.004268873018994308 -0.003470763090189495 -0.0038974068582615746 -0.0017558977454157122 -0.0062693451538815064 0.011303203204998852 0.007227893024840632 -0.007108525516582013 -0.004459953129203022 -0.013451000840438265 -0.007829314012977479 -0.01210688903225459 -0.027251785595771804 -0.008914631461538997 0.005870051026953576 -0.00766101248567407 0.001235582149807119 0.0018453058992521111 0.0004171186773203762 0.020194143291087853 -0.004984925711234619 -0.01000029819021887 0.0025807079510419364 -9.614675898981346e-05 0.0036418373441739226 0.00886552184974116 0.006521831773373208 0.010687469774499777 -0.00504438609102828 0.002818116646816087 -0.0034416032700642896 0.002699745428310705 0.005712784900265142 0.012621658584713138 3.658401572908035e-06 -0.002411022961365934 0.002655031057773913 0.007604567396282143 -0.007956837895675698 -0.01767600976770974 -0.0018798380195091213 0.014050530383177608 0.004366199301584604 0.009906457738470476 0.006613843187365843 0.006423264524850341 -0.028642879725676022 -0.014832295246542324 0.007146082191429673 0.005757841331623483 0.015012041918001758 0.010488330840371837 0.007820751450660204 -0.0010329964587087524 -0.005908817729524097 -0.005811471967069678 -0.0007719535528737877 -0.007619595310496184 -0.008183475815147946 -0.005454022864698489 0.0022666613779900044 -0.002568309761238361 -0.005363612145145302 0.0019899811867118184 0.018093198828063716 0.027449121922120998 0.03925550344483432 0.03425551552665995 0.027146661481736462 0.009722544506436717 -0.003627109801166745 -0.005177749019639648 -0.006137042855804558 -0.037876281995073195 -0.017281457708050757 -0.004122068755275506 0.0001457614429241749 0.008540087678300206 -0.004049953656824595 0.0011452113389825162 -0.007983945589227714 -0.011601955477185536 0.024938614200375016 0.013608013375067457 0.004037024879874658 0.03268893348360443 0.010025920935021894 -0.0124179212789479 0.0029277341065493583 0.012917273802632216 0.024174359891302077 0.006135494859896167 0.016195458650044684 0.03293553601933332 0.030764339756200555 0.018004251377062755 0.0004618102831753408 -0.005983391516111102 -0.006952237341376188 -0.01277431164246529 0.0043029120076833365 0.006195495181979405 0.017216686262278538 0.025760273370488234 0.02787204550975497 0.031397963035189276 0.03178292259632417 0.00805077612020238 0.0024896580880454746 0.014613865087939368 0.00794513379821918 0.0013511354936944274 0.025509306492426713 0.0029481889572674034 -0.02202199941500306 -0.003524460650653279 0.005376004336136746 0.013570714445551097 -0.014559446200305021 0.00594859566044943 0.005899090789915087 -0.002031424879770277 -0.0011003848013506484 0.010549835843017481 0.009223581671061814 -0.006384670874632066 -0.01587219080745324 0.010557696178508838 0.007316184459873464 0.01758727269995736 0.025061778386417384 0.02811584018473809 0.03764147970547778 0.04040126847125746 0.01493328306283593 0.008028378823644744 0.023841658195450574 1.4138260747757932e-05 -0.001923031504519485 -0.001355161883252494 0.0035980979031059327 0.009328654759324291 -0.010302632250330734 -0.020067838776055585 -0.0019086598028396633 -0.011709658580940516 0.011070346419709724 0.014525183642401154 0.0039652217410017345 0.006048442383244641 0.014963871257691296 0.010747156817108241 -0.009196911362262325 -0.01424319271787745 -0.01482768332725941 -0.00819703568226741 -0.006585314351089428 -0.011003044187286575 -0.002896056565921898 -0.009336336583921917 -0.008018813085527182 -0.00627938793312552 -0.0032629205690487017 0.051763768293648094 0.004251214592926459 -0.0015091208790920763 -0.0004450849137142798 0.009815909020302369 0.019129751482115268 -0.0031321759980714415 -0.014650710456050469 0.0064891878436614215 0.0006356527549259525 -0.01578499581637806 -0.009495786233318284 -0.0016179735435433813 -0.0029341998357817565 0.004303391093717069 -0.007332960134394548 -0.007688572849708651 0.00042395056958312316 0.0011682061038910186 0.0009637749045639659 -0.002196757457316888 -0.008840904410079774 0.001988017856340213 -0.0015430215741442555 -0.005183229469809417 -0.010834387733866366 0.00085986915444168 -0.009759167507577438 -0.009357600495528164 -0.008173648371274362 -0.009836533043580708 0.011796984818914596 0.006559180492064346 -0.018046423709907233 -0.02727236970088212 -0.020387234191385967 0.017489284807291554 -0.005706790273047628 -0.004029702645206822 0.005388520209078061 0.003608702115081629 0.013589150157716116 -0.0022756791766234737 0.0014309767316468516 0.02207596661985812 -0.006023877346248656 0.003582972096224363 0.0019824264609163873 0.020157550122380342 0.02256198471765904 0.01646632542750057 0.006190382172569035 -0.0022652812254678385 0.01192627699477191 0.00582839782218098 -0.0005439737298067609 -1.5361897863070003e-05 -0.0010972526548403687 0.0204951929419847 0.013407715645625408 -0.016574142060875006 -0.02484790516917397 -0.012734109536812456 -0.014812772905448642 -0.009552027426827597 -0.0041869771976774 0.0013106702254806102 -0.0021539913352881124 0.004681232218521234 0.011947425956006636 0.006880719991548756 0.009207238463627818 0.0004405800387908762 -0.0033282835218039963 -0.0005735038743051675 -0.008150082743943738 0.009696085996081735 0.005092674177870063 -0.006301156832148351 -0.001349021300435611 -0.009603059329880068 0.0037063759039780474 -0.006591295087980213 -0.02202934987983681 -0.007449324407558763 0.007839836716836187 -0.008259532048675664 0.0010632214068175198 0.0029094416991290455 0.005351635206550878 -0.013335084900183236 -0.020908726598140567 -0.017743511229129493 -0.005901815804669909 -0.004545364653253108 0.004011800186415867 -0.01035937085825158 -0.014196477204708185 -0.010841348889768109 0.001461920036001687 0.005059744774200314 0.004434961129231264 0.002127109449125555 0.006845117286627228 -0.0019848863856520246 -0.020262724859425388 -0.005142997516614502 0.0030897871313759584 0.005751388569761866 -0.005314348870516567 -0.01449729169300347 -0.003243853816853774 0.014049978986007168 0.0007539381555607104 0.004947514900611429 0.004609185411829486 0.005530384119258441 -0.0207558433900959 -0.013258846237233984 -0.0016694762975627084 0.0016666259007095932 0.013313987072210166 0.004235566353631905 0.0020507913177808318 -0.003101703305439377 -0.007354280855513317 0.008799215324463396 0.005675066524188662 0.0044539338526104885 0.004914998976003932 0.01193265066662311 0.002781807149529745 -0.015867344238487065 -0.0025215241757653474 0.004838484231734885 -0.017690718497798186 0.016083430660313043 0.028591648096289255 0.04911066888034297 0.00591767132720958 -0.0095230843454875 -0.01729824552440394 -0.019498922500948642 -0.0169450755365079 -0.018790604526625263 -0.011804536945294243 -0.0021168452724722063 0.003871917489101063 0.011864524897266384 0.0010061014472850546 0.0053113326111563055 -0.0022023467651994763 -0.002570789659307855 0.027570080748995224 0.01670633200209697 0.00834785923546944 0.0362796476850082 0.013565312661791224 -0.008096143272479407 0.005014266054937095 0.01584277229576934 0.024483401100144554 -0.01928321169124641 0.011345572816305518 0.023230871448554426 0.04712096096373741 0.01355545834772293 -0.005514716232315389 -0.012823422108907237 -0.013894238120127848 -0.012828702664673836 -0.00461032479779673 -0.003063363445996222 -0.002664129552525684 0.014380652521952246 0.007968847698075765 -0.00837956109739694 0.0003202733930357261 -0.0011799745609633648 -0.01599903934054141 0.024152154850272754 0.012692398907833673 0.0071239531857825835 0.03636564029778359 0.010337748931925232 -0.013362185914449506 0.0038166148093307455 0.015878392976040583 0.024065026179021818 -0.005226924331199712 0.015047252776425598 0.015396300910932019 0.008574444314675243 0.01228062874294909 0.019711836304357813 0.01910261919033912 0.001864839185436438 -0.006291596954358408 -0.018180886919129835 -0.012560844316444377 -0.0099762186883224 0.012859831622943614 0.007558336861751558 -0.007139988407169869 0.00155997605372905 0.0002384501509642464 -0.020074220719004054 -0.009176509800184411 -0.005687098436975652 0.002660538453672268 0.012348155906663626 0.008591075519318073 0.0012812550186509465 0.016479708936770116 -0.0005793233244256882 -0.01660710653714966 -0.01168615342366978 0.013067675270170089 0.015864285033633338 0.0077362581944858694 0.00994389928536217 0.019376305615492025 0.017419694799222892 -0.0023391005023766544 -0.011430739234898877 -0.010766643602072905 -0.00964366916978465 -0.008612922813536227 -0.009795609622889747 0.0004056606199962986 -0.004278450488233005 -0.00523909388398042 -0.004071541173723865 -0.0020343534185387124 -0.012675066804458974 -0.009876988622003889 0.00025166481149986467 0.011769069111229514 0.006181096962040139 -0.004574039331690283 0.014331087564153529 -0.0013295302577315277 -0.021159452413151585 -0.008353309085412014 -0.007777365767051432 -0.0005497354429935921 -0.004891336239998752 -0.014815560450088763 0.005657251748681289 0.051782170068917305 0.04943465471953062 0.02207975445942765 0.0005226645116553825 -0.0030593447914439137 -0.005661845716347773 -0.008224896720599005 0.007208142557558588 0.00033022662407286834 -0.0027037135067955642 -0.0016331524503740555 0.0031256995981627724 -0.014760294658266497 -0.015681673905338946 -0.00872914706765558 -0.00764880592179577 0.01665844485224586 0.012048883565176636 -0.013873030339041343 -0.024294658319455188 -0.018131998753621086 -0.008569408915676806 -0.0055443081541053305 0.004349734214651854 -0.001147342061195616 -0.01191705955414082 0.012668264021085358 0.06684058825514794 0.06315350916400767 0.02483836512706035 -0.03126269078812734 -0.012994609565903018 -0.013997138163695797 -0.007936487871961734 0.0005960258567206207 -0.008044714321265807 -0.00983078252012455 -0.005862382049767511 0.001581367456720528 -0.005483811817462953 -0.012571979185243195 -0.0037768399267408322 -0.0015692231251871905 0.02642248913045026 0.02150810949790805 -0.0066252384334841916 -0.017955349956176085 -0.012640508506646735 -0.023719954996727615 -0.009099685677332452 -0.0007686995679576127 0.004005394762336537 0.0013998762103736738 0.009657984420806107 0.01401840601856207 0.005842176819348434 0.005869902912030053 -0.012806617053729383 -0.0006849816146218517 -0.007461061267426144 -0.0044167587349909975 0.009313777152578265 0.0022567865590941358 -0.007465958282192951 0.0007778507717191331 0.022539147202400377 -0.014494742634573596 -0.006141339347476153 -0.00315879994049137 -0.0024491286893272204 0.022722751921208706 0.02880108793253521 -0.008514353247007356 -0.00780684727555902 -0.0015648937085636359 -0.00934052081210123 -0.015414266299164786 -0.013257245498671175 0.0009327951333237376 0.011049378687499714 0.020813065636729224 -0.0029548664688163182 -0.008043505368237254 -0.0046760769678132145 0.007688195043551509 0.005074302558084916 0.008812555137654991 0.00962177799533134 0.024542359638414005 0.012729096046963123 -0.011969749645456603 0.001969529467452516 0.009692841776036293 -0.0136570241276811 -0.013777195255312112 -0.008816802328075626 -0.02070265440230929 -0.017028173069499514 0.004003065499756906 0.006417064755417984 0.0012040535651894092 -0.0014853794602846463 0.0012510858646083431 0.01808248761964029 0.0035823996366142544 -0.000967155003208809 -0.0019475625978169911 -0.008121766520560483 -0.0026949385069169993 -0.004733457289495107 -0.014992190056802083 0.009300870348246641 0.007132516482631707 0.0076999636734272235 0.008331109877101308 0.02069791842889494 0.013234801871007123 -0.008097828979193226 0.003288536134537615 0.009234060271394421 -0.014933593962475978 0.017972820702499948 0.03393061515124866 0.05113443512762517 0.01950063322423526 0.00015787804500214846 -0.011711031643662828 -0.014208085796201978 -0.010326120441277809 0.0066706851023151555 0.012510744650218042 -0.0038755090987796425 -0.0036430315646002786 -0.005908417613395611 -0.011065866184678114 -0.0053344232618005106 -0.005056282792423633 -0.006126874742908461 0.0002444004836419109 0.025185271442563925 -0.007693468115092259 -0.012919660687517837 -0.01492599506383943 -0.016879570923961116 -0.0025182799319764465 0.007366186610273494 0.006586824123916152 -0.017723649769653356 0.016097556826715986 0.0342202379395178 0.057533956384464915 0.02916403059214883 0.0032077341862610555 -0.006543262350758491 -0.008770535884380213 -0.00896742581787188 -0.004301493694233366 -0.001731510666067936 0.0009002912886806524 0.023257299558813734 0.020757814426167847 0.0044380547015273235 0.009286603406008386 0.011870222710599001 -0.009906418896054826 -0.00469427193165486 0.020287176323696195 -0.009431067479820131 -0.0115506171097898 -0.017275968787561567 -0.01742163486817064 -0.005096509781928194 0.0013814665346673547 0.00039007264864352603 -0.003409103136816199 -0.016580390431222752 -0.009812087108735141 -0.017562150828324248 -0.015911782064526044 -0.009341418457946282 0.0015905160165738588 -0.0005826847688004578 9.334178188717798e-05 -0.013125437784693085 -0.004479174148939644 0.0023449990930471823 0.03722433887387902 0.035880150888379654 0.015230917462612872 0.018460819839327212 0.017136300956417303 -0.009643167343759107 0.002964641083322756 0.0044713365867036 0.014429146022632958 0.023728516783718578 0.027661054367172568 0.026334125974076136 0.03637111551965408 0.011605145361642684 -0.0017710857829482682 -0.012468514876557408 -0.015747338432400337 -0.011777699078333728 -0.022671639017237823 -0.01609601574300212 -0.009205779764671608 0.0035351959924661844 0.004437863798207499 0.00014669743578439197 -0.03849621114732957 -0.005353274744652081 -0.0010627080733417182 -0.007124212943107623 -0.012726032401615526 -0.010105610476930755 -0.0022300362871944977 -0.010272492678393823 -0.0285928515364493 -0.0063188208798066435 -0.0028639237565620756 0.0028262546527656946 0.014817556075610912 0.013848063666234166 0.010295713545098017 0.02180030637159648 0.0027844807509302123 -0.01261852879220621 -0.0035999025896942 -0.0033884754763749154 0.00027975485345423584 -0.0014752651355634226 -0.006572406669050833 0.01578022801922207 0.05823702145385229 0.05527781712564879 0.03056837224998414 -0.04027991768244313 -0.00671700792557931 -0.009560451323591188 -0.010586126942351701 -0.01609081763628429 -0.014314846308596654 -0.005917421314264316 -0.011067789635612271 -0.03475085046206339 0.020048672093080633 8.413973593141379e-05 0.008110269574932723 -0.006697199772733877 -0.026498101166772623 -0.02082297818186036 -0.008533277887862645 0.007977978826342054 0.04168981817803692 -0.008573923523074916 -0.0034836680442771155 0.0036223086636866567 -0.0006129627362693632 -0.008810061335820267 0.0148932906676367 0.059331758617984134 0.05471267657612257 0.02744946898677572 -0.0320264945295413 -0.013132846368852716 -0.011602421174134295 -0.0028685012353707497 0.009953461684575126 -0.0006562897218531121 -0.008451682075074903 -0.003955085654940353 -0.0024406054615563532 0.016345319017144182 0.0023917822554184727 0.011541131233022346 -0.005928751764438527 -0.02540083621773192 -0.01956269134157783 -0.008086923168010388 0.0077578441096449 0.042122174739001275 -0.025306991980006 -0.0038113069378204268 0.005346187499801758 -0.005952153023905403 -0.002620272947939246 -0.011283134516622616 0.0024735973412941233 0.011116187222054453 0.017407060068863393 -0.01268912842529867 0.0016076503720209752 -0.006222137499311642 -0.004558494534584771 0.012772673927868365 0.004072387407073608 -0.006655451240148614 0.0022843699841474286 0.009660591212227126 -0.018982124342537425 -0.009493517200804442 -0.004850420556991274 -0.0028647314816036646 0.014944159586040234 0.02240269723984854 -0.007760736544347136 -0.009092730584797221 -0.004328967761586853 -0.012055764849711886 0.006856941828754816 0.00847807956078233 -0.0025023897068759166 0.015209694208144837 -0.0038612396341511602 0.0026723702448400773 0.019375975876624263 0.03145774737572792 -0.029110654610930126 -0.009021383532146095 -0.002421695362279435 0.00011901183491310873 0.030154199219312804 0.034063278551364484 0.0013861837322505224 -0.01001235103927499 -0.011537413150418561 -0.007468575674201044 -0.011316438750218715 -0.00844376301034309 -0.02206376945260626 -0.023584835088509976 0.00042240404837487185 0.004879815038409481 0.0018545881040176989 0.0004778368936107983 0.0019841565977357103 0.012177746897438694 0.0027080531762214096 -0.004421918471794689 -0.009213729957012359 -0.011005046597234489 -0.0030534608456570388 -0.002054269025716349 -0.0073492246891432335 -0.00020053886194076583 0.009268707166335346 -0.004985506007498087 0.0047864210354792245 0.01854346382543187 0.014629343791636515 -0.006606816427046562 -0.01220955437896511 -0.012609354447503156 0.004531596396557376 0.012590131134822737 -0.0038087832269647877 -0.006200743126111069 0.012253932669495819 0.00891318184401035 0.005966736754279132 0.013333573385205074 0.0016441292600112866 0.003913855961410471 0.017743394335379612 0.0004923006727670424 -0.0046752454271995186 -0.009294011245865035 -0.009841500465814234 -0.003039774429817051 -0.0017480410970598685 -0.0039604032405979196 -0.0027854907323404355 0.025121953102835562 -0.008602855433921825 -0.01699504123917029 -0.020558122031866854 -0.021880512330622295 -0.005773476724184423 0.0036514853833722757 0.0028029683345153766 0.020871037218217516 0.012988943381078944 -0.003958985369751633 -0.005735978184506517 0.008423016463230255 0.006422079542527656 0.007186984034200063 0.014809797654282489 0.004090851090090336 -0.0025197102853054465 0.016607882674982803 -0.004665904378650464 -0.006635659116507449 0.0047970718076268066 -0.0014679679210121146 0.007322428120139316 0.005185063524497841 0.001507375967407317 0.013285697433163334 0.047854252679960435 0.005605443863489264 -0.003439556914277799 -0.009265909005588532 -0.011314960713767622 -0.00035488557921082995 0.007623313292822017 0.007135331003624669 -0.001333255153135681 -0.00777173621278424 -0.004964189365970722 -0.013300105056968993 -0.013423074561547964 -0.005936357792575533 0.0073889380673035415 0.0035484449742320323 0.008883241824885084 0.009477756328231484 0.028639447818699156 0.0030594110830342207 -0.0013242981675361542 0.004189223242732825 0.002581022624994043 0.009440336919633837 0.007257617635551929 0.010411727496463713 -0.01677499843488371 -0.005412279443442963 -0.0031020907618549837 -0.011056635586278726 -0.009472029386328521 -0.007379357938200306 -0.003240068894248782 0.004501785211977585 -0.012075680234393094 0.01285851107273531 0.0018875957756474943 -0.0011517778130491314 -0.011870924667757524 -0.00686690171754874 0.0002672373388836946 0.018861237858301783 0.02599032123299466 0.027849272357051397 -0.01680087064346386 0.018944307307155815 0.018263356284534234 0.004765262679768519 -0.0006266459975906582 0.005577916863334461 0.014394255097787396 0.006201805087240645 -0.0042977354791571155 7.360507828335118e-05 0.010796046618530113 0.008807045535397497 -0.0026079626902945074 0.00031118297923434944 0.0033145596684747273 0.007106009810051061 0.012343437995219055 0.00107656519224796 -0.04039002574011564 0.0025290739211801974 0.009745604297175843 0.005643283240460949 0.004732288838279121 0.008131344486490815 0.01555896512414446 0.0032723013896452436 -0.02223100566702432 -0.02731154094882418 0.00388635159696855 -0.0028605775624762127 -0.004600232358154575 -0.01159000028560989 -0.0074075513825196 -0.0026877241399348205 -0.008397726280451517 -0.025667512178113888 0.04072245628080012 0.01201100927812742 0.01623848538018193 0.00046299183042928637 -0.02017277792235807 -0.016780974117051622 -0.006627073759060281 0.0148188371980592 0.06199829516661557 -0.0509588348317299 -0.02004647986070434 -0.012783027277537821 -0.0037637314126312883 -0.0047466151080743455 0.00019411835882021666 0.004997415193330715 -0.010812060703868955 -0.04076619585275142 0.007693666682583594 0.015051561350691245 0.015779877848199664 0.019954700965442336 0.020757882504013773 0.013878345406275425 0.007019771327810526 0.007414461608866756 0.023540352246474838 0.023485859166969558 0.0038113050629511517 0.011942167837688469 -0.005495679603509765 -0.02367483001581936 -0.018378568950102224 -0.00730524168022008 0.007736142792210427 0.04784123842300325 -0.019828834995165256 -0.0032396122266375366 0.005047569043027459 -0.004547870011804067 0.0014184108590038233 -0.005078771956507081 0.005139279910984408 0.010687136226375064 0.020120927975150044 -0.0027218056929797447 0.010849721482434278 0.011532423252218404 0.012548509900804437 0.00999908418130645 0.008493473751331419 0.0015027774516451942 0.0003234532488229806 0.009714998320790109 -0.02517136464808673 -0.004069684009027479 0.004325283884811383 -0.0014073731050460894 0.006676770904621685 -0.001820734419068516 -0.00990635811143125 0.005695283952517935 0.016409505889844026 -0.00975925524732479 0.0031998148747836566 0.008829353390765673 -0.004679761106909268 0.013318272126526299 2.3940519113569043e-05 0.003673921343537483 0.01471122331900283 0.02890833415102562 -0.03090222814259412 -0.00780195752708857 0.00047758445336379694 0.00039155849726520424 0.03031600694958452 0.031792427285059176 0.0011354170651643172 -0.011024810279836835 -0.014363947835255624 -0.017392807013143937 0.00237010675146118 0.011619466536333766 0.0005446653587484048 0.00927859536726891 0.0075212715757006264 -0.0022454519489069746 0.014436031242717336 0.031805171936005745 -0.049535963236036984 -0.018670400976352208 3.678236187626684e-05 0.005918072622940598 0.021581747839148888 0.020109389493288835 -0.006711857311996375 0.0006092509056001487 -0.019838432139724395 0.006204087255086532 0.015067836528202292 -0.0051692808229899054 0.002640819833024399 0.010755367860027704 0.009178958100333787 -0.007903857847197125 -0.012350807128176247 -0.012060886533404095 0.008610742480753133 0.002736233101700439 -0.007371060882562629 -0.009572250006754393 0.008999799562436421 0.006949819816672437 0.003139122877101191 0.0093229293149764 0.001641897514072464 0.001566900479677394 -0.005451074629423494 -0.0012915439663680316 -0.005140652124176515 -8.872824108884035e-05 0.0010320463483033282 -0.002055650926136312 0.004579566224590952 0.012211580819965926 0.012029653979972707 0.016567975253813184 -0.0038246785957710967 -0.008126859017280375 -0.014180766542650483 -0.01511880115681446 0.0014052821784675104 0.004838820157585298 -0.00962710761718695 0.0195137978418837 0.005693332492879486 -0.005728708821106076 -0.006863131835552028 0.002667378656090144 0.0005857738342484438 0.0031685828259390278 0.009871708027141525 0.0019381534654497067 0.00454654384430018 0.012316103189749676 -0.007520812376678472 -0.009143655772478517 0.0015735726356552438 -0.004483929216497193 0.00647140848380136 0.0036103009433407895 0.001459489288617213 0.02856607802337403 0.018847819808350607 -0.003975023874351846 -0.010034480536135404 -0.018650637903283203 -0.01739098711199751 0.002966538096533338 0.008137267717880224 -0.002483440247117277 0.008044726807899045 0.03835045858483711 0.004534078528885893 -0.004341635956425479 -0.010115303872285524 -0.012743194023585645 -0.008093407715863041 -0.0073529317582181715 -0.01233076542487959 0.014588056168081683 0.028841080818828385 0.002703210881782374 -0.004012585631977704 0.005200126165131576 0.0011242295928905943 0.007965823939184428 0.005771634445091417 0.00786619619973219 -0.01202604643631944 -0.0034223769280991587 -0.0024584306477130656 -0.014571981148375244 -0.014336037692903474 -0.010144765406746923 -0.004563622921743296 0.0037593072215262604 -0.008427248753380941 0.02535832349511458 0.048563492717449586 0.012927513442459257 -0.0011670610042422032 -0.009423227987423136 -0.010641042765130254 0.0018423894543727634 0.012928146445440093 0.014367836680073583 -0.025675705846918372 -0.017053098372176095 -0.008423884450330486 -0.006845777377899124 0.0033168607235274086 0.011920372254703694 0.0076539488677585055 -0.0011416838878885588 -0.019783570859188155 0.00020847309247500403 0.014333055249826008 0.008791749615809164 -0.003643764104596809 -0.005076944958879729 -0.0018238382436153032 0.004670539810078532 0.012896896085927785 0.003127797912410124 -0.04363863449682736 0.00348134880171096 0.012006164495790525 0.006174003510823325 0.002068804999666788 0.0043158057615522785 0.012124553939029786 0.004529289436210505 -0.01926762276546091 -0.02152710079160581 -0.005954047466309043 0.004013348427707848 0.006360815025516552 0.014834322532155516 0.02016570339737653 0.018968709771786475 0.007423814637039814 -0.015235788840837431 -0.017740072308920336 0.015278972091180827 0.01490878395760454 0.012513352847774935 0.020702233603407307 0.024446357760324902 0.01561169388798172 0.02374537312105253 0.019432269949957264 -0.04521184534160504 -0.016922165226099385 -0.012913629059718325 -0.004896520087178245 -0.007236242101473087 -0.003921498830743504 0.0028788265159214793 -0.010038013344503332 -0.03615881285522082 0.010248561354973184 0.016502383640975542 0.012120042886578067 0.01360973122392596 0.01615678831867619 0.011968871497156995 0.006632463877791967 0.011260651297603527 0.028272648128669503 -0.03723714596305621 -0.008827367863675021 0.0017719827725944963 0.0032248332952381237 0.012500892348852453 0.014604404037878844 0.004216567688138585 0.009843028264447915 -0.006701970158408191 -0.00880870626010171 0.009686726451513524 0.01669611784902724 0.007386549279224225 -0.005122173395721946 -0.004391720579738945 0.00880906346029038 0.027189096415735678 0.026901895361772846 0.007274453238585736 0.013480655763469539 0.012252481320911774 0.014157852284929058 0.012461492670605655 0.009693905775110529 0.00455915935503868 0.0037810355182974183 0.017576084882112087 -0.0247938574976826 -0.0028361865080587757 0.0072814866821671745 0.0026632209637710356 0.009019255684970978 -0.001125788964065011 -0.007766072123770906 0.008681254778438485 0.02071499715291135 -0.006222770771023644 0.01089899744620433 0.012266969142884736 0.0029968107609768526 -0.009530800732808493 -0.011868598954172627 0.0017133936438249765 0.017938299261944738 0.01621824194449479 -0.023137272686065306 -0.0016289287175062354 0.02412657379753539 0.007786821671178639 -0.0024907902777510306 -0.0016785249770671653 -0.001264108477529818 0.004981223133173021 -0.007301583338657634 -0.01831915089444212 0.006103484481878399 0.016016196684587692 0.005614256974842426 0.013043924841166059 0.011289079980426423 0.0008006770494368876 0.017903171147994702 0.034269694332216084 -0.054620821975832894 -0.020217212082371355 -0.0007626877977601004 0.00935384027960079 0.026533517158093635 0.027010021294690444 -0.006119013751656206 0.0007095710206722384 -0.022186814612189732 -0.014582225088766996 0.010050464994511987 0.03524688890737655 0.011944210819815717 0.007243442224027271 0.006709210372711071 0.0007511189696162881 0.007566852457929131 -0.0035246947961060813 -0.02262182168081196 0.0010784031656765867 0.0011726482857099725 0.0009114133521064684 0.008925886605201456 0.01567067044866782 0.009144342462236521 0.003476745287830397 0.006776409157720858 0.0031296685289329425 -0.0031447251125322896 -3.1307137534531293e-05 -0.006052850257715963 -0.0005026421845497578 0.0028002701475476613 6.335485150490061e-05 0.004542994198785972 0.01194528009917003 0.03578917804568003 0.0279785297402636 -0.0013465131537023195 -0.006056364967452481 -0.013357055811480133 -0.014779924724586552 0.0008975316886575711 0.010703700800856692 0.0023957089765210384 -0.008988482388986061 -0.008304561097520542 -0.008146437712438236 -0.018139576361685037 0.015632965501241408 0.02059013554424294 0.0012823519349227728 -0.00583867563084001 -0.0225320016559889 -0.004721104824619543 0.0026760212270236917 -0.00019010695417833232 0.0002482849905560899 -0.004076619640777284 0.018396982406618037 0.016285092844859857 0.017980155708276074 0.02036162362156793 0.03718137247151419 0.01851862309056384 -0.0031157833120881878 -0.009695086708648746 -0.01735003478152559 -0.010638133672612954 0.006863269708049792 0.014168909360854997 0.006470857866565838 0.012853314264097082 0.040792037287551576 0.008877988576351295 0.00015123342491227693 -0.00457376649387771 -0.007318824319937934 -0.000469085099327108 -0.0022871329824110465 -0.0069003728482151345 0.010896723868804893 0.00433055929786705 -0.0019185719274506837 -0.002753662723759655 -0.008951623253214882 0.004351383450457007 0.007564186262198265 0.010848950168240173 0.019767524363879553 0.009975467160399069 0.02137750941917368 0.0027285932801206546 -0.0008472998883430687 -0.012711899778011189 0.005760538910742778 0.007953928325508305 -0.004370411324441166 0.007605584992243055 0.02173552688289792 0.045328061081910606 0.010734527153987388 -0.0025079421768503286 -0.012107896906030632 -0.012391463351528605 -8.984684143365618e-05 0.005251195301230259 0.0053966185154363435 -0.02159851582829429 -0.014123192492673835 -0.005353727642253605 -0.005562642811307347 0.00016023064271781184 0.011528400391589342 0.006487064991532776 0.00045351577616008893 -0.013580632372014258 0.025071492266424026 0.029104390005447168 0.008521645080335346 -0.002398337939909516 -0.014505947935365674 0.004484567353453876 0.00969547866019156 0.0031834814812466933 0.02085220422511804 -0.024691100009747488 -0.01483685850535434 -0.005889565247226468 -0.007903635840450457 -0.005475057889846352 -0.0027621568624619994 0.0041276139518892875 0.006014477560063258 0.00017769752670056857 -0.019943918975196408 -0.006987020142684392 0.0017163912478519957 0.0016250725884014209 0.009639591443512086 0.017743815819563455 0.015419537961737957 0.005556666812347284 -0.011577925535986956 -0.021707439719357652 0.013908065980817471 0.016092539521740574 0.012869678062966131 0.01905296899396452 0.019772719677362438 0.011615088952114563 0.0191610298377113 0.011499808511878092 -0.024397200189945352 -0.011428633600178725 -0.00208709947609575 -0.002533790819452594 0.008216662997402976 0.012880618274244832 0.014882698968918204 0.013807564001754575 0.0062081351692745155 -0.012998058206610286 -0.02269813013664887 -0.0010270442845266333 0.01631128468363174 0.007386223298351814 0.011000057078073344 -0.0008117826380047897 0.011957869067171627 -0.0010381685800559953 -0.030886818604090316 -0.0033489526756642772 0.005736917568067846 0.005865861275871619 0.011891517792917784 0.006397155089125287 -0.0010156951910856712 0.008244506760223725 -0.006338944369502922 -0.010963559708439815 0.005938778160675456 0.011436675015593947 0.003210018349162449 -0.008746798040172001 -0.008616313470051665 0.0064752969681688526 0.024556957363911072 0.022383496685266395 -0.03649058340150608 -0.03486331905269699 -0.005897394575474188 0.013866825257420239 0.0017928920373093374 0.002989863411825563 -0.008655578757345619 -0.0011122867521985956 -0.016154326370158026 0.030224406025698092 0.008355569077195113 0.006597224033900165 -0.003734237290594741 -0.003596440773443647 -0.006919318871524175 -0.0006472205769864521 0.024660214650931146 0.02987506118332501 -0.0069910394265909875 0.009938163921992484 0.011760417782751607 0.002264576955798638 -0.010573506455835883 -0.011629774791222836 0.0030323699692497044 0.01900948315545955 0.017457351783136964 -0.026101256424102805 -0.0022652324374981946 0.02625669680351073 0.008621790049583996 -0.0013851839692416148 -0.0009530434287662944 0.0007877152272146215 0.0068833208058202144 -0.007526275840072122 0.0360425931872481 0.007974654191380071 0.003604607021160676 -0.00447707231151354 -0.007165850963845398 -0.01211718438419648 -0.005931167970316852 0.024521253004888964 0.029526643406332275 -0.01444676077935575 0.0008576347201809298 0.007205816819019358 -0.0012452370735868544 -0.010073172488628681 -0.007967453155698257 -0.007489790117884096 -0.011451910777208052 -0.02069798282972684 -0.01987976397413467 0.009652526857864684 0.03668956182361572 0.013481759318951661 0.011822890753671794 0.013295803830438118 0.004015194118167557 0.010339434769857499 -0.0025179947680769622 -0.019515246987923313 0.0007251539995610733 -0.0003327457582842396 -0.00259190675934538 0.005449411323021368 0.011596837049509453 0.0033422373708096886 0.0019594457494530376 0.006445448036391445 -0.007071717782662702 0.008116717778928428 0.013718823830176837 0.002411144333330971 -0.002355445969572883 -0.0010984274291784917 -0.007208390765934712 -0.010538296908237214 -0.015964353833800442 -0.028485739020318042 -0.004826061369802237 0.0036468222065115527 0.014156467004234823 0.04153390201713909 0.023117607155566496 -0.006439093846376297 -0.014372606061651513 -0.009764753615648622 -0.01364169160050619 -0.009500575191194101 -0.01032586077286851 -0.016441421563147134 0.006702475958708915 0.013450632471894925 0.00010017869875446838 -0.004555318394734945 -0.022997420908114394 0.00911925299096627 0.00641109839067737 0.0028073097878426705 0.002807404866010589 -0.0010695703288832077 0.0221214630889112 0.02545486671592339 0.021945724407575827 0.022529772990889076 -0.00892719814337318 -0.012365282217866088 -0.01015263835216619 -0.006616662828899109 0.016653311601257083 0.024049348426667283 -0.008008157482343738 -0.013265891210680022 -0.013546709686053662 0.002229374149848697 -0.006682234145386473 -0.034982749728648885 -0.022790168235045954 0.014734999723820703 0.007288233657678355 -0.014723774561407874 -0.02188000159649095 -0.017863817897408266 0.012364565539591761 0.007296370410157476 0.0019781844524167824 -0.00016924410232649803 -0.005771777058518106 0.011782550672555174 0.014531691435005892 0.015008187931296586 0.02364869049105234 0.017754257260841788 0.030974429904509417 0.010403303663560707 0.006473378961399429 0.0015856910139203455 0.015123227556395098 0.011556987553442661 0.0006064326366937028 0.01224559693671213 0.010874187913011604 -0.0025357047622148092 -0.02392581433289418 -0.015769809639954356 0.019384796508255055 0.007269355508381662 -0.010281419341448047 -0.016855736216598912 -0.007488481541035794 -0.002769405579230496 -0.02054425552622582 -0.008317328125409907 -0.00713394100139937 -0.00915026006100328 -0.011848721545719984 -0.0040638059269323895 -0.002657502460655555 0.017532232323323783 0.022410323207829857 0.035033314635456225 0.015579305007032028 0.004298839769229939 -0.005507551688674997 0.012604887452449563 0.011248988405771128 0.003879650066325569 0.020677844474463972 -0.016731289193679524 -0.010865339081667076 -0.0033761253218310447 -0.0019458198692466667 0.0029927555443602944 0.003987581138486681 0.009436348919807446 0.013285478170951591 0.007182036911907288 0.011475588607572109 -0.010627995231365978 -0.002372921749695478 -0.0033261718585704623 -0.008175983571672226 -0.008273270945625914 0.0015831007761299837 0.006421604902826727 0.032098438523093846 -0.01040824228345522 -0.018920833487960875 -0.010771384669655942 -0.013335529249747789 -0.01717289800632187 -0.005636177425024285 0.007292104323407676 -0.011573081077387633 -0.022475743133695394 -0.01871386766570398 -0.00884204158120994 -0.001426947576945707 0.002845893943701005 0.012449430174855142 0.012681994789972617 0.016305465421659632 0.019360134969436903 0.011489788882086183 -0.0079333693893123 -0.011307182094965533 0.007819233004227986 0.023540160472231803 0.01610470905341415 0.01584238223039099 0.0007220263905984596 0.01647205564160945 0.0029071608738995515 0.008008259443764768 -0.009509319007677975 -0.008123835567240317 -0.010618001680018026 -0.013178721073807746 -0.002026680047925871 0.00978280453726748 -0.008626698725382092 -0.011885741576076159 -0.0008588140120006215 -0.008693454880280027 0.0028320614551428456 0.0007917307697575151 -0.021742255176009407 0.00815415465721836 0.02738011253524086 0.00963165536647917 0.009591226464414545 -0.034162849710786244 -0.028146215126548947 0.0015443996737757148 0.02070959046548615 0.010841830206513785 0.008208100568194782 -0.007508312054174844 0.0038552585557345836 -0.011373922387345916 0.035165056813716546 0.015193496484993102 0.011261070865769222 0.0018803538004799054 0.0015435501609222888 -0.0021537815353907946 0.004271894988821145 0.029487030632401996 0.036388841305643946 -0.024846865962101988 -0.015989380757619326 -0.005173425348869332 -0.0051205898274559805 -0.0247146385690229 -0.004807061272607977 0.014998609147649578 -0.0022218417375482603 -0.007657556198688187 0.024979294540972103 0.026294076975397634 0.017047969561449678 0.0020549594415428195 -0.008450849021204099 -0.014225214711556501 -0.002634504823591478 0.007666140294788069 0.005864962400227922 0.03821963606736302 0.014680675843836607 0.008663670610198945 -0.0005284612500657345 -0.0008908398478989357 -0.00636122894762824 -0.0009245387701101803 0.027100072732413747 0.03171444922016373 -0.010635670374901889 0.002802759174054203 0.00884465463303823 0.00030509675891519776 -0.0040273507846900515 -0.0020377032742971294 -0.0030780560838326245 -0.008324313741193315 -0.014336527260107021 0.01720724822488085 0.02717749042386832 0.019078362362739618 6.084753368833934e-05 -0.015356760358467687 -0.018515048941373746 -0.006622915238822746 0.0028719876461786244 0.0006899810275039752 -0.031970242919205714 -0.013854825390620062 -0.005546072796124271 -0.0022971030988387232 0.005463532025303636 -0.007395300306744628 -0.015562776862068934 -0.01635123721403347 -0.024539663397791945 0.006941621681792555 0.017633800546177136 0.023917670316676045 0.010808320991889582 0.009310417223593867 0.012310132679694559 0.002180351100087744 -0.004808893404516333 -0.009778180743930907 -0.01718450468447986 0.0005701034401303113 0.008464616572591871 0.01834416517592631 0.04331897377448405 0.031049418590316142 -0.0010216208196305331 -0.00820335746495925 -0.0027354210873133055 -0.021407024043490933 -0.0048047462521488195 0.00022823722388623762 0.0016230072061879318 0.0098614676755723 -0.007077547860801276 -0.009783883972447158 -0.013377546605652671 -0.015296195060908875 -0.009535903864385905 0.0008750641607324065 0.0008552676450342212 0.0011332916797770307 0.005810158453709009 0.0073127784966563695 0.00044647694589167565 -0.009195536888285647 -0.00559279284264548 -0.0051227935361208106 -0.011209199064675582 -0.008233028748522025 -0.0012221046222801266 0.02925702960027422 0.03623110442681254 -0.0009211857275796197 -0.010986109197691577 -0.010692247938577253 0.01824215215737773 0.0005565684753932532 -0.02716463273108713 -0.016880249516474426 0.029563978595575812 0.01858730727497758 -0.01149515573592478 -0.017341390584013176 -0.006550357558894907 -0.0298670304865331 -0.011906519044702156 0.00099372675209437 0.0014927051858953347 0.006359160150138719 0.007666582126704403 0.0026508156971906545 -7.988096490226058e-05 -0.014473909918100533 -0.03723378819189563 -0.026739719132404083 -0.012171192533698484 -0.0023154484586434937 0.005753424397455385 0.016156167869422186 -0.003032195929486126 -0.002139309507875899 -0.023324572570460028 0.01740679565646441 0.002902758326441532 -0.02440610079798094 -0.015227957990125222 0.021422860496754084 0.013455699800948408 -0.004802440865177163 -0.00906183907261069 0.0023542195210863003 0.010329693146163346 -0.01124702993516542 -0.002761915526887761 -0.00021911223174216548 -0.0033759163935054882 -0.009730271658992548 -0.0025712282949154515 0.002048961786487664 0.024336434375389862 -0.03292573077313929 -0.021272675825945043 -0.008935904593091808 0.00027678970657135453 0.008000390839643799 0.016481055408956828 0.006021425771972529 0.005946114313416449 -0.010181217147395389 0.01595591276101982 -0.01202122786505365 -0.009570217403375764 -0.00550222172678338 0.007762242067393949 0.0021012665779779494 0.0006390682362740521 0.0035446409356459487 0.022002434232259446 0.010375793068549528 -0.007399163571611424 -0.0006398454413530335 0.0027183849536762776 -0.002752848940651238 -0.0057192054311987085 0.0018319162813691422 0.007561891555025248 0.0275142693926435 0.0009398673863693834 -0.012373714907636358 -0.008084840946449148 -0.012268608142370673 -0.012458704807467984 0.0001284388783433937 0.013949261335884342 -0.008472061202117114 -0.01895809196008516 0.027900934237131365 -0.005790805917047665 -0.010027600917156425 -0.008245096642925668 0.005672803983821776 0.002846043212033492 0.002027443993766439 0.005544828543369223 0.019209116449613626 0.014765980698579519 -0.013404155954194811 -0.01501479276266937 -0.013021915194022635 -0.020291054670561495 -0.017598385562781798 -0.005091146490733675 -0.005464679333652623 0.014321187492581823 0.007268224942955926 -0.0073700229561214515 -0.007884057516019921 -0.011949182592600832 -0.010569071511830844 0.0019686304142670016 0.013990025271111617 -0.007039426914325895 -0.01332974107466898 -6.312342871511115e-05 -0.001189324916166403 0.00698118519134885 0.0015236236543201146 -0.02095345158779987 0.019285785992674435 0.03793328272601031 0.015809212963043714 0.014274532679026722 0.013665263896077758 -0.011665293191701396 -0.013179581486798571 -0.012558423098309318 -0.01898653823536979 -0.017124189912663512 -0.0037806886976408127 -0.0020803473528825003 0.018101899508500136 0.041349474276379215 0.008596899942193304 -0.011284345637416968 -0.010486212020191888 -0.020690004602655666 -0.023939676458473752 -0.002762076012409643 0.007201219953840618 0.037808474576350504 -0.01673308793182342 -0.01189251607025832 -0.003919994753524736 -0.004221165995008103 -0.023263040327095436 -0.0017115158792068521 0.01948780486930744 0.0026800295294663536 0.0020953051580552776 0.03314786414682842 0.03114755459180784 0.021359869177511936 0.005933842382218165 -0.0040722167552825015 -0.014078536237746752 -0.0075130044956926035 0.011086648978047134 0.011371149028862288 0.024960841840802345 0.0019645562448958567 -0.012659886486423856 -0.009146997000697814 -0.022028097553980497 -0.02963880904951476 -0.009925301514797528 -0.00199805568921158 0.022797807898912486 0.0315779871209299 0.01952581412644947 -0.005535826262060287 -0.00921156849299346 -0.022258164660561054 -0.016223227905825668 0.006683348019885089 0.007540134330758912 0.007418685400211925 0.035572015544758924 0.04002685367076933 0.02888192314600551 0.009743940539959193 -0.0034898369317134964 -0.008590728560076998 -0.0009032194121040257 0.01416501122710383 0.015330731337983768 -0.016388089036961557 -0.007030954355001544 -0.001637228472584166 0.005366928464552379 0.01990254782502129 0.004409983677644667 -0.01109676967235716 -0.012424730744256686 -0.014348607751489835 0.036181328014156376 0.0270317324563265 -0.0012133229921273726 -0.006813754707034178 -0.017042850239591685 -0.012605076189771023 0.002875779385968785 0.001292042241073299 0.004478334990391117 -0.009673913130436505 -0.013570174039575986 -0.007929286634132001 -0.006702884540901179 -0.006569025873837231 -0.014932981104401787 0.00133066618276762 0.004669802662036498 -0.006140974021701628 -0.011850440019380206 0.001997560873628828 -0.0013227459924411663 0.005222017797346356 0.02441276388301848 0.007981225650256807 -0.008290871245916273 -0.010417139015893515 -0.010521534305244572 -0.001939945197993702 0.0029790878757075083 0.00021219787048783358 0.0016942945602949292 0.01708801563112657 0.02102970413614229 0.006446950298252972 -0.00697585394572758 -0.005382757202006078 0.00012151110438910802 -0.011892279472806133 -0.003010553616381563 -0.004871280505107351 0.0010768233008882997 -0.010884689578233697 0.004179038908664501 0.009283349087798412 0.008061712473980166 -0.004147539552390301 -0.005568492151685625 -0.0013666099805149318 -0.008140689434266535 -0.012276060620839023 -0.004640977442874316 -0.003177236714082563 0.0032262341585443622 0.014405836204920742 -0.027759748486427552 -0.01176990123696945 0.0020693184032647147 0.0034149980534118243 0.014040824377019001 0.017794894232624835 0.005251638315191362 0.0012857138312359039 -0.010234271814215925 -0.02183799006520008 -0.02254508755130319 -0.014205078836819306 -0.00047277775293007036 0.013664284986369799 0.02241483786665225 -0.003745789127818225 -0.0011464151550446091 -0.011863127562886105 -0.0018195085091152914 -0.002087576205385561 -0.01139146704792405 -0.020226087656327867 -0.007567162479140748 0.01121363959287871 -0.004057304436807394 -0.007674811636984132 -0.008620886485559904 2.1313461390369125e-05 0.008677096122172103 -0.0008799560023639535 -0.008595040475164304 -0.003898095003251641 -0.00899760506198326 -0.013501674369361354 -0.0020418388256500824 0.014888021377849657 -0.032157223658755354 -0.02378519172660885 -0.017711267298842738 -0.0054016747487403635 0.006085318584212249 0.014010439726806857 8.372308117679604e-05 0.00303805681368937 -0.010966927910577278 0.02015706488756438 -0.007695502781043853 -0.01036464601866163 -0.007066105265124 0.007026839651651829 -0.0036473796550182008 -0.0040285044218829665 0.0005111961845437455 0.02231062603127323 -0.009803646721855436 0.0015451424950125286 -0.002063746958894312 -0.010911162396818986 -0.004280700532709134 -0.004109617056022843 -0.010801062462689547 -0.0017993646198948402 0.011314030424186758 0.030211324644564434 -0.009498904949216028 -0.012866305989400256 0.00019209092924029247 0.005415118662109782 -0.001352479269512067 -0.0069721627398056565 -0.00035674902977698595 0.013503223440299202 0.018239079945658862 -0.008627138752911205 -0.012742520545314292 -0.012253247531879329 -0.001511395868692783 -0.00475247658363705 -0.002951833565613584 0.0008982027494419755 0.01564571688535868 0.004065701167004693 -0.01831657305908022 -0.018123277217941512 -0.014188991683171304 -0.023079028852839717 -0.027078951089698017 -0.007460613925943324 -0.005555227430847269 0.011162541600871103 0.030455696236520155 -0.007841325449515227 -0.012202830809595147 -0.0024282847761284477 0.0050450831813522575 0.00019089192680652793 -0.007666982214206274 -0.002004350970747427 0.010484195375560043 0.034134258450224345 0.0002664864500140701 -0.00047891843702183544 -0.0061277887695057685 -0.004024166126450744 -0.0051461515092391255 -0.011207553781633019 -0.008976867211187909 0.027956971196312033 -0.003548176785623025 -0.021533659265268287 -0.02007355136900338 -0.015838754571428925 -0.021679764719453282 -0.022416987142877196 -0.006472328223251814 -0.003908418860891843 0.009676626483233993 0.036565392013123414 0.007106034791589378 -0.01472883962297893 -0.013010085115685844 -0.02595291317951582 -0.03346586631982589 -0.00776174575301416 0.0018583382313381862 0.025438213793091462 0.025273238950198992 -0.005791296227192805 -0.0010726297617624121 -0.0032464220343336146 0.004739019245970163 0.0014032008356560917 -0.008639592732080767 -0.0030554233566596465 0.03120787323001446 0.023488641558434088 0.013524795159026073 0.0023376187658084 -0.009067643116628844 0.009040776167812853 0.008177572272012271 0.0060824488233861655 0.0045232827582703545 0.025658840539455063 0.02444168054380113 -5.712017137609205e-06 -0.01645110673825782 -0.012177332289723425 -0.02446878696119772 -0.03461325345631555 -0.013156620809055379 -0.0055484896736545325 0.021557877439524937 0.0192441788030087 0.01892685459527687 -0.0059729776521481055 -0.010640731652826179 -0.022939815141128705 -0.01793152838530258 0.006507945342288275 0.007392207380623581 -0.0026012337808740647 0.009892443205968939 0.011246819120920173 0.002222356628231184 -0.004897850058588411 0.006216525558467495 -0.0016485144163959097 0.0003756775473199663 -0.0031086190254610378 0.013609683079316155 0.004179009202244962 0.02091998807314659 -0.0054485823976610104 -0.0028234112423017694 0.013925618040575995 0.010329136569397468 -0.014822784661804788 -0.010507715860721106 0.00989685285362547 0.040032513677255716 0.033561225852314615 0.0031239344135577927 -0.0034378389285340026 -0.01034484542706806 -0.009500099588355244 0.0027183055822218045 0.005500295845998612 0.009677762938502095 -0.018636742087912554 -0.014178666592105975 -0.0067959375837441105 -0.005190215478173167 0.002758459852143381 -0.010843243464412136 0.002806171027222325 0.005166837002505388 -0.007630032272234388 0.023687615979472637 0.03810396582216732 -0.0016222015512762158 0.0016804661093469948 0.021205768819464448 0.01574868081785454 -0.01256597305390666 -0.005776148792545166 0.01763138350379439 -0.029089284734900616 -0.009006220127881813 -0.004490130027595481 -0.005323075471952603 0.0011875511871273026 -0.003784421249563006 -0.01015705890792968 -0.000771202500278452 -0.007457884980401192 -0.0015310296874381547 -0.010946081783967792 -0.0014023001275864006 -0.001778547631182143 0.009064527083066742 -0.008304889855310107 0.009243841164150238 0.01633692451566696 0.008856020158140781 -0.0021159103669379288 -0.005003694879700513 -0.0001032973787902557 -0.008625657479779128 -0.0031150514640853008 0.005025468189741687 0.002122954408530232 0.007851078690474987 0.013327653663723533 -0.020330182189527292 -0.004264398530006543 0.0043962890206237365 0.001354295511774289 0.01269738465576083 0.00340060885546679 -0.0036387676820533827 0.004252704700844363 0.002814931759827544 -0.0028751914217813963 0.011845394331157706 0.01360150061781339 0.0025818675262421903 0.015023843069265087 0.013737720753370436 -0.0008056197825755029 -0.0023419132660712004 0.006426237503672185 -0.011052068839537863 -0.006134753950395123 -0.012001026068588976 -0.024036256477311016 -0.01050548229309248 0.016650597806673526 -0.0012283573400027773 -0.010149351516597207 -0.015171682724921056 -0.014547707836371696 -0.002652267721082004 -0.005516870349726582 -0.007534362203842737 0.008091735707250108 0.0006111690235195205 -0.01298492106426484 0.0030416879644146063 0.012292661587134282 -0.014476070881623502 -0.005377357270144658 -0.009717360003207144 -0.003227147768052331 0.010436629740845334 0.0026319183937908754 0.006326415472865827 0.0047146031090275755 0.0004944587189984718 -0.0013482025501370695 -0.015721933939388297 -0.01678704240069077 -0.011918183765806067 0.0090047770051981 0.0064341746957442434 0.0011787051149240372 0.0016796941008801855 0.0038065748029430884 -0.02408931440598344 -0.009953730092610594 -0.00533776576674653 -0.011310424214100438 0.005953101680544434 0.001811956813553216 -0.010355166930852054 -0.0013494268384731194 0.007364087670212524 0.016870582051093184 -0.01276678975620967 -0.012521073351727538 -0.0005585028012586586 0.005149683922349326 0.0002597364568499014 -0.00790596816692137 -0.006905278787447391 0.007555230704052584 -0.010528196744900667 -0.011797925008540032 -0.009087826853426571 -0.009955856069418487 0.004638124488465247 0.0012873888517758781 -0.002978573696270047 0.000191642095595316 0.0011405481138758958 0.031138097077500086 -0.014541577282359091 -0.019181086113029284 -0.009493526184927681 0.005628841476495065 0.012606670146430193 0.0009880428790763171 0.005042120871730873 0.018439017805098316 0.00529901465236415 -0.01808177391786579 -0.016103269977368724 -0.007192043383441874 -0.0033139743196734205 -0.006948928491552519 -0.012337560637377194 -0.008831015275433028 -0.002285519547884739 0.01918731593282407 -0.008726954485544062 -0.005989314763156146 -0.008270909487849575 -0.011506573390401518 -0.013763907964153353 -0.01715664122933135 -0.015882067033567624 0.01644028336392077 0.016948017643943516 -0.022759521671784834 -0.0236461371403835 -0.01775911565209982 -0.003480309604764734 0.008024969514912557 -0.0014946794426781054 0.0006853892904771642 0.011857751721496994 0.05494756708501959 0.016973336515105086 0.0007833552876399696 -0.006264462043666063 -0.01071220352569106 -0.009604718004302806 -0.009207415016325209 0.002521760194469 0.035043362195057444 0.0075490600502464075 -0.011908207807123074 -0.00628295534050555 -0.006301621159976359 -0.007218931535121733 -0.011044109537762713 -0.014311498708595414 -0.009264151784558838 0.01790089495111008 0.01334027950203601 0.008743198157792268 0.00048008925167087116 -0.012776262289134775 -0.006179734613339644 -0.0024666423629883883 0.0006548831151091917 -0.003281082149629479 0.011839194583190727 0.0495015887371977 0.018740642051622194 0.0022985284588883164 -0.005685988638483013 -0.005559524020961772 -0.003108252338747936 -0.006994727600969349 0.006076970440793414 0.03629853970805302 0.05275129516318518 0.02787833930193653 -0.006286443724867091 -0.007780731270117318 -0.03259753941922184 -0.03224124135938316 -0.007762934754469562 0.008317308882896526 0.024652991969728203 0.01979406221599633 0.01686390815255344 0.004046639625014498 -0.0064055911971517155 -0.00521219845668732 -0.005684600467643863 0.002987333452503089 0.0012797417188706924 0.020943967195591957 -0.013921560333284764 0.007045596232135641 -0.005470530059962124 -0.0019375787528124054 0.007864588284815713 0.01003554151927873 -0.012539382049640911 -0.011134870256147004 -0.0018189814087280465 0.04830029658954627 0.030980216131971616 -0.004329431346617547 -0.008740938156075389 -0.030459331518444356 -0.03145966753539056 -0.008213384993714294 0.00974566565822891 0.024727182325966414 0.020281573194846497 -0.011852505566696385 -0.019235868921096678 -0.002731665302443311 0.01762091851578975 0.005439604695823427 -0.0034582049898194134 -0.005558057740742235 -0.0042419230757634865 0.004207146936059557 0.024276300799859922 -0.0034250200107841023 0.0009225927368268958 0.021290876059572864 0.021345194007829034 -0.010549727852249044 -0.0062614779512177475 0.006801695070160058 -0.0430372434749079 -0.018230292594453096 -0.004724557765661908 -0.0024097684770313437 0.003657232687756839 -0.0003369297110093339 -0.009341344312399446 -0.0008793790810647941 -0.013508353979252707 0.03765478643939651 -0.006174362062645216 -0.014644270666023742 0.00019552547344250546 0.01820715680664081 0.008854921992494881 0.00024115768319419532 -0.004967033596722004 0.0023184185883157815 -0.001212717416201366 -0.0061234495894193375 0.0021015662471882248 -0.008854726616028031 0.006131054592034155 0.006444979614692015 -0.016848495363145435 -0.011619670259648208 -0.002337665656664548 -0.03592527417801455 -0.02035605661545123 0.002748813156381205 0.006200538529823198 0.009132314717420625 -0.0004700335152685968 -0.009237869752809855 -0.0010133979116991056 -0.006595928231982797 0.002510999594808895 0.008636539845124127 0.006773062121842381 -0.005711982907861018 0.006979020529264908 0.00321049426817959 -0.00598663539084935 -0.005273032514785796 0.0019736539498772113 0.010303264608762425 -0.011391070919516326 -0.007554560172445282 -0.012790750369595583 0.007080657049231808 0.007728055835510841 -0.019909164151141853 -0.010810398860560606 0.00018112002956412372 -0.01970547228858015 0.00890233592580395 0.010329531982801786 0.010554410233471968 0.028931302102177855 0.03053516431763326 -0.002451295391123448 -0.002810018291562531 -0.00043680907706145284 -0.021804268498396465 -0.0014210273497330835 -0.0013826469560572726 0.003176144272304155 0.013286491976070661 0.0028847690298625705 0.009979687052410905 0.0052340038980335235 -0.00039439176342243325 0.0011697549598274906 -0.0127433108981246 -0.012735794134484082 -0.009047579085159123 0.014023753834221372 0.004636351590387815 -0.0031072446962241975 -0.00427591188137708 0.003553448613081104 -0.011244787136003681 -0.008581395104918546 -0.006829197169016587 -0.00537247962795615 -0.006327920135323793 0.00865661125354728 0.006302669063298617 0.0035851538550385363 -0.0013223215225261348 -0.025264919400880295 -0.028364329938307748 -0.010663615550573154 0.004680405815634909 0.04309934071820089 0.0316263091662404 -1.5542584814441998e-05 -0.006246681366474794 -0.010798277708077899 -0.020405425914185513 -0.017719361839465854 -0.012788031070738294 -0.013699695211189048 0.00045418052746144387 -0.007720374067882257 -0.00882956103941002 -0.0021783054991994137 -0.0018910085080528526 0.013264295762521345 -0.028063346777635324 -0.02165457410437953 -0.010585762086776583 0.0006124557667934334 0.0069436274391964274 -0.005379435254759925 -0.0035936127921712144 0.008309763947888769 -0.033066807106687704 -0.02560028188330783 -0.01200479460662403 -0.003745496444824303 0.018726916141055067 0.016930170972490236 -0.0052398010681147245 -0.007146287397979984 -0.014328118199472198 0.002142684212055202 0.012462487511646352 0.01670432027247701 0.0076970841704187 0.02310210637474408 0.020581953683370145 0.004203152673350006 0.012529071030347033 -0.0020264712910975356 -0.003677043250027488 -0.033585480256336744 -0.027766124291617546 -0.02056097256786511 -0.012500515764736824 -0.003256349487985618 -0.0106260968679195 -0.0098040058905853 -0.002914574640755033 0.028632745349252985 -0.0005042571464203261 -0.006383116649875588 -0.01277868011998513 -0.01655898099302071 -0.016256080814090655 -0.01574128718275821 -0.007456293181837326 0.024746228619846797 -0.0062478316502739325 -0.0010378942373200097 0.0022655358475778217 -0.008734095298350023 0.005467436251798506 0.003309150377464176 -0.0077659771124243895 -0.0009051233480096739 -0.007695371669980642 0.044603464804879485 0.02014787763260478 0.012332069610847684 -0.0025278671330182575 -0.0064472278044783475 -0.008427161163968288 0.0015918261007662696 0.014713733908002876 0.02928079517464064 0.02279970815170736 -0.0017170857244749997 -0.007366227664867302 -0.014400420060420596 -0.01594409277863177 -0.014422160377001315 -0.014290168104443262 -0.0009529548640485284 0.0265418531851786 0.026875525132137215 0.016886520696810386 -0.011388597385660296 -0.014313546418692613 -0.03884802057735841 -0.039269016595473855 -0.013787101602146785 0.0004896761168122266 0.009989296507276965 0.03721503152735345 0.01942632128168284 0.010124826098960243 0.0005604909644786758 0.0035243265201936992 -0.003943481981367731 0.0008278443536515584 0.016747243348274793 0.025578978844270992 0.03596204636370501 0.03389627621243014 0.012315422232305855 -0.0028805166853799182 -0.011320395420663732 -0.00610699596004213 0.002039640830470999 0.011645159228460263 0.00927975830002217 0.03654356516176217 0.02438631321973788 -0.010719516425631735 -0.016010942070575573 -0.037429854273447465 -0.037540963836185104 -0.013578522663568286 0.00187559617367416 0.014827702128333693 0.009208789604868185 -0.022539918928212745 -0.026425851464705236 -0.01121153680609126 0.002756074325943832 -0.007225630672610209 -0.0109912429344924 -0.012346731775628426 -0.010546191316483156 0.04546969416239276 0.04559081162770356 0.0205456701899752 0.00628551422686942 -0.0013351616683746723 0.002684952877446755 0.006072280229517479 0.01531738999089883 0.019647644577311434 -0.0023859767341381367 -0.00018379456777996772 -0.0006088268387466956 -0.0047713282007859825 -0.003973363699698631 0.004205830703708136 -0.002651267903296553 0.008155322451137528 0.009731270877278637 0.0337505245085928 -0.012927475382010837 -0.019652302198102503 -0.005499981713270077 0.010535149971295713 0.0047039598454345875 -0.0026310312513384507 -0.009300398649992936 -0.0002460913499526729 -0.008099410497295062 -0.013826142353523297 -0.009979530168116162 -0.017669243351306443 -0.004513536884614007 -0.005008530750179405 -0.023739410962357543 -0.016607626356470877 -0.009113193317548176 0.010239790802278794 0.005438132105268942 0.00787997155496142 0.00319120559925373 0.006753592146333677 0.022255563637445647 0.005896248497936514 0.012647299216348022 0.013559041154642574 -0.009597925045250451 0.003223633119156845 -0.005836438522608866 0.0060523342568141476 0.007661644083757306 0.0195671620125109 0.0020722171650584807 0.0004913088098537823 0.002691001607595332 0.005425854973767271 -0.014282366417207659 -0.013547637236929201 -0.022286495570419822 -0.0007044535363465382 -0.0038863819747303463 -0.02605013874226339 -0.01671542867957016 -0.006454649120448323 -0.020232343746433117 0.006439709302290023 0.006877237098443666 0.004617476938102268 0.017400292780010203 0.019278957140114506 -0.00374287273038358 -0.002250657254670322 -0.0017322305775368638 -0.005174967551285276 -0.0009158645326392155 -0.006423824662496606 0.008017967878191343 0.0126732280212959 0.022167519645812383 0.0061540405839528925 0.004857777272170309 0.00856052459153421 -0.008884109942206021 0.003746443440817993 -0.0005218140684176665 -0.00031132260712493735 0.010862242529927117 0.03689599800418432 0.0016244120574032588 0.009879551107994244 0.007114257986799272 -0.0122367438204341 -0.010075251746181537 -0.010550611801576952 -0.009548719898077937 -0.009400644394144805 -0.00016965805925847795 0.003078226887152995 0.004773464988068946 0.0003430463110451452 -0.029436206989975337 -0.028535013119150226 -0.005736490807931211 0.004659822079670166 0.04032352334599227 0.025442572661650415 -0.004559613268416625 -0.008305316302246096 -0.009954135256958232 -0.01035079645844136 -0.007116965991069012 0.008604429908600724 0.003959577574510582 0.02293211599957537 0.03594312641679736 -0.004253839031751893 0.00044714814359843856 -0.0043347471588897155 0.0034308935930970515 -0.005271905280920822 -0.0006804265948454946 -0.011696095279960595 0.01725232107175801 0.04234800100419506 0.01730824437975076 -0.0022528361317788897 -0.01956487878068644 -0.04308140198540526 -0.034984789336067704 -0.013882031708423502 -0.0077546322407619425 0.00565824827596622 -0.0005196998867881423 -0.011052097255634174 -0.011675365483388482 -0.01591029313792484 0.007405392985620676 0.006778625281598983 0.01130014484122102 0.002741836600405665 0.018024899887321453 0.006396249762930305 -0.002873102049730002 0.010376182370607572 0.00038293041131566 -0.013887738690642505 -0.020026777731107157 -0.015592146170235658 -0.020527239230912 0.00556964361641972 0.024976417552343803 0.0027132286005716296 -0.009088355601741788 -0.0196668916971158 -0.03627857754236332 0.0030187045109985734 0.0027785551152715183 -0.014957238081024981 0.020767084626324428 0.03822055797856561 0.016769265339628008 0.003148886497155936 -0.017490391349283523 -0.013663410065349615 -0.006707067165258852 -0.0017134026864463752 -0.014047770199560442 -5.154438363161009e-05 -0.009038646687114266 -0.0113881373511963 -0.005836879950795523 -0.015910634808729812 0.04075128659860194 0.017117896873714136 0.005908769772419653 -0.007087020495371816 -0.006907512684452748 -0.017514337197930385 -0.0037911317032881587 0.009594936567554462 0.023597439475492404 -0.03711164742772283 -0.005648335172567196 -0.007767751168352798 -0.023721367721193078 0.005579458303817521 0.01941985264791779 0.0035384460848122325 -0.006696563829742585 -0.025452922156554 -0.004649984539040978 0.007451576208043676 0.004233021406084022 -0.004566614588248099 0.02430840518180391 0.027419238969035427 -0.0011363539996358998 0.004686841617908764 -0.0003192467886263561 0.026743150244244857 0.013251285121267643 0.0013443868505021257 -0.009569200229612669 -0.0028256343547509205 -0.01320265704759909 -0.0058991595332425345 0.011017924690604336 0.020053873268149662 0.023337977903589095 0.02776443815628807 0.001989944008296969 -0.012241078830285853 -0.021538622891087565 -0.01310411030884845 -0.004253158056808611 0.005043370952714495 0.0011963214527846923 -0.007117962950144478 0.008158597948111374 0.0034589204538392196 -0.003420249116393479 0.023276996890176222 0.025571038244721945 -0.0025217959027317963 0.004097618999732706 -0.000891231700818266 0.0017003405355277017 0.00804158007905998 0.0018249755977419223 0.0016980447765230968 0.03445994959903179 0.0089042413595337 0.0009740776560863075 0.0013427359753353577 -0.012455263999035427 0.042883966120144036 0.04336676210824201 0.010265773191503045 -0.0027262773692457655 -0.008027194723319612 -0.0015977532582395681 0.004099490456504791 0.01574475932249255 0.01984188419895224 -0.002763526972228363 -0.008521038621052987 -0.010344453038263356 -0.014062383328127027 -0.009610807906293354 -0.0008976298377356287 -0.009465709182967354 0.004105317409305516 0.007110956563627031 0.008357225123544889 0.015837540246403672 0.010478854885128187 0.014502008795069042 0.05028705473004732 0.015287638732630332 0.005145452571852996 0.005341393832476443 -0.007338773152137599 -0.025947670894214812 -0.013363370132169546 -0.007936570144885219 -0.00722899311818371 -0.0045026643979363574 -0.011405962625810704 -0.015927533766933715 -0.01787652811457672 -0.012546941815391505 0.017017516482351173 -0.0013833783566492889 -0.0005536626905439709 -0.004996474402864496 0.0065292511353381615 0.023109073121639727 0.004310658722478436 0.015639398448000538 0.019165967834214273 -0.011547787738359414 -0.0033941576508492973 -0.014154565236761557 0.00018760124585351509 0.002680748765418804 0.018299084217136975 0.006943800456370936 0.0026382718364420304 0.0027652014891227537 -0.02041872396949425 -0.006659765760481077 0.0026697106836450378 0.013307881609013425 0.026836384318658934 0.015567962048990941 -0.002819639544555047 -0.011749985065140332 -0.0030807175742571195 -0.019944475341684465 -0.0019777805074250973 -0.0028608413214576663 -0.013249426895229623 0.0008082328192279653 0.010862109061313461 0.004097119042595418 -0.006908459294179587 -0.016314386382311766 -0.013532111933512775 -0.0079519421601798 -0.013666902541158215 0.006068185333755747 0.012960272974640101 0.019674963336272683 0.00296933303701112 0.0013608894400781424 0.0013904238086924871 -0.012901350436836424 -0.00017350251311612627 -0.004134904877930636 -0.004411108878842796 0.006093123028739026 0.03335277753054605 -0.006158721443477267 0.0061475061734379355 0.002138302809879537 -0.01991928779549963 0.0009324581945756407 -0.002239420357276457 -0.00914623945956987 0.015293976282536217 0.019539310691952687 0.011153827403275654 -0.007745892102950091 -0.018907401368887425 -0.011051323003237431 -0.006993283728503848 -0.007901550154938814 -0.011344356619883476 0.010654796854479962 0.017151482836537394 -4.593815613057991e-05 -0.005171846571634267 0.005384227312864878 -0.011684435020848111 -0.007758265964388888 0.006906739116311173 -0.0028765609148020026 0.016957303529320112 0.03374609825414337 -0.009934496852092075 -0.0007651596191268538 -0.003456617184181465 -0.004500048115315101 -0.010988316156452703 -0.009313171158751665 -0.01366622517785598 0.019383665596899705 0.03948403873361827 0.007984102392567638 -0.007117022218986735 -0.0250943618396862 -0.01954559301144211 -0.012035627318484197 -0.004060189687704002 -0.005033758813458217 0.008372407820684108 0.02091740911233087 -0.003766332915762822 -0.005464671488112721 -0.005237060172641216 0.01403984428895575 0.011624496077507925 0.009657408976337082 -0.010530202601701443 -0.006121889308912356 -0.0011983315924231916 -0.0077537000238380215 -0.00836876217512377 0.002131139708272484 -0.005388221683488093 -0.015655871577111895 -0.01552546338284741 -0.01884128275667533 0.013375027054564968 0.035786432214766885 0.007949981599335448 -0.0018364088612485199 -0.015518834827079397 -0.03187244802377775 0.008575231004676326 0.01198038505233312 -0.0063271298801169905 0.038667550294752974 0.05775174516117841 0.03453844518289145 0.024195793994374735 0.001495333533567037 0.013792106025882829 0.005942367477555928 0.004134831741569614 -0.0056489028168324115 0.00021585612298237835 0.003353838405606126 -0.003604801677603008 -0.005259563290804186 0.0004948309193635267 -0.03383084878188346 -0.007881830592400533 -0.008027121898641706 -0.010877050286953252 -0.008350825585124228 0.01780787465559651 -0.0012633820415075582 -0.011266943531710876 -0.017201043537320843 -0.04022604455498101 -0.001633667236993165 -0.003677015862149363 -0.024098323542630227 0.013525659860901816 0.03140229624699842 0.01461119670668085 0.005992852720806621 -0.014758002461903393 0.0187216752916474 0.03574686760833992 0.018256732054091496 0.009557032440799553 0.05470397224800859 0.060710140382323925 0.013270254033931247 0.023237425072133527 0.020499934449034047 -0.048078324034612416 -0.01581386201174272 -0.01607309788354223 -0.014285688269780179 -0.01499225168004791 0.005308473877916808 -0.013584077892441877 -0.020257601550605155 -0.024941092872720217 -0.03462415195110375 -0.012797412063308828 -0.011774531521576937 -0.020691579372943032 -0.00566116978870653 0.007395548691560433 -0.017298302600194278 -0.017869716231167804 -0.016822892591460813 0.013049805980161875 0.028179495191168826 0.00874460950631496 -0.004805539265665904 0.031743016500639314 0.044283405242887264 0.0012031057119690134 0.011939272810311262 0.01271232757001279 0.020373909796744548 0.0221781219651156 0.01000855981839481 0.015756220442518096 0.06083195354193561 0.01517350895107862 0.007211756476560675 0.011069708691371995 0.0019070865250063532 -0.03811085111298777 -0.016287159356728552 -0.016021308979383225 -0.020408812012214027 -0.00287022568225508 0.005160336105266062 -0.02226532247729903 -0.02384295608179851 -0.021068180999766657 -0.034328984948434026 -0.017880784532645903 -0.020560713742998768 -0.025834182088095802 -0.01814296269693684 -0.003732060864729828 -0.016985419549271078 -0.01562975418875438 -0.022510383597093512 0.034238108561452124 0.03568786407130514 0.026756816229257276 0.03898579013467468 0.08746069483587302 0.03476340574259117 0.022988806550366656 0.029059319977391203 0.016455616134147876 -0.02387212046309722 -0.01136978490020756 -0.006377711369624707 0.008132149883073652 0.013549850115777563 -0.0015314693868630483 -0.014189629650308481 -0.01499278396843475 -0.011572495555551888 -0.027933641865198044 -0.013870302895596603 -0.012877371927630868 -0.01619653371955217 -0.005333846939648788 0.00864166623595979 -0.010367946952901594 -0.010161177756960984 -0.019482911908378305 -0.033462702005545776 -0.016020611386896942 -0.00920164874582273 -0.018822256125116153 -0.0114840551811411 -0.011663437953106428 -0.019425950180523562 -0.010783471779384357 -0.007690004998485165 -0.016211786378391175 -0.0036843061568410693 0.013359795280568895 0.03735113351205657 0.04981251850020286 0.03318740252083774 0.0053035921316211395 0.0014339941985755849 0.007866967071587114 -0.022909543701560727 -0.0024496081713105324 -0.00289866652887686 -0.0009359495170485062 0.01970237738101236 0.031488264373084406 0.018090494332081056 -0.00014715110579343016 -0.016258814466237868 -0.020045151823653098 -0.00953977926293198 5.349569442111397e-05 -0.009778025121851634 0.0076131340204037435 0.0075692549938834565 -0.009700013863466857 -0.0036058246230475056 -0.0006577147705714319 -0.003285366080518083 0.00684942072162594 -0.0029139937837238577 -0.01641433221934384 -0.0009194768698719676 0.006508143580818952 -0.0025905984646866897 0.0018164606270593352 -0.001001566295980715 -0.01738877108814274 0.001160531475459233 -0.002298155160560389 3.886071286756613e-05 0.03370751986038133 0.042387753901993765 0.026940419214054843 0.004182027261001874 -0.01307461199030078 -0.007038068051598161 -0.005960941734869206 -0.003771480227941185 -0.004518430845753898 0.03270157484601297 0.037717734724237915 0.011045818777394982 0.00010179299900151797 0.011543618089528987 -0.004334700312469175 0.006756883606701923 0.0019386497832658126 -0.01350416135467484 -0.004254979333612394 0.00859460624577829 -0.0047488343499711575 0.0016942384398527576 -0.0002552213349815432 -0.020086902938056463 -0.006583898715704945 0.0030750692509976356 0.005692654647888471 -0.004483318333266015 0.003968407405402059 -0.0004333037410944859 -0.005704235910688796 -0.004096195809278387 
-1.721910430475815
0.004156728512972666 0.0 0.01327126782258869 0.0 0.015316253685642276 0.02954560770994737 0.013758956848829735 0.0007245952082220097 0.0005813171349984452 0.0033079967609352876 0.0 0.0 0.0 0.01915187536867998 0.0 0.0 0.0 0.0 0.0 0.0 0.0 0.0 0.023340033838933086 0.01540028437576739 0.0 0.0 0.0 0.0 0.0 0.0 0.007371677105779115 0.0 0.0 0.0 0.0 0.0 0.0 0.0 0.019994996252206187 0.022069161476673194 0.0 0.00899063709846197 0.0 0.02170772110422633 0.0 0.0 0.0 0.0 0.0 0.009007322448725664 0.0 0.0 0.0 0.008543664320545073 0.0 0.0 0.011404752965247468 0.0 0.0 0.0 0.0 0.0 0.006125740591525254 0.0 0.0 0.0 0.02412156790255054 0.018251069838249853 0.0 0.0 0.0 0.0 0.0 0.0 0.016847226750734322 0.0 0.0 0.0 0.0 0.0 0.0 0.0 0.011023888983023675 0.0 0.0 0.0 0.019390234396426266 0.0 0.0 0.015342788058759122 0.0 0.0 0.014559040197124286 0.0 0.008098960937161222 0.0 0.0 0.0 0.0 0.009367645531971742 0.0 0.018251069838249853 0.019994996252206187 0.019390234396426266 0.0 0.013707183691951109 0.014559040197124286 0.0 0.022069161476673194 0.02412156790255054 0.0 0.0 0.005717788148807473 0.009077876493793937 0.007626089345210807 0.010365401676821883 0.0 0.010218314377740262 0.0 0.007339844114948308 0.01540028437576739 0.0 0.0 0.0 0.0030426325582421226 0.00899063709846197 0.0 0.0074289321016228135 0.007371677105779115 0.006125740591525254 0.006148745636348728 0.0 0.008098960937161222 0.012378313823711906 0.008543664320545073 0.007301609799169176 0.0 0.0 0.006325012973729619 0.011404752965247468 0.0 0.0 0.0 0.011023888983023675 0.0 0.011129438601926849 0.0 0.0 0.0 0.006481098974083667 0.0 0.009007322448725664 0.00028776661192550165 0.0009500895486918154 0.0 0.0 0.0 0.0 0.0 0.0 0.0 0.0 0.0 0.0 0.0 0.0 0.0 0.0 0.0 0.0 0.0 0.0 0.0 0.0 0.0 0.0 0.0 0.0 0.0 0.0 0.0 0.0 0.0 0.0 0.0 0.0 0.0 0.0 0.0 0.0 0.0 0.0 0.0 0.0 0.0 0.0 0.0 0.0 0.0 0.0 0.0 0.0 0.0 0.0 0.0 0.0 0.0 0.0 0.0 0.0 0.0 0.0 0.0 0.0 0.0 0.0 0.0 0.0 0.0 0.0 0.0 0.0 0.0 0.0 0.0 0.0 0.009535310807418916 0.009888648665092425 0.0 0.0 0.0 0.0 0.0 0.0 0.0 0.0 0.0 0.0 0.0 0.0 0.0 0.0 0.0 0.0 0.0 0.0 0.0 0.0 0.0 0.0 0.0 0.0 0.0 0.0 0.0 0.0 0.0 0.0 0.0 0.0 0.0 0.0 0.0 0.0 0.0 0.0 0.0 0.0 0.0 0.0 0.0 0.0 0.0 0.0 0.0 0.0 0.0086985799248156 0.0 0.0 0.0 0.0 0.0 0.0 0.0 0.0 0.0 0.0 0.0 0.0 0.0 0.0 0.0 0.020498697515918426 0.0 0.0 0.0 0.0 0.0 0.0 0.0 0.0 0.0 0.0 0.0 0.0 0.0 0.0 0.0 0.0 0.0 0.0 0.0 0.012272638945469717 0.0 0.0 0.0 0.0 0.0 0.0 0.0 0.0 0.0 0.0 0.0 0.0 0.0 0.0 0.0 0.0 0.0 0.0 0.0 0.0 0.0 0.0 0.0 0.0 0.0 0.0 0.0 0.0 0.0 0.0 0.0 0.0 0.0 0.0 0.0 0.0 0.0 0.0 0.0 0.0 0.0 0.0 0.0 0.0 0.0 0.0 0.0 0.0 0.0 0.0 0.0 0.0 0.0 0.0 0.0 0.0 0.0 0.0 0.0 0.0 0.0 0.0 0.0 0.0 0.0 0.0 0.0 0.0 0.0 0.0 0.0 0.0 0.0 0.0 0.0 0.0 0.0 0.0 0.0 0.0 0.0 0.0 0.0 0.0 0.0 0.0 0.0 
